<?xml version="1.0"?>
<MethodSetup Method="BDT::BDT">
  <GeneralInfo>
    <Info name="TMVA Release" value="4.2.0 [262656]"/>
    <Info name="ROOT Release" value="6.02/05 [393733]"/>
    <Info name="Creator" value="psilva"/>
    <Info name="Date" value="Mon Nov  2 00:53:20 2015"/>
    <Info name="Host" value="Linux cmsbuild12.cern.ch 2.6.32-573.7.1.el6.x86_64 #1 SMP Wed Sep 23 10:12:03 CEST 2015 x86_64 x86_64 x86_64 GNU/Linux"/>
    <Info name="Dir" value="/afs/cern.ch/work/p/psilva/BTV/CMSSW_7_4_14/src/RecoBTag/PerformanceMeasurements/test/ttbar"/>
    <Info name="Training events" value="20000"/>
    <Info name="TrainingTime" value="1.09629885e+02"/>
    <Info name="AnalysisType" value="Classification"/>
  </GeneralInfo>
  <Options>
    <Option name="V" modified="No">False</Option>
    <Option name="VerbosityLevel" modified="No">Default</Option>
    <Option name="VarTransform" modified="No">None</Option>
    <Option name="H" modified="No">False</Option>
    <Option name="CreateMVAPdfs" modified="No">False</Option>
    <Option name="IgnoreNegWeightsInTraining" modified="No">False</Option>
    <Option name="NTrees" modified="Yes">1000</Option>
    <Option name="MaxDepth" modified="Yes">3</Option>
    <Option name="MinNodeSize" modified="Yes">5%</Option>
    <Option name="nCuts" modified="No">20</Option>
    <Option name="BoostType" modified="Yes">Grad</Option>
    <Option name="AdaBoostR2Loss" modified="No">quadratic</Option>
    <Option name="UseBaggedBoost" modified="No">False</Option>
    <Option name="Shrinkage" modified="Yes">1.000000e+00</Option>
    <Option name="AdaBoostBeta" modified="No">5.000000e-01</Option>
    <Option name="UseRandomisedTrees" modified="No">False</Option>
    <Option name="UseNvars" modified="No">4</Option>
    <Option name="UsePoissonNvars" modified="No">True</Option>
    <Option name="BaggedSampleFraction" modified="No">6.000000e-01</Option>
    <Option name="UseYesNoLeaf" modified="No">True</Option>
    <Option name="NegWeightTreatment" modified="Yes">pray</Option>
    <Option name="Css" modified="No">1.000000e+00</Option>
    <Option name="Cts_sb" modified="No">1.000000e+00</Option>
    <Option name="Ctb_ss" modified="No">1.000000e+00</Option>
    <Option name="Cbb" modified="No">1.000000e+00</Option>
    <Option name="NodePurityLimit" modified="No">5.000000e-01</Option>
    <Option name="SeparationType" modified="No">giniindex</Option>
    <Option name="DoBoostMonitor" modified="No">False</Option>
    <Option name="UseFisherCuts" modified="No">False</Option>
    <Option name="MinLinCorrForFisher" modified="No">8.000000e-01</Option>
    <Option name="UseExclusiveVars" modified="No">False</Option>
    <Option name="DoPreselection" modified="No">False</Option>
    <Option name="SigToBkgFraction" modified="No">1.000000e+00</Option>
    <Option name="PruneMethod" modified="No">nopruning</Option>
    <Option name="PruneStrength" modified="No">0.000000e+00</Option>
    <Option name="PruningValFraction" modified="No">5.000000e-01</Option>
    <Option name="nEventsMin" modified="No">0</Option>
    <Option name="UseBaggedGrad" modified="No">False</Option>
    <Option name="GradBaggingFraction" modified="No">6.000000e-01</Option>
    <Option name="UseNTrainEvents" modified="No">0</Option>
    <Option name="NNodesMax" modified="No">0</Option>
  </Options>
  <Variables NVar="12">
    <Variable VarIndex="0" Expression="close_mlj[0]" Label="close_mlj[0]" Title="M(close lepton,jet)GeV" Unit="F" Internal="close_mlj_0_" Type="F" Min="1.37587061e+01" Max="1.10880469e+03"/>
    <Variable VarIndex="1" Expression="close_dphi" Label="close_dphi" Title="#Delta#phi(close lepton,jet)rad" Unit="F" Internal="close_dphi" Type="F" Min="3.53574753e-04" Max="3.14157748e+00"/>
    <Variable VarIndex="2" Expression="close_deta" Label="close_deta" Title="#Delta#eta(close lepton,jet)" Unit="F" Internal="close_deta" Type="F" Min="1.10685825e-04" Max="4.35053205e+00"/>
    <Variable VarIndex="3" Expression="close_lj2ll_dphi" Label="close_lj2ll_dphi" Title="#Delta#phi(close lepton+jet,dilepton)rad" Unit="F" Internal="close_lj2ll_dphi" Type="F" Min="1.16291223e-04" Max="3.14104843e+00"/>
    <Variable VarIndex="4" Expression="close_lj2ll_deta" Label="close_lj2ll_deta" Title="#Delta#eta(close lepton+jet,dilepton)" Unit="F" Internal="close_lj2ll_deta" Type="F" Min="3.03331581e-05" Max="6.72463560e+00"/>
    <Variable VarIndex="5" Expression="far_mlj" Label="far_mlj" Title="M(far lepton,jet)GeV" Unit="F" Internal="far_mlj" Type="F" Min="2.12730961e+01" Max="1.90267529e+03"/>
    <Variable VarIndex="6" Expression="far_dphi" Label="far_dphi" Title="#Delta#phi(far lepton,jet)rad" Unit="F" Internal="far_dphi" Type="F" Min="3.47584486e-04" Max="3.14156628e+00"/>
    <Variable VarIndex="7" Expression="far_deta" Label="far_deta" Title="#Delta#eta(far lepton,jet)" Unit="F" Internal="far_deta" Type="F" Min="6.39259815e-06" Max="4.71064615e+00"/>
    <Variable VarIndex="8" Expression="far_lj2ll_dphi" Label="far_lj2ll_dphi" Title="#Delta#phi(far lepton+jet,dilepton)rad" Unit="F" Internal="far_lj2ll_dphi" Type="F" Min="2.59921217e-06" Max="3.14155722e+00"/>
    <Variable VarIndex="9" Expression="far_lj2ll_deta" Label="far_lj2ll_deta" Title="#Delta#eta(far lepton+jet,dilepton)" Unit="F" Internal="far_lj2ll_deta" Type="F" Min="2.02758602e-05" Max="7.50928259e+00"/>
    <Variable VarIndex="10" Expression="j2ll_dphi" Label="j2ll_dphi" Title="#Delta#phi(dilepton,jet)" Unit="rad" Internal="j2ll_dphi" Type="F" Min="6.96274292e-05" Max="3.14157629e+00"/>
    <Variable VarIndex="11" Expression="j2ll_deta" Label="j2ll_deta" Title="#Delta#eta(dilepton,jet)" Unit="" Internal="j2ll_deta" Type="F" Min="1.12847054e-04" Max="7.09487486e+00"/>
  </Variables>
  <Spectators NSpec="0"/>
  <Classes NClass="2">
    <Class Name="Signal" Index="0"/>
    <Class Name="Background" Index="1"/>
  </Classes>
  <Transformations NTransformations="0"/>
  <MVAPdfs/>
  <Weights NTrees="1000" AnalysisType="1">
    <BinaryTree type="DecisionTree" boostWeight="1.0000000000000000e+00" itree="0">
      <Node pos="s" depth="0" NCoef="0" IVar="0" Cut="1.7019384765625000e+02" cType="1" res="-1.1022735145360565e-15" rms="5.0000000000000000e-01" purity="5.0000000000000000e-01" nType="0">
        <Node pos="l" depth="1" NCoef="0" IVar="11" Cut="1.9086488485336304e+00" cType="1" res="4.1681956499814987e-02" rms="4.9825957417488098e-01" purity="5.4168194532394409e-01" nType="0">
          <Node pos="l" depth="2" NCoef="0" IVar="11" Cut="1.0903875827789307e+00" cType="1" res="8.4627516567707062e-02" rms="4.9278613924980164e-01" purity="5.8462750911712646e-01" nType="0">
            <Node pos="l" depth="3" NCoef="0" IVar="-1" Cut="0.0000000000000000e+00" cType="1" res="9.4970501959323883e-02" rms="4.8615035414695740e-01" purity="6.1686676740646362e-01" nType="-99"/>
            <Node pos="r" depth="3" NCoef="0" IVar="-1" Cut="0.0000000000000000e+00" cType="1" res="1.0899263434112072e-02" rms="4.9981832504272461e-01" purity="5.1347762346267700e-01" nType="-99"/>
          </Node>
          <Node pos="r" depth="2" NCoef="0" IVar="2" Cut="1.6797012090682983e+00" cType="1" res="-1.3935105502605438e-01" rms="4.8018878698348999e-01" purity="3.6064895987510681e-01" nType="0">
            <Node pos="l" depth="3" NCoef="0" IVar="-1" Cut="0.0000000000000000e+00" cType="1" res="-6.0693930834531784e-02" rms="4.9430972337722778e-01" purity="4.2478108406066895e-01" nType="-99"/>
            <Node pos="r" depth="3" NCoef="0" IVar="-1" Cut="0.0000000000000000e+00" cType="1" res="-2.2737343609333038e-01" rms="4.1378355026245117e-01" purity="2.1931660175323486e-01" nType="-99"/>
          </Node>
        </Node>
        <Node pos="r" depth="1" NCoef="0" IVar="-1" Cut="0.0000000000000000e+00" cType="1" res="-3.5248419642448425e-01" rms="2.4494515359401703e-01" purity="6.4107961952686310e-02" nType="-99"/>
      </Node>
    </BinaryTree>
    <BinaryTree type="DecisionTree" boostWeight="1.0000000000000000e+00" itree="1">
      <Node pos="s" depth="0" NCoef="0" IVar="7" Cut="1.7945358753204346e+00" cType="1" res="-7.5942772673442960e-04" rms="4.8159089684486389e-01" purity="5.0000000000000000e-01" nType="0">
        <Node pos="l" depth="1" NCoef="0" IVar="0" Cut="1.3211636352539062e+02" cType="1" res="5.3925286978483200e-02" rms="4.8723018169403076e-01" purity="5.7639169692993164e-01" nType="0">
          <Node pos="l" depth="2" NCoef="0" IVar="0" Cut="7.0116508483886719e+01" cType="1" res="7.2487093508243561e-02" rms="4.8796120285987854e-01" purity="6.0366082191467285e-01" nType="0">
            <Node pos="l" depth="3" NCoef="0" IVar="-1" Cut="0.0000000000000000e+00" cType="1" res="2.1271757781505585e-02" rms="4.9548143148422241e-01" purity="5.5961495637893677e-01" nType="-99"/>
            <Node pos="r" depth="3" NCoef="0" IVar="-1" Cut="0.0000000000000000e+00" cType="1" res="8.7392188608646393e-02" rms="4.7960960865020752e-01" purity="6.3569718599319458e-01" nType="-99"/>
          </Node>
          <Node pos="r" depth="2" NCoef="0" IVar="-1" Cut="0.0000000000000000e+00" cType="1" res="-7.0195436477661133e-02" rms="4.5961141586303711e-01" purity="3.7701025605201721e-01" nType="-99"/>
        </Node>
        <Node pos="r" depth="1" NCoef="0" IVar="0" Cut="1.7089952087402344e+02" cType="1" res="-1.2632770836353302e-01" rms="4.4356554746627808e-01" purity="3.2458761334419250e-01" nType="0">
          <Node pos="l" depth="2" NCoef="0" IVar="11" Cut="2.5463857650756836e+00" cType="1" res="-8.2061052322387695e-02" rms="4.7866046428680420e-01" purity="3.9756116271018982e-01" nType="0">
            <Node pos="l" depth="3" NCoef="0" IVar="-1" Cut="0.0000000000000000e+00" cType="1" res="-3.0811980366706848e-02" rms="4.9291968345642090e-01" purity="4.5924997329711914e-01" nType="-99"/>
            <Node pos="r" depth="3" NCoef="0" IVar="-1" Cut="0.0000000000000000e+00" cType="1" res="-1.5637330710887909e-01" rms="4.2122280597686768e-01" purity="2.4331659078598022e-01" nType="-99"/>
          </Node>
          <Node pos="r" depth="2" NCoef="0" IVar="-1" Cut="0.0000000000000000e+00" cType="1" res="-2.8149154782295227e-01" rms="1.3662123680114746e-01" purity="1.9027402624487877e-02" nType="-99"/>
        </Node>
      </Node>
    </BinaryTree>
    <BinaryTree type="DecisionTree" boostWeight="1.0000000000000000e+00" itree="2">
      <Node pos="s" depth="0" NCoef="0" IVar="0" Cut="1.7019384765625000e+02" cType="1" res="-1.5925451880320907e-03" rms="4.7308537364006042e-01" purity="5.0000000000000000e-01" nType="0">
        <Node pos="l" depth="1" NCoef="0" IVar="7" Cut="1.5590498447418213e+00" cType="1" res="1.5675926581025124e-02" rms="4.8619508743286133e-01" purity="5.4168194532394409e-01" nType="0">
          <Node pos="l" depth="2" NCoef="0" IVar="5" Cut="1.3438493347167969e+02" cType="1" res="4.7981485724449158e-02" rms="4.8624873161315918e-01" purity="6.0463029146194458e-01" nType="0">
            <Node pos="l" depth="3" NCoef="0" IVar="-1" Cut="0.0000000000000000e+00" cType="1" res="5.3819861263036728e-02" rms="4.8249176144599915e-01" purity="6.2229979038238525e-01" nType="-99"/>
            <Node pos="r" depth="3" NCoef="0" IVar="-1" Cut="0.0000000000000000e+00" cType="1" res="5.2072975086048245e-04" rms="4.9339663982391357e-01" purity="5.5580532550811768e-01" nType="-99"/>
          </Node>
          <Node pos="r" depth="2" NCoef="0" IVar="0" Cut="1.2571752929687500e+02" cType="1" res="-4.7531373798847198e-02" rms="4.7984007000923157e-01" purity="4.1852074861526489e-01" nType="0">
            <Node pos="l" depth="3" NCoef="0" IVar="-1" Cut="0.0000000000000000e+00" cType="1" res="-1.6549015417695045e-02" rms="4.9018532037734985e-01" purity="4.5725986361503601e-01" nType="-99"/>
            <Node pos="r" depth="3" NCoef="0" IVar="-1" Cut="0.0000000000000000e+00" cType="1" res="-1.3521578907966614e-01" rms="4.1672319173812866e-01" purity="2.6024523377418518e-01" nType="-99"/>
          </Node>
        </Node>
        <Node pos="r" depth="1" NCoef="0" IVar="-1" Cut="0.0000000000000000e+00" cType="1" res="-2.0027635991573334e-01" rms="2.3783707618713379e-01" purity="6.4107961952686310e-02" nType="-99"/>
      </Node>
    </BinaryTree>
    <BinaryTree type="DecisionTree" boostWeight="1.0000000000000000e+00" itree="3">
      <Node pos="s" depth="0" NCoef="0" IVar="2" Cut="1.2430882453918457e+00" cType="1" res="-1.6954739112406969e-03" rms="4.6896448731422424e-01" purity="5.0000000000000000e-01" nType="0">
        <Node pos="l" depth="1" NCoef="0" IVar="0" Cut="8.5503089904785156e+01" cType="1" res="2.6894610375165939e-02" rms="4.8379740118980408e-01" purity="5.6788891553878784e-01" nType="0">
          <Node pos="l" depth="2" NCoef="0" IVar="8" Cut="1.0467087030410767e+00" cType="1" res="-2.4918785784393549e-03" rms="4.9145790934562683e-01" purity="5.4883450269699097e-01" nType="0">
            <Node pos="l" depth="3" NCoef="0" IVar="-1" Cut="0.0000000000000000e+00" cType="1" res="-2.5406636297702789e-02" rms="4.9257630109786987e-01" purity="5.2076566219329834e-01" nType="-99"/>
            <Node pos="r" depth="3" NCoef="0" IVar="-1" Cut="0.0000000000000000e+00" cType="1" res="4.1127622127532959e-02" rms="4.8501026630401611e-01" purity="6.0138887166976929e-01" nType="-99"/>
          </Node>
          <Node pos="r" depth="2" NCoef="0" IVar="1" Cut="1.4976586103439331e+00" cType="1" res="6.7646756768226624e-02" rms="4.6993741393089294e-01" purity="5.9431284666061401e-01" nType="0">
            <Node pos="l" depth="3" NCoef="0" IVar="-1" Cut="0.0000000000000000e+00" cType="1" res="1.2418997287750244e-01" rms="4.5038250088691711e-01" purity="6.9050896167755127e-01" nType="-99"/>
            <Node pos="r" depth="3" NCoef="0" IVar="-1" Cut="0.0000000000000000e+00" cType="1" res="1.3391789980232716e-02" rms="4.7572782635688782e-01" purity="5.2917331457138062e-01" nType="-99"/>
          </Node>
        </Node>
        <Node pos="r" depth="1" NCoef="0" IVar="5" Cut="1.2978089904785156e+02" cType="1" res="-7.2533868253231049e-02" rms="4.2174461483955383e-01" purity="3.3178994059562683e-01" nType="0">
          <Node pos="l" depth="2" NCoef="0" IVar="1" Cut="8.7567168474197388e-01" cType="1" res="2.1199112758040428e-02" rms="4.8595395684242249e-01" purity="5.4118877649307251e-01" nType="0">
            <Node pos="l" depth="3" NCoef="0" IVar="-1" Cut="0.0000000000000000e+00" cType="1" res="-1.2259629555046558e-02" rms="4.9422195553779602e-01" purity="5.1346826553344727e-01" nType="-99"/>
            <Node pos="r" depth="3" NCoef="0" IVar="-1" Cut="0.0000000000000000e+00" cType="1" res="4.7264657914638519e-02" rms="4.7587254643440247e-01" purity="5.6659775972366333e-01" nType="-99"/>
          </Node>
          <Node pos="r" depth="2" NCoef="0" IVar="0" Cut="1.4497264099121094e+02" cType="1" res="-1.3467326760292053e-01" rms="3.5992321372032166e-01" purity="1.9297094643115997e-01" nType="0">
            <Node pos="l" depth="3" NCoef="0" IVar="-1" Cut="0.0000000000000000e+00" cType="1" res="-8.7591692805290222e-02" rms="4.5437064766883850e-01" purity="3.2701650261878967e-01" nType="-99"/>
            <Node pos="r" depth="3" NCoef="0" IVar="-1" Cut="0.0000000000000000e+00" cType="1" res="-2.1084740757942200e-01" rms="2.1485593914985657e-01" purity="5.1593337208032608e-02" nType="-99"/>
          </Node>
        </Node>
      </Node>
    </BinaryTree>
    <BinaryTree type="DecisionTree" boostWeight="1.0000000000000000e+00" itree="4">
      <Node pos="s" depth="0" NCoef="0" IVar="2" Cut="8.2876235246658325e-01" cType="1" res="-1.7026974819600582e-03" rms="4.6435511112213135e-01" purity="5.0000000000000000e-01" nType="0">
        <Node pos="l" depth="1" NCoef="0" IVar="10" Cut="2.0943827629089355e+00" cType="1" res="2.8171701356768608e-02" rms="4.8122891783714294e-01" purity="5.8626019954681396e-01" nType="0">
          <Node pos="l" depth="2" NCoef="0" IVar="0" Cut="6.0904514312744141e+01" cType="1" res="5.0089463591575623e-02" rms="4.7768458724021912e-01" purity="6.1307883262634277e-01" nType="0">
            <Node pos="l" depth="3" NCoef="0" IVar="-1" Cut="0.0000000000000000e+00" cType="1" res="3.7109241820871830e-03" rms="4.9443176388740540e-01" purity="5.5101078748703003e-01" nType="-99"/>
            <Node pos="r" depth="3" NCoef="0" IVar="-1" Cut="0.0000000000000000e+00" cType="1" res="7.1235589683055878e-02" rms="4.6214014291763306e-01" purity="6.5867561101913452e-01" nType="-99"/>
          </Node>
          <Node pos="r" depth="2" NCoef="0" IVar="8" Cut="1.0472723245620728e+00" cType="1" res="-1.7555645899847150e-04" rms="4.8430579900741577e-01" purity="5.5157446861267090e-01" nType="0">
            <Node pos="l" depth="3" NCoef="0" IVar="-1" Cut="0.0000000000000000e+00" cType="1" res="-7.1538582444190979e-02" rms="4.8815929889678955e-01" purity="4.6495464444160461e-01" nType="-99"/>
            <Node pos="r" depth="3" NCoef="0" IVar="-1" Cut="0.0000000000000000e+00" cType="1" res="3.0649039894342422e-02" rms="4.7814315557479858e-01" purity="5.8749765157699585e-01" nType="-99"/>
          </Node>
        </Node>
        <Node pos="r" depth="1" NCoef="0" IVar="5" Cut="1.2439457702636719e+02" cType="1" res="-3.2447416335344315e-02" rms="4.4423139095306396e-01" purity="4.1122674942016602e-01" nType="0">
          <Node pos="l" depth="2" NCoef="0" IVar="9" Cut="1.6138527393341064e+00" cType="1" res="1.6284571960568428e-02" rms="4.8683676123619080e-01" purity="5.7017594575881958e-01" nType="0">
            <Node pos="l" depth="3" NCoef="0" IVar="-1" Cut="0.0000000000000000e+00" cType="1" res="3.1581204384565353e-02" rms="4.8384502530097961e-01" purity="6.0420638322830200e-01" nType="-99"/>
            <Node pos="r" depth="3" NCoef="0" IVar="-1" Cut="0.0000000000000000e+00" cType="1" res="-3.0047794803977013e-02" rms="4.9032148718833923e-01" purity="4.8705017566680908e-01" nType="-99"/>
          </Node>
          <Node pos="r" depth="2" NCoef="0" IVar="0" Cut="1.3232029724121094e+02" cType="1" res="-6.7563511431217194e-02" rms="4.0720036625862122e-01" purity="2.9668855667114258e-01" nType="0">
            <Node pos="l" depth="3" NCoef="0" IVar="-1" Cut="0.0000000000000000e+00" cType="1" res="-3.1501602381467819e-02" rms="4.7592541575431824e-01" purity="4.3333324790000916e-01" nType="-99"/>
            <Node pos="r" depth="3" NCoef="0" IVar="-1" Cut="0.0000000000000000e+00" cType="1" res="-1.4771951735019684e-01" rms="2.7576413750648499e-01" purity="1.0184814035892487e-01" nType="-99"/>
          </Node>
        </Node>
      </Node>
    </BinaryTree>
    <BinaryTree type="DecisionTree" boostWeight="1.0000000000000000e+00" itree="5">
      <Node pos="s" depth="0" NCoef="0" IVar="7" Cut="1.5702196359634399e+00" cType="1" res="-1.3934641610831022e-03" rms="4.6177217364311218e-01" purity="5.0000000000000000e-01" nType="0">
        <Node pos="l" depth="1" NCoef="0" IVar="5" Cut="6.9431800842285156e+01" cType="1" res="1.5423391014337540e-02" rms="4.7704535722732544e-01" purity="5.8709287643432617e-01" nType="0">
          <Node pos="l" depth="2" NCoef="0" IVar="-1" Cut="0.0000000000000000e+00" cType="1" res="-4.2962420731782913e-02" rms="4.8999378085136414e-01" purity="5.3909212350845337e-01" nType="-99"/>
          <Node pos="r" depth="2" NCoef="0" IVar="10" Cut="2.0944020748138428e+00" cType="1" res="2.3101562634110451e-02" rms="4.7493496537208557e-01" purity="5.9259790182113647e-01" nType="0">
            <Node pos="l" depth="3" NCoef="0" IVar="-1" Cut="0.0000000000000000e+00" cType="1" res="3.9186697453260422e-02" rms="4.6979978680610657e-01" purity="6.2436121702194214e-01" nType="-99"/>
            <Node pos="r" depth="3" NCoef="0" IVar="-1" Cut="0.0000000000000000e+00" cType="1" res="-1.6014222055673599e-03" rms="4.7956138849258423e-01" purity="5.5606526136398315e-01" nType="-99"/>
          </Node>
        </Node>
        <Node pos="r" depth="1" NCoef="0" IVar="3" Cut="1.9443717002868652e+00" cType="1" res="-3.0211022123694420e-02" rms="4.3283653259277344e-01" purity="3.5075658559799194e-01" nType="0">
          <Node pos="l" depth="2" NCoef="0" IVar="2" Cut="1.6575362682342529e+00" cType="1" res="-1.0826786048710346e-02" rms="4.3766358494758606e-01" purity="3.7708860635757446e-01" nType="0">
            <Node pos="l" depth="3" NCoef="0" IVar="-1" Cut="0.0000000000000000e+00" cType="1" res="5.8231116272509098e-03" rms="4.7897335886955261e-01" purity="4.7547712922096252e-01" nType="-99"/>
            <Node pos="r" depth="3" NCoef="0" IVar="-1" Cut="0.0000000000000000e+00" cType="1" res="-8.2656480371952057e-02" rms="3.0385917425155640e-01" purity="1.2658417224884033e-01" nType="-99"/>
          </Node>
          <Node pos="r" depth="2" NCoef="0" IVar="-1" Cut="0.0000000000000000e+00" cType="1" res="-8.3391979336738586e-02" rms="4.1353151202201843e-01" purity="2.7476873993873596e-01" nType="-99"/>
        </Node>
      </Node>
    </BinaryTree>
    <BinaryTree type="DecisionTree" boostWeight="1.0000000000000000e+00" itree="6">
      <Node pos="s" depth="0" NCoef="0" IVar="11" Cut="6.7580449581146240e-01" cType="1" res="-1.0307742049917579e-03" rms="4.6064460277557373e-01" purity="5.0000000000000000e-01" nType="0">
        <Node pos="l" depth="1" NCoef="0" IVar="5" Cut="1.4655116271972656e+02" cType="1" res="2.4413241073489189e-02" rms="4.7369387745857239e-01" purity="6.1565476655960083e-01" nType="0">
          <Node pos="l" depth="2" NCoef="0" IVar="0" Cut="9.8431091308593750e+01" cType="1" res="3.8979921489953995e-02" rms="4.7460755705833435e-01" purity="6.4561015367507935e-01" nType="0">
            <Node pos="l" depth="3" NCoef="0" IVar="-1" Cut="0.0000000000000000e+00" cType="1" res="1.6403060406446457e-02" rms="4.8129415512084961e-01" purity="6.2461382150650024e-01" nType="-99"/>
            <Node pos="r" depth="3" NCoef="0" IVar="-1" Cut="0.0000000000000000e+00" cType="1" res="8.2663118839263916e-02" rms="4.5078068971633911e-01" purity="7.0433408021926880e-01" nType="-99"/>
          </Node>
          <Node pos="r" depth="2" NCoef="0" IVar="-1" Cut="0.0000000000000000e+00" cType="1" res="-2.2259812802076340e-02" rms="4.6721297502517700e-01" purity="5.1407223939895630e-01" nType="-99"/>
        </Node>
        <Node pos="r" depth="1" NCoef="0" IVar="2" Cut="4.1452190279960632e-01" cType="1" res="-1.4397199265658855e-02" rms="4.5306697487831116e-01" purity="4.3924343585968018e-01" nType="0">
          <Node pos="l" depth="2" NCoef="0" IVar="8" Cut="1.0488059520721436e+00" cType="1" res="2.0066663622856140e-02" rms="4.8522222042083740e-01" purity="5.6627207994461060e-01" nType="0">
            <Node pos="l" depth="3" NCoef="0" IVar="-1" Cut="0.0000000000000000e+00" cType="1" res="-1.3275413773953915e-02" rms="4.8690661787986755e-01" purity="5.1174193620681763e-01" nType="-99"/>
            <Node pos="r" depth="3" NCoef="0" IVar="-1" Cut="0.0000000000000000e+00" cType="1" res="4.6295404434204102e-02" rms="4.8141413927078247e-01" purity="6.1516708135604858e-01" nType="-99"/>
          </Node>
          <Node pos="r" depth="2" NCoef="0" IVar="7" Cut="8.9734458923339844e-01" cType="1" res="-2.1445693448185921e-02" rms="4.4587728381156921e-01" purity="4.1326376795768738e-01" nType="0">
            <Node pos="l" depth="3" NCoef="0" IVar="-1" Cut="0.0000000000000000e+00" cType="1" res="1.7944023013114929e-02" rms="4.7384110093116760e-01" purity="5.8311474323272705e-01" nType="-99"/>
            <Node pos="r" depth="3" NCoef="0" IVar="-1" Cut="0.0000000000000000e+00" cType="1" res="-3.5378165543079376e-02" rms="4.3497437238693237e-01" purity="3.5519707202911377e-01" nType="-99"/>
          </Node>
        </Node>
      </Node>
    </BinaryTree>
    <BinaryTree type="DecisionTree" boostWeight="1.0000000000000000e+00" itree="7">
      <Node pos="s" depth="0" NCoef="0" IVar="0" Cut="1.7019384765625000e+02" cType="1" res="-6.0531927738338709e-04" rms="4.5966497063636780e-01" purity="5.0000000000000000e-01" nType="0">
        <Node pos="l" depth="1" NCoef="0" IVar="0" Cut="1.4037878417968750e+02" cType="1" res="4.1973982006311417e-03" rms="4.7549897432327271e-01" purity="5.4168194532394409e-01" nType="0">
          <Node pos="l" depth="2" NCoef="0" IVar="0" Cut="9.8166526794433594e+01" cType="1" res="9.1729741543531418e-03" rms="4.7928392887115479e-01" purity="5.5903947353363037e-01" nType="0">
            <Node pos="l" depth="3" NCoef="0" IVar="-1" Cut="0.0000000000000000e+00" cType="1" res="-4.1455812752246857e-03" rms="4.8520395159721375e-01" purity="5.4959893226623535e-01" nType="-99"/>
            <Node pos="r" depth="3" NCoef="0" IVar="-1" Cut="0.0000000000000000e+00" cType="1" res="3.6174468696117401e-02" rms="4.6439540386199951e-01" purity="5.7994759082794189e-01" nType="-99"/>
          </Node>
          <Node pos="r" depth="2" NCoef="0" IVar="-1" Cut="0.0000000000000000e+00" cType="1" res="-6.2906876206398010e-02" rms="4.1580498218536377e-01" purity="3.0907618999481201e-01" nType="-99"/>
        </Node>
        <Node pos="r" depth="1" NCoef="0" IVar="-1" Cut="0.0000000000000000e+00" cType="1" res="-1.0579515248537064e-01" rms="2.3168669641017914e-01" purity="6.4107961952686310e-02" nType="-99"/>
      </Node>
    </BinaryTree>
    <BinaryTree type="DecisionTree" boostWeight="1.0000000000000000e+00" itree="8">
      <Node pos="s" depth="0" NCoef="0" IVar="9" Cut="3.5760420560836792e-01" cType="1" res="-5.1196484128013253e-04" rms="4.5906043052673340e-01" purity="5.0000000000000000e-01" nType="0">
        <Node pos="l" depth="1" NCoef="0" IVar="4" Cut="8.9116370677947998e-01" cType="1" res="2.3967189714312553e-02" rms="4.6363270282745361e-01" purity="5.8123070001602173e-01" nType="0">
          <Node pos="l" depth="2" NCoef="0" IVar="2" Cut="6.0581117868423462e-01" cType="1" res="4.4528391212224960e-02" rms="4.5975697040557861e-01" purity="6.3775074481964111e-01" nType="0">
            <Node pos="l" depth="3" NCoef="0" IVar="-1" Cut="0.0000000000000000e+00" cType="1" res="5.5422019213438034e-02" rms="4.5640915632247925e-01" purity="6.7410880327224731e-01" nType="-99"/>
            <Node pos="r" depth="3" NCoef="0" IVar="-1" Cut="0.0000000000000000e+00" cType="1" res="1.0618050582706928e-02" rms="4.6376228332519531e-01" purity="5.7424545288085938e-01" nType="-99"/>
          </Node>
          <Node pos="r" depth="2" NCoef="0" IVar="-1" Cut="0.0000000000000000e+00" cType="1" res="-1.2870084494352341e-02" rms="4.6839448809623718e-01" purity="4.7501251101493835e-01" nType="-99"/>
        </Node>
        <Node pos="r" depth="1" NCoef="0" IVar="9" Cut="1.7198699712753296e+00" cType="1" res="-8.2322284579277039e-03" rms="4.5733726024627686e-01" purity="4.7438135743141174e-01" nType="0">
          <Node pos="l" depth="2" NCoef="0" IVar="3" Cut="1.6454564332962036e+00" cType="1" res="-8.5440254770219326e-04" rms="4.7250577807426453e-01" purity="5.2845245599746704e-01" nType="0">
            <Node pos="l" depth="3" NCoef="0" IVar="-1" Cut="0.0000000000000000e+00" cType="1" res="1.1564405634999275e-02" rms="4.7403642535209656e-01" purity="5.5287361145019531e-01" nType="-99"/>
            <Node pos="r" depth="3" NCoef="0" IVar="-1" Cut="0.0000000000000000e+00" cType="1" res="-2.2947546094655991e-02" rms="4.6868818998336792e-01" purity="4.8401299118995667e-01" nType="-99"/>
          </Node>
          <Node pos="r" depth="2" NCoef="0" IVar="1" Cut="1.6409627199172974e+00" cType="1" res="-2.9263302683830261e-02" rms="4.1031005978584290e-01" purity="3.2024750113487244e-01" nType="0">
            <Node pos="l" depth="3" NCoef="0" IVar="-1" Cut="0.0000000000000000e+00" cType="1" res="-8.5125770419836044e-03" rms="4.1217073798179626e-01" purity="3.4311309456825256e-01" nType="-99"/>
            <Node pos="r" depth="3" NCoef="0" IVar="-1" Cut="0.0000000000000000e+00" cType="1" res="-7.5309082865715027e-02" rms="4.0386074781417847e-01" purity="2.7817398309707642e-01" nType="-99"/>
          </Node>
        </Node>
      </Node>
    </BinaryTree>
    <BinaryTree type="DecisionTree" boostWeight="1.0000000000000000e+00" itree="9">
      <Node pos="s" depth="0" NCoef="0" IVar="8" Cut="1.0471874475479126e+00" cType="1" res="-3.5198003752157092e-04" rms="4.5841622352600098e-01" purity="5.0000000000000000e-01" nType="0">
        <Node pos="l" depth="1" NCoef="0" IVar="3" Cut="1.3462368249893188e+00" cType="1" res="-1.1143052950501442e-02" rms="4.6413329243659973e-01" purity="4.8531800508499146e-01" nType="0">
          <Node pos="l" depth="2" NCoef="0" IVar="5" Cut="7.8230575561523438e+01" cType="1" res="1.1188019067049026e-02" rms="4.6081215143203735e-01" purity="5.2387070655822754e-01" nType="0">
            <Node pos="l" depth="3" NCoef="0" IVar="-1" Cut="0.0000000000000000e+00" cType="1" res="-3.2028369605541229e-02" rms="4.9133348464965820e-01" purity="5.4705005884170532e-01" nType="-99"/>
            <Node pos="r" depth="3" NCoef="0" IVar="-1" Cut="0.0000000000000000e+00" cType="1" res="2.2513924166560173e-02" rms="4.5160505175590515e-01" purity="5.1780772209167480e-01" nType="-99"/>
          </Node>
          <Node pos="r" depth="2" NCoef="0" IVar="5" Cut="1.4199723815917969e+02" cType="1" res="-4.5890551060438156e-02" rms="4.6713623404502869e-01" purity="4.2532941699028015e-01" nType="0">
            <Node pos="l" depth="3" NCoef="0" IVar="-1" Cut="0.0000000000000000e+00" cType="1" res="-2.7454299852252007e-03" rms="4.9062758684158325e-01" purity="5.5351221561431885e-01" nType="-99"/>
            <Node pos="r" depth="3" NCoef="0" IVar="-1" Cut="0.0000000000000000e+00" cType="1" res="-7.6585114002227783e-02" rms="4.4385585188865662e-01" purity="3.2001608610153198e-01" nType="-99"/>
          </Node>
        </Node>
        <Node pos="r" depth="1" NCoef="0" IVar="3" Cut="1.0470936298370361e+00" cType="1" res="1.0977955535054207e-02" rms="4.5205879211425781e-01" purity="5.1541513204574585e-01" nType="0">
          <Node pos="l" depth="2" NCoef="0" IVar="0" Cut="1.0387169647216797e+02" cType="1" res="-2.0414553582668304e-02" rms="4.5569348335266113e-01" purity="5.0050938129425049e-01" nType="0">
            <Node pos="l" depth="3" NCoef="0" IVar="-1" Cut="0.0000000000000000e+00" cType="1" res="-5.0770867615938187e-02" rms="4.9198138713836670e-01" purity="5.4997724294662476e-01" nType="-99"/>
            <Node pos="r" depth="3" NCoef="0" IVar="-1" Cut="0.0000000000000000e+00" cType="1" res="8.7614664807915688e-03" rms="4.2436984181404114e-01" purity="4.6363180875778198e-01" nType="-99"/>
          </Node>
          <Node pos="r" depth="2" NCoef="0" IVar="1" Cut="1.3457007408142090e+00" cType="1" res="2.5830710306763649e-02" rms="4.4956561923027039e-01" purity="5.2246749401092529e-01" nType="0">
            <Node pos="l" depth="3" NCoef="0" IVar="-1" Cut="0.0000000000000000e+00" cType="1" res="5.7744704186916351e-02" rms="4.4970452785491943e-01" purity="5.7781827449798584e-01" nType="-99"/>
            <Node pos="r" depth="3" NCoef="0" IVar="-1" Cut="0.0000000000000000e+00" cType="1" res="7.8413002192974091e-03" rms="4.4843533635139465e-01" purity="4.9515798687934875e-01" nType="-99"/>
          </Node>
        </Node>
      </Node>
    </BinaryTree>
    <BinaryTree type="DecisionTree" boostWeight="1.0000000000000000e+00" itree="10">
      <Node pos="s" depth="0" NCoef="0" IVar="4" Cut="2.5617847442626953e+00" cType="1" res="-2.6361245545558631e-04" rms="4.5717555284500122e-01" purity="5.0000000000000000e-01" nType="0">
        <Node pos="l" depth="1" NCoef="0" IVar="0" Cut="5.4772956848144531e+01" cType="1" res="2.7955386321991682e-03" rms="4.6475404500961304e-01" purity="5.2792817354202271e-01" nType="0">
          <Node pos="l" depth="2" NCoef="0" IVar="3" Cut="1.6453856229782104e+00" cType="1" res="-2.1843029186129570e-02" rms="4.8992145061492920e-01" purity="5.2916562557220459e-01" nType="0">
            <Node pos="l" depth="3" NCoef="0" IVar="-1" Cut="0.0000000000000000e+00" cType="1" res="-3.3674649894237518e-02" rms="4.9281340837478638e-01" purity="5.2250248193740845e-01" nType="-99"/>
            <Node pos="r" depth="3" NCoef="0" IVar="-1" Cut="0.0000000000000000e+00" cType="1" res="1.0950840078294277e-02" rms="4.8238798975944519e-01" purity="5.4197520017623901e-01" nType="-99"/>
          </Node>
          <Node pos="r" depth="2" NCoef="0" IVar="3" Cut="1.6453664302825928e+00" cType="1" res="8.2594472914934158e-03" rms="4.5880672335624695e-01" purity="5.2765375375747681e-01" nType="0">
            <Node pos="l" depth="3" NCoef="0" IVar="-1" Cut="0.0000000000000000e+00" cType="1" res="1.7035489901900291e-02" rms="4.5820802450180054e-01" purity="5.4961609840393066e-01" nType="-99"/>
            <Node pos="r" depth="3" NCoef="0" IVar="-1" Cut="0.0000000000000000e+00" cType="1" res="-9.1843819245696068e-03" rms="4.5935690402984619e-01" purity="4.8686891794204712e-01" nType="-99"/>
          </Node>
        </Node>
        <Node pos="r" depth="1" NCoef="0" IVar="-1" Cut="0.0000000000000000e+00" cType="1" res="-3.8028068840503693e-02" rms="3.7164378166198730e-01" purity="2.2074705362319946e-01" nType="-99"/>
      </Node>
    </BinaryTree>
    <BinaryTree type="DecisionTree" boostWeight="1.0000000000000000e+00" itree="11">
      <Node pos="s" depth="0" NCoef="0" IVar="9" Cut="3.5760420560836792e-01" cType="1" res="-1.5330345195252448e-04" rms="4.5687094330787659e-01" purity="5.0000000000000000e-01" nType="0">
        <Node pos="l" depth="1" NCoef="0" IVar="7" Cut="1.2643622159957886e+00" cType="1" res="1.7645230516791344e-02" rms="4.6048855781555176e-01" purity="5.8123070001602173e-01" nType="0">
          <Node pos="l" depth="2" NCoef="0" IVar="6" Cut="2.3952271938323975e+00" cType="1" res="3.3915873616933823e-02" rms="4.6198561787605286e-01" purity="6.4689248800277710e-01" nType="0">
            <Node pos="l" depth="3" NCoef="0" IVar="-1" Cut="0.0000000000000000e+00" cType="1" res="4.2722534388303757e-02" rms="4.5863953232765198e-01" purity="6.6818642616271973e-01" nType="-99"/>
            <Node pos="r" depth="3" NCoef="0" IVar="-1" Cut="0.0000000000000000e+00" cType="1" res="8.5707372054457664e-03" rms="4.6645855903625488e-01" purity="6.1165010929107666e-01" nType="-99"/>
          </Node>
          <Node pos="r" depth="2" NCoef="0" IVar="-1" Cut="0.0000000000000000e+00" cType="1" res="-8.8100684806704521e-03" rms="4.5666518807411194e-01" purity="4.7105973958969116e-01" nType="-99"/>
        </Node>
        <Node pos="r" depth="1" NCoef="0" IVar="3" Cut="4.4891783595085144e-01" cType="1" res="-5.7666255161166191e-03" rms="4.5557984709739685e-01" purity="4.7438135743141174e-01" nType="0">
          <Node pos="l" depth="2" NCoef="0" IVar="8" Cut="7.4751782417297363e-01" cType="1" res="-2.9667884111404419e-02" rms="4.5307677984237671e-01" purity="4.5446190237998962e-01" nType="0">
            <Node pos="l" depth="3" NCoef="0" IVar="-1" Cut="0.0000000000000000e+00" cType="1" res="6.4603216014802456e-04" rms="4.4761005043983459e-01" purity="4.7318142652511597e-01" nType="-99"/>
            <Node pos="r" depth="3" NCoef="0" IVar="-1" Cut="0.0000000000000000e+00" cType="1" res="-5.5661488324403763e-02" rms="4.5633143186569214e-01" purity="4.3677663803100586e-01" nType="-99"/>
          </Node>
          <Node pos="r" depth="2" NCoef="0" IVar="8" Cut="2.3935680389404297e+00" cType="1" res="-1.5316044446080923e-03" rms="4.5589128136634827e-01" purity="4.7791081666946411e-01" nType="0">
            <Node pos="l" depth="3" NCoef="0" IVar="-1" Cut="0.0000000000000000e+00" cType="1" res="-6.2533905729651451e-03" rms="4.5694237947463989e-01" purity="4.7384798526763916e-01" nType="-99"/>
            <Node pos="r" depth="3" NCoef="0" IVar="-1" Cut="0.0000000000000000e+00" cType="1" res="2.2496564313769341e-02" rms="4.5004817843437195e-01" purity="4.9731147289276123e-01" nType="-99"/>
          </Node>
        </Node>
      </Node>
    </BinaryTree>
    <BinaryTree type="DecisionTree" boostWeight="1.0000000000000000e+00" itree="12">
      <Node pos="s" depth="0" NCoef="0" IVar="0" Cut="1.7019384765625000e+02" cType="1" res="-6.0955422668484971e-05" rms="4.5649221539497375e-01" purity="5.0000000000000000e-01" nType="0">
        <Node pos="l" depth="1" NCoef="0" IVar="0" Cut="1.4037878417968750e+02" cType="1" res="2.8992157895117998e-03" rms="4.7233104705810547e-01" purity="5.4168194532394409e-01" nType="0">
          <Node pos="l" depth="2" NCoef="0" IVar="0" Cut="1.1625391387939453e+02" cType="1" res="6.0602985322475433e-03" rms="4.7637742757797241e-01" purity="5.5903947353363037e-01" nType="0">
            <Node pos="l" depth="3" NCoef="0" IVar="-1" Cut="0.0000000000000000e+00" cType="1" res="2.9366477974690497e-04" rms="4.8001220822334290e-01" purity="5.5833399295806885e-01" nType="-99"/>
            <Node pos="r" depth="3" NCoef="0" IVar="-1" Cut="0.0000000000000000e+00" cType="1" res="3.5214509814977646e-02" rms="4.5385497808456421e-01" purity="5.6303995847702026e-01" nType="-99"/>
          </Node>
          <Node pos="r" depth="2" NCoef="0" IVar="-1" Cut="0.0000000000000000e+00" cType="1" res="-4.1414100676774979e-02" rms="4.1197624802589417e-01" purity="3.0907618999481201e-01" nType="-99"/>
        </Node>
        <Node pos="r" depth="1" NCoef="0" IVar="-1" Cut="0.0000000000000000e+00" cType="1" res="-7.6503641903400421e-02" rms="2.3127694427967072e-01" purity="6.4107961952686310e-02" nType="-99"/>
      </Node>
    </BinaryTree>
    <BinaryTree type="DecisionTree" boostWeight="1.0000000000000000e+00" itree="13">
      <Node pos="s" depth="0" NCoef="0" IVar="1" Cut="2.3936669826507568e+00" cType="1" res="-9.1682653874158859e-05" rms="4.5627376437187195e-01" purity="5.0000000000000000e-01" nType="0">
        <Node pos="l" depth="1" NCoef="0" IVar="0" Cut="6.5903755187988281e+01" cType="1" res="2.2772660013288260e-03" rms="4.5699808001518250e-01" purity="5.0946587324142456e-01" nType="0">
          <Node pos="l" depth="2" NCoef="0" IVar="5" Cut="1.3272294616699219e+02" cType="1" res="-1.2800863012671471e-02" rms="4.8524543642997742e-01" purity="5.3039366006851196e-01" nType="0">
            <Node pos="l" depth="3" NCoef="0" IVar="-1" Cut="0.0000000000000000e+00" cType="1" res="3.9103510789573193e-03" rms="4.8781922459602356e-01" purity="5.7662457227706909e-01" nType="-99"/>
            <Node pos="r" depth="3" NCoef="0" IVar="-1" Cut="0.0000000000000000e+00" cType="1" res="-4.9902789294719696e-02" rms="4.7536408901214600e-01" purity="4.0895152091979980e-01" nType="-99"/>
          </Node>
          <Node pos="r" depth="2" NCoef="0" IVar="2" Cut="1.2432292699813843e+00" cType="1" res="8.6799487471580505e-03" rms="4.4430586695671082e-01" purity="5.0057923793792725e-01" nType="0">
            <Node pos="l" depth="3" NCoef="0" IVar="-1" Cut="0.0000000000000000e+00" cType="1" res="1.8760029226541519e-02" rms="4.6405538916587830e-01" purity="6.0894346237182617e-01" nType="-99"/>
            <Node pos="r" depth="3" NCoef="0" IVar="-1" Cut="0.0000000000000000e+00" cType="1" res="-1.1770266108214855e-02" rms="4.1059362888336182e-01" purity="3.2999199628829956e-01" nType="-99"/>
          </Node>
        </Node>
        <Node pos="r" depth="1" NCoef="0" IVar="-1" Cut="0.0000000000000000e+00" cType="1" res="-2.5678513571619987e-02" rms="4.4753262400627136e-01" purity="3.9727586507797241e-01" nType="-99"/>
      </Node>
    </BinaryTree>
    <BinaryTree type="DecisionTree" boostWeight="1.0000000000000000e+00" itree="14">
      <Node pos="s" depth="0" NCoef="0" IVar="5" Cut="2.9004483032226562e+02" cType="1" res="-5.6265227613039315e-05" rms="4.5592620968818665e-01" purity="5.0000000000000000e-01" nType="0">
        <Node pos="l" depth="1" NCoef="0" IVar="5" Cut="8.5265434265136719e+01" cType="1" res="2.0613220985978842e-03" rms="4.6483203768730164e-01" purity="5.2638053894042969e-01" nType="0">
          <Node pos="l" depth="2" NCoef="0" IVar="7" Cut="8.5659801959991455e-01" cType="1" res="-2.3013493046164513e-02" rms="4.8556867241859436e-01" purity="5.7806545495986938e-01" nType="0">
            <Node pos="l" depth="3" NCoef="0" IVar="-1" Cut="0.0000000000000000e+00" cType="1" res="-3.6272805184125900e-02" rms="4.8802620172500610e-01" purity="5.7045376300811768e-01" nType="-99"/>
            <Node pos="r" depth="3" NCoef="0" IVar="-1" Cut="0.0000000000000000e+00" cType="1" res="9.2586651444435120e-03" rms="4.7919765114784241e-01" purity="5.9193402528762817e-01" nType="-99"/>
          </Node>
          <Node pos="r" depth="2" NCoef="0" IVar="10" Cut="1.7952163219451904e+00" cType="1" res="7.3700086213648319e-03" rms="4.6014675498008728e-01" purity="5.1543813943862915e-01" nType="0">
            <Node pos="l" depth="3" NCoef="0" IVar="-1" Cut="0.0000000000000000e+00" cType="1" res="1.9670121371746063e-02" rms="4.5282354950904846e-01" purity="5.4022496938705444e-01" nType="-99"/>
            <Node pos="r" depth="3" NCoef="0" IVar="-1" Cut="0.0000000000000000e+00" cType="1" res="-2.4940900038927794e-03" rms="4.6529528498649597e-01" purity="4.9689784646034241e-01" nType="-99"/>
          </Node>
        </Node>
        <Node pos="r" depth="1" NCoef="0" IVar="-1" Cut="0.0000000000000000e+00" cType="1" res="-3.2871402800083160e-02" rms="3.4327381849288940e-01" purity="2.1223349869251251e-01" nType="-99"/>
      </Node>
    </BinaryTree>
    <BinaryTree type="DecisionTree" boostWeight="1.0000000000000000e+00" itree="15">
      <Node pos="s" depth="0" NCoef="0" IVar="7" Cut="4.4863873720169067e-01" cType="1" res="-5.1282077038194984e-05" rms="4.5566949248313904e-01" purity="5.0000000000000000e-01" nType="0">
        <Node pos="l" depth="1" NCoef="0" IVar="10" Cut="1.3507070541381836e+00" cType="1" res="1.4297005720436573e-02" rms="4.6519103646278381e-01" purity="6.1660116910934448e-01" nType="0">
          <Node pos="l" depth="2" NCoef="0" IVar="-1" Cut="0.0000000000000000e+00" cType="1" res="4.5903153717517853e-02" rms="4.4928771257400513e-01" purity="6.6357785463333130e-01" nType="-99"/>
          <Node pos="r" depth="2" NCoef="0" IVar="8" Cut="1.4949610233306885e+00" cType="1" res="1.0006538359448314e-03" rms="4.6999278664588928e-01" purity="5.9991723299026489e-01" nType="0">
            <Node pos="l" depth="3" NCoef="0" IVar="-1" Cut="0.0000000000000000e+00" cType="1" res="-2.1536575630307198e-02" rms="4.8276162147521973e-01" purity="5.6377136707305908e-01" nType="-99"/>
            <Node pos="r" depth="3" NCoef="0" IVar="-1" Cut="0.0000000000000000e+00" cType="1" res="3.2199017703533173e-02" rms="4.5057493448257446e-01" purity="6.4717113971710205e-01" nType="-99"/>
          </Node>
        </Node>
        <Node pos="r" depth="1" NCoef="0" IVar="8" Cut="5.9839397668838501e-01" cType="1" res="-3.7073267158120871e-03" rms="4.5313873887062073e-01" purity="4.7028923034667969e-01" nType="0">
          <Node pos="l" depth="2" NCoef="0" IVar="1" Cut="8.9317876100540161e-01" cType="1" res="-1.4814161695539951e-02" rms="4.6022784709930420e-01" purity="4.5169886946678162e-01" nType="0">
            <Node pos="l" depth="3" NCoef="0" IVar="-1" Cut="0.0000000000000000e+00" cType="1" res="3.1825387850403786e-03" rms="4.6238666772842407e-01" purity="4.7500795125961304e-01" nType="-99"/>
            <Node pos="r" depth="3" NCoef="0" IVar="-1" Cut="0.0000000000000000e+00" cType="1" res="-4.3738476932048798e-02" rms="4.5463591814041138e-01" purity="4.1072696447372437e-01" nType="-99"/>
          </Node>
          <Node pos="r" depth="2" NCoef="0" IVar="10" Cut="9.0018576383590698e-01" cType="1" res="1.7571721691638231e-03" rms="4.4950920343399048e-01" purity="4.7943547368049622e-01" nType="0">
            <Node pos="l" depth="3" NCoef="0" IVar="-1" Cut="0.0000000000000000e+00" cType="1" res="-4.7149926424026489e-02" rms="4.5643401145935059e-01" purity="4.5355084538459778e-01" nType="-99"/>
            <Node pos="r" depth="3" NCoef="0" IVar="-1" Cut="0.0000000000000000e+00" cType="1" res="8.2982843741774559e-03" rms="4.4816541671752930e-01" purity="4.8284113407135010e-01" nType="-99"/>
          </Node>
        </Node>
      </Node>
    </BinaryTree>
    <BinaryTree type="DecisionTree" boostWeight="1.0000000000000000e+00" itree="16">
      <Node pos="s" depth="0" NCoef="0" IVar="2" Cut="6.2159943580627441e-01" cType="1" res="1.3446989214571659e-05" rms="4.5519810914993286e-01" purity="5.0000000000000000e-01" nType="0">
        <Node pos="l" depth="1" NCoef="0" IVar="6" Cut="2.8425564765930176e+00" cType="1" res="8.2794660702347755e-03" rms="4.7147640585899353e-01" purity="5.9363532066345215e-01" nType="0">
          <Node pos="l" depth="2" NCoef="0" IVar="2" Cut="4.7360968589782715e-01" cType="1" res="1.7597090452909470e-02" rms="4.6938699483871460e-01" purity="6.0546606779098511e-01" nType="0">
            <Node pos="l" depth="3" NCoef="0" IVar="-1" Cut="0.0000000000000000e+00" cType="1" res="2.3928038775920868e-02" rms="4.6761691570281982e-01" purity="6.1689007282257080e-01" nType="-99"/>
            <Node pos="r" depth="3" NCoef="0" IVar="-1" Cut="0.0000000000000000e+00" cType="1" res="-9.2074563726782799e-03" rms="4.7370478510856628e-01" purity="5.7020664215087891e-01" nType="-99"/>
          </Node>
          <Node pos="r" depth="2" NCoef="0" IVar="-1" Cut="0.0000000000000000e+00" cType="1" res="-2.5179538875818253e-02" rms="4.7785836458206177e-01" purity="5.4699259996414185e-01" nType="-99"/>
        </Node>
        <Node pos="r" depth="1" NCoef="0" IVar="6" Cut="2.8424026966094971e+00" cType="1" res="-5.1257233135402203e-03" rms="4.4469985365867615e-01" purity="4.4178479909896851e-01" nType="0">
          <Node pos="l" depth="2" NCoef="0" IVar="4" Cut="2.5617847442626953e+00" cType="1" res="-1.1830619536340237e-02" rms="4.4339713454246521e-01" purity="4.3478411436080933e-01" nType="0">
            <Node pos="l" depth="3" NCoef="0" IVar="-1" Cut="0.0000000000000000e+00" cType="1" res="-6.0319397598505020e-03" rms="4.5877286791801453e-01" purity="4.7800892591476440e-01" nType="-99"/>
            <Node pos="r" depth="3" NCoef="0" IVar="-1" Cut="0.0000000000000000e+00" cType="1" res="-7.9463787376880646e-02" rms="3.1103754043579102e-01" purity="1.2901401519775391e-01" nType="-99"/>
          </Node>
          <Node pos="r" depth="2" NCoef="0" IVar="11" Cut="1.5500200986862183e+00" cType="1" res="1.9238304346799850e-02" rms="4.4855883717536926e-01" purity="4.6722376346588135e-01" nType="0">
            <Node pos="l" depth="3" NCoef="0" IVar="-1" Cut="0.0000000000000000e+00" cType="1" res="-1.5280852094292641e-03" rms="4.6252766251564026e-01" purity="5.4006034135818481e-01" nType="-99"/>
            <Node pos="r" depth="3" NCoef="0" IVar="-1" Cut="0.0000000000000000e+00" cType="1" res="5.8721933513879776e-02" rms="4.2439797520637512e-01" purity="3.5618987679481506e-01" nType="-99"/>
          </Node>
        </Node>
      </Node>
    </BinaryTree>
    <BinaryTree type="DecisionTree" boostWeight="1.0000000000000000e+00" itree="17">
      <Node pos="s" depth="0" NCoef="0" IVar="4" Cut="1.9213460683822632e+00" cType="1" res="-4.9979673349298537e-05" rms="4.5475974678993225e-01" purity="5.0000000000000000e-01" nType="0">
        <Node pos="l" depth="1" NCoef="0" IVar="6" Cut="8.9837455749511719e-01" cType="1" res="-3.0191664118319750e-03" rms="4.6562901139259338e-01" purity="5.4471409320831299e-01" nType="0">
          <Node pos="l" depth="2" NCoef="0" IVar="-1" Cut="0.0000000000000000e+00" cType="1" res="2.6993798092007637e-02" rms="4.5720830559730530e-01" purity="5.5463743209838867e-01" nType="-99"/>
          <Node pos="r" depth="2" NCoef="0" IVar="1" Cut="1.0477005243301392e+00" cType="1" res="-5.4193572141230106e-03" rms="4.6614933013916016e-01" purity="5.4398727416992188e-01" nType="0">
            <Node pos="l" depth="3" NCoef="0" IVar="-1" Cut="0.0000000000000000e+00" cType="1" res="-1.3808655552566051e-02" rms="4.6914485096931458e-01" purity="5.2831900119781494e-01" nType="-99"/>
            <Node pos="r" depth="3" NCoef="0" IVar="-1" Cut="0.0000000000000000e+00" cType="1" res="2.0006161648780107e-03" rms="4.6369004249572754e-01" purity="5.5603665113449097e-01" nType="-99"/>
          </Node>
        </Node>
        <Node pos="r" depth="1" NCoef="0" IVar="0" Cut="1.2156687927246094e+02" cType="1" res="1.3838484883308411e-02" rms="3.9972311258316040e-01" purity="2.9084831476211548e-01" nType="0">
          <Node pos="l" depth="2" NCoef="0" IVar="1" Cut="1.3471881151199341e+00" cType="1" res="3.8959447294473648e-02" rms="4.6832498908042908e-01" purity="4.1606810688972473e-01" nType="0">
            <Node pos="l" depth="3" NCoef="0" IVar="-1" Cut="0.0000000000000000e+00" cType="1" res="5.9479944407939911e-02" rms="4.7284862399101257e-01" purity="4.4099599123001099e-01" nType="-99"/>
            <Node pos="r" depth="3" NCoef="0" IVar="-1" Cut="0.0000000000000000e+00" cType="1" res="1.3573372736573219e-02" rms="4.6270087361335754e-01" purity="3.9229816198348999e-01" nType="-99"/>
          </Node>
          <Node pos="r" depth="2" NCoef="0" IVar="-1" Cut="0.0000000000000000e+00" cType="1" res="-5.1035698503255844e-02" rms="2.6250278949737549e-01" purity="1.0467342287302017e-01" nType="-99"/>
        </Node>
      </Node>
    </BinaryTree>
    <BinaryTree type="DecisionTree" boostWeight="1.0000000000000000e+00" itree="18">
      <Node pos="s" depth="0" NCoef="0" IVar="10" Cut="2.9926073551177979e-01" cType="1" res="-5.8362595154903829e-05" rms="4.5447990298271179e-01" purity="5.0000000000000000e-01" nType="0">
        <Node pos="l" depth="1" NCoef="0" IVar="-1" Cut="0.0000000000000000e+00" cType="1" res="2.0184045657515526e-02" rms="4.5400246977806091e-01" purity="5.2249234914779663e-01" nType="-99"/>
        <Node pos="r" depth="1" NCoef="0" IVar="3" Cut="2.9925268888473511e-01" cType="1" res="-1.4446217101067305e-03" rms="4.5447573065757751e-01" purity="4.9855062365531921e-01" nType="0">
          <Node pos="l" depth="2" NCoef="0" IVar="-1" Cut="0.0000000000000000e+00" cType="1" res="-4.0688563138246536e-02" rms="4.4543260335922241e-01" purity="4.5372253656387329e-01" nType="-99"/>
          <Node pos="r" depth="2" NCoef="0" IVar="8" Cut="5.9839397668838501e-01" cType="1" res="1.4444077387452126e-03" rms="4.5498490333557129e-01" purity="5.0178486108779907e-01" nType="0">
            <Node pos="l" depth="3" NCoef="0" IVar="-1" Cut="0.0000000000000000e+00" cType="1" res="-8.4476480260491371e-03" rms="4.6616390347480774e-01" purity="4.7298726439476013e-01" nType="-99"/>
            <Node pos="r" depth="3" NCoef="0" IVar="-1" Cut="0.0000000000000000e+00" cType="1" res="6.1960215680301189e-03" rms="4.4968396425247192e-01" purity="5.1498132944107056e-01" nType="-99"/>
          </Node>
        </Node>
      </Node>
    </BinaryTree>
    <BinaryTree type="DecisionTree" boostWeight="1.0000000000000000e+00" itree="19">
      <Node pos="s" depth="0" NCoef="0" IVar="1" Cut="4.4909983873367310e-01" cType="1" res="-1.9501461792970076e-05" rms="4.5432937145233154e-01" purity="5.0000000000000000e-01" nType="0">
        <Node pos="l" depth="1" NCoef="0" IVar="5" Cut="1.6234683227539062e+02" cType="1" res="1.2825525365769863e-02" rms="4.6006903052330017e-01" purity="4.9789839982986450e-01" nType="0">
          <Node pos="l" depth="2" NCoef="0" IVar="6" Cut="2.0978717803955078e+00" cType="1" res="-1.8294949550181627e-03" rms="4.7938138246536255e-01" purity="5.4433292150497437e-01" nType="0">
            <Node pos="l" depth="3" NCoef="0" IVar="-1" Cut="0.0000000000000000e+00" cType="1" res="1.8985142931342125e-02" rms="4.7216224670410156e-01" purity="5.8725202083587646e-01" nType="-99"/>
            <Node pos="r" depth="3" NCoef="0" IVar="-1" Cut="0.0000000000000000e+00" cType="1" res="-2.0298974588513374e-02" rms="4.8467940092086792e-01" purity="5.0629544258117676e-01" nType="-99"/>
          </Node>
          <Node pos="r" depth="2" NCoef="0" IVar="-1" Cut="0.0000000000000000e+00" cType="1" res="4.6419739723205566e-02" rms="4.1619727015495300e-01" purity="4.0293121337890625e-01" nType="-99"/>
        </Node>
        <Node pos="r" depth="1" NCoef="0" IVar="5" Cut="2.9004483032226562e+02" cType="1" res="-2.4813530035316944e-03" rms="4.5317944884300232e-01" purity="5.0040274858474731e-01" nType="0">
          <Node pos="l" depth="2" NCoef="0" IVar="6" Cut="1.9452049732208252e+00" cType="1" res="5.1267095841467381e-04" rms="4.6350812911987305e-01" purity="5.3004139661788940e-01" nType="0">
            <Node pos="l" depth="3" NCoef="0" IVar="-1" Cut="0.0000000000000000e+00" cType="1" res="1.2797740288078785e-02" rms="4.6250584721565247e-01" purity="5.3649520874023438e-01" nType="-99"/>
            <Node pos="r" depth="3" NCoef="0" IVar="-1" Cut="0.0000000000000000e+00" cType="1" res="-4.7400486655533314e-03" rms="4.6381640434265137e-01" purity="5.2731579542160034e-01" nType="-99"/>
          </Node>
          <Node pos="r" depth="2" NCoef="0" IVar="-1" Cut="0.0000000000000000e+00" cType="1" res="-5.5867608636617661e-02" rms="3.1588411331176758e-01" purity="1.7359413206577301e-01" nType="-99"/>
        </Node>
      </Node>
    </BinaryTree>
    <BinaryTree type="DecisionTree" boostWeight="1.0000000000000000e+00" itree="20">
      <Node pos="s" depth="0" NCoef="0" IVar="6" Cut="2.9919843673706055e+00" cType="1" res="-4.6819008275633678e-05" rms="4.5410731434822083e-01" purity="5.0000000000000000e-01" nType="0">
        <Node pos="l" depth="1" NCoef="0" IVar="1" Cut="2.0926394462585449e+00" cType="1" res="-1.9422462210059166e-03" rms="4.5419949293136597e-01" purity="5.0032776594161987e-01" nType="0">
          <Node pos="l" depth="2" NCoef="0" IVar="8" Cut="2.6915323734283447e+00" cType="1" res="1.2073718244209886e-03" rms="4.5623728632926941e-01" purity="5.1543855667114258e-01" nType="0">
            <Node pos="l" depth="3" NCoef="0" IVar="-1" Cut="0.0000000000000000e+00" cType="1" res="3.0930871143937111e-03" rms="4.5480152964591980e-01" purity="5.1484328508377075e-01" nType="-99"/>
            <Node pos="r" depth="3" NCoef="0" IVar="-1" Cut="0.0000000000000000e+00" cType="1" res="-2.5953492149710655e-02" rms="4.7453060746192932e-01" purity="5.2357304096221924e-01" nType="-99"/>
          </Node>
          <Node pos="r" depth="2" NCoef="0" IVar="6" Cut="2.4219694137573242e+00" cType="1" res="-2.0388444885611534e-02" rms="4.4162541627883911e-01" purity="4.1182887554168701e-01" nType="0">
            <Node pos="l" depth="3" NCoef="0" IVar="-1" Cut="0.0000000000000000e+00" cType="1" res="7.8597571700811386e-03" rms="4.2006734013557434e-01" purity="3.6894237995147705e-01" nType="-99"/>
            <Node pos="r" depth="3" NCoef="0" IVar="-1" Cut="0.0000000000000000e+00" cType="1" res="-3.9020158350467682e-02" rms="4.5622467994689941e-01" purity="4.4443196058273315e-01" nType="-99"/>
          </Node>
        </Node>
        <Node pos="r" depth="1" NCoef="0" IVar="9" Cut="1.2585351467132568e+00" cType="1" res="1.5603297390043736e-02" rms="4.5304247736930847e-01" purity="4.9729385972023010e-01" nType="0">
          <Node pos="l" depth="2" NCoef="0" IVar="-1" Cut="0.0000000000000000e+00" cType="1" res="-8.5108364000916481e-03" rms="4.5755434036254883e-01" purity="5.0555819272994995e-01" nType="-99"/>
          <Node pos="r" depth="2" NCoef="0" IVar="-1" Cut="0.0000000000000000e+00" cType="1" res="3.7819489836692810e-02" rms="4.4763374328613281e-01" purity="4.8969709873199463e-01" nType="-99"/>
        </Node>
      </Node>
    </BinaryTree>
    <BinaryTree type="DecisionTree" boostWeight="1.0000000000000000e+00" itree="21">
      <Node pos="s" depth="0" NCoef="0" IVar="8" Cut="2.8423614501953125e+00" cType="1" res="-4.1484465327812359e-05" rms="4.5391073822975159e-01" purity="5.0000000000000000e-01" nType="0">
        <Node pos="l" depth="1" NCoef="0" IVar="2" Cut="2.0727360248565674e-01" cType="1" res="-1.6012628329917789e-03" rms="4.5431864261627197e-01" purity="4.9863901734352112e-01" nType="0">
          <Node pos="l" depth="2" NCoef="0" IVar="0" Cut="7.8144905090332031e+01" cType="1" res="-1.8013378605246544e-02" rms="4.7335803508758545e-01" purity="5.7874828577041626e-01" nType="0">
            <Node pos="l" depth="3" NCoef="0" IVar="-1" Cut="0.0000000000000000e+00" cType="1" res="5.8752641780301929e-04" rms="4.7411829233169556e-01" purity="5.7126665115356445e-01" nType="-99"/>
            <Node pos="r" depth="3" NCoef="0" IVar="-1" Cut="0.0000000000000000e+00" cType="1" res="-3.8776125758886337e-02" rms="4.7144168615341187e-01" purity="5.8781701326370239e-01" nType="-99"/>
          </Node>
          <Node pos="r" depth="2" NCoef="0" IVar="2" Cut="7.9917734861373901e-01" cType="1" res="6.4239313360303640e-04" rms="4.5160713791847229e-01" purity="4.8768746852874756e-01" nType="0">
            <Node pos="l" depth="3" NCoef="0" IVar="-1" Cut="0.0000000000000000e+00" cType="1" res="9.0407012030482292e-03" rms="4.7051265835762024e-01" purity="5.8895266056060791e-01" nType="-99"/>
            <Node pos="r" depth="3" NCoef="0" IVar="-1" Cut="0.0000000000000000e+00" cType="1" res="-6.3625806942582130e-03" rms="4.3741509318351746e-01" purity="4.1505175828933716e-01" nType="-99"/>
          </Node>
        </Node>
        <Node pos="r" depth="1" NCoef="0" IVar="-1" Cut="0.0000000000000000e+00" cType="1" res="2.4897258728742599e-02" rms="4.4656878709793091e-01" purity="5.2184158563613892e-01" nType="-99"/>
      </Node>
    </BinaryTree>
    <BinaryTree type="DecisionTree" boostWeight="1.0000000000000000e+00" itree="22">
      <Node pos="s" depth="0" NCoef="0" IVar="0" Cut="6.5903755187988281e+01" cType="1" res="-3.9991355151869357e-06" rms="4.5378851890563965e-01" purity="5.0000000000000000e-01" nType="0">
        <Node pos="l" depth="1" NCoef="0" IVar="5" Cut="1.3272294616699219e+02" cType="1" res="-1.0785770602524281e-02" rms="4.8259192705154419e-01" purity="5.3037506341934204e-01" nType="0">
          <Node pos="l" depth="2" NCoef="0" IVar="3" Cut="1.0471745729446411e+00" cType="1" res="1.2458779383450747e-03" rms="4.8584482073783875e-01" purity="5.7747447490692139e-01" nType="0">
            <Node pos="l" depth="3" NCoef="0" IVar="-1" Cut="0.0000000000000000e+00" cType="1" res="-2.2325262427330017e-02" rms="4.9194273352622986e-01" purity="5.4383623600006104e-01" nType="-99"/>
            <Node pos="r" depth="3" NCoef="0" IVar="-1" Cut="0.0000000000000000e+00" cType="1" res="2.1071376278996468e-02" rms="4.7930297255516052e-01" purity="6.0614007711410522e-01" nType="-99"/>
          </Node>
          <Node pos="r" depth="2" NCoef="0" IVar="-1" Cut="0.0000000000000000e+00" cType="1" res="-3.6036409437656403e-02" rms="4.7257173061370850e-01" purity="4.0762045979499817e-01" nType="-99"/>
        </Node>
        <Node pos="r" depth="1" NCoef="0" IVar="4" Cut="3.2028672099113464e-01" cType="1" res="4.1096885688602924e-03" rms="4.4223546981811523e-01" purity="4.8841071128845215e-01" nType="0">
          <Node pos="l" depth="2" NCoef="0" IVar="2" Cut="6.0581117868423462e-01" cType="1" res="2.2565493360161781e-02" rms="4.5287954807281494e-01" purity="6.4285075664520264e-01" nType="0">
            <Node pos="l" depth="3" NCoef="0" IVar="-1" Cut="0.0000000000000000e+00" cType="1" res="4.2486101388931274e-02" rms="4.3750256299972534e-01" purity="7.1226561069488525e-01" nType="-99"/>
            <Node pos="r" depth="3" NCoef="0" IVar="-1" Cut="0.0000000000000000e+00" cType="1" res="6.0854218900203705e-03" rms="4.6340233087539673e-01" purity="5.9094566106796265e-01" nType="-99"/>
          </Node>
          <Node pos="r" depth="2" NCoef="0" IVar="1" Cut="4.4944992661476135e-01" cType="1" res="-4.4915272155776620e-04" rms="4.3944719433784485e-01" purity="4.5026183128356934e-01" nType="0">
            <Node pos="l" depth="3" NCoef="0" IVar="-1" Cut="0.0000000000000000e+00" cType="1" res="3.6818910390138626e-02" rms="4.3115800619125366e-01" purity="4.5657610893249512e-01" nType="-99"/>
            <Node pos="r" depth="3" NCoef="0" IVar="-1" Cut="0.0000000000000000e+00" cType="1" res="-5.5872122757136822e-03" rms="4.4036296010017395e-01" purity="4.4937828183174133e-01" nType="-99"/>
          </Node>
        </Node>
      </Node>
    </BinaryTree>
    <BinaryTree type="DecisionTree" boostWeight="1.0000000000000000e+00" itree="23">
      <Node pos="s" depth="0" NCoef="0" IVar="3" Cut="2.0940711498260498e+00" cType="1" res="1.9128137864754535e-05" rms="4.5343011617660522e-01" purity="5.0000000000000000e-01" nType="0">
        <Node pos="l" depth="1" NCoef="0" IVar="0" Cut="1.1804879760742188e+02" cType="1" res="-3.0131768435239792e-03" rms="4.5401370525360107e-01" purity="5.1037609577178955e-01" nType="0">
          <Node pos="l" depth="2" NCoef="0" IVar="6" Cut="2.0948216915130615e+00" cType="1" res="-9.1543598100543022e-03" rms="4.7691655158996582e-01" purity="5.6763565540313721e-01" nType="0">
            <Node pos="l" depth="3" NCoef="0" IVar="-1" Cut="0.0000000000000000e+00" cType="1" res="1.1098838411271572e-02" rms="4.7439423203468323e-01" purity="5.7780468463897705e-01" nType="-99"/>
            <Node pos="r" depth="3" NCoef="0" IVar="-1" Cut="0.0000000000000000e+00" cType="1" res="-2.4302588775753975e-02" rms="4.7826483845710754e-01" purity="5.5906522274017334e-01" nType="-99"/>
          </Node>
          <Node pos="r" depth="2" NCoef="0" IVar="2" Cut="1.4507583379745483e+00" cType="1" res="1.3198982924222946e-02" rms="3.8662728667259216e-01" purity="3.5921603441238403e-01" nType="0">
            <Node pos="l" depth="3" NCoef="0" IVar="-1" Cut="0.0000000000000000e+00" cType="1" res="3.7557840347290039e-02" rms="4.3088006973266602e-01" purity="5.3881663084030151e-01" nType="-99"/>
            <Node pos="r" depth="3" NCoef="0" IVar="-1" Cut="0.0000000000000000e+00" cType="1" res="-2.1685801446437836e-02" rms="3.3208876848220825e-01" purity="1.7099720239639282e-01" nType="-99"/>
          </Node>
        </Node>
        <Node pos="r" depth="1" NCoef="0" IVar="0" Cut="9.2716156005859375e+01" cType="1" res="1.0259207338094711e-02" rms="4.5130327343940735e-01" purity="4.6496003866195679e-01" nType="0">
          <Node pos="l" depth="2" NCoef="0" IVar="9" Cut="6.2216049432754517e-01" cType="1" res="3.0772328376770020e-02" rms="4.7391432523727417e-01" purity="5.3571242094039917e-01" nType="0">
            <Node pos="l" depth="3" NCoef="0" IVar="-1" Cut="0.0000000000000000e+00" cType="1" res="4.7222994267940521e-02" rms="4.6536788344383240e-01" purity="5.6976842880249023e-01" nType="-99"/>
            <Node pos="r" depth="3" NCoef="0" IVar="-1" Cut="0.0000000000000000e+00" cType="1" res="6.7147654481232166e-03" rms="4.8104161024093628e-01" purity="5.0226473808288574e-01" nType="-99"/>
          </Node>
          <Node pos="r" depth="2" NCoef="0" IVar="-1" Cut="0.0000000000000000e+00" cType="1" res="-1.7086660489439964e-02" rms="4.1911187767982483e-01" purity="3.7435254454612732e-01" nType="-99"/>
        </Node>
      </Node>
    </BinaryTree>
    <BinaryTree type="DecisionTree" boostWeight="1.0000000000000000e+00" itree="24">
      <Node pos="s" depth="0" NCoef="0" IVar="9" Cut="1.0727720260620117e+00" cType="1" res="5.8088580772164278e-06" rms="4.5294713973999023e-01" purity="5.0000000000000000e-01" nType="0">
        <Node pos="l" depth="1" NCoef="0" IVar="0" Cut="7.6195800781250000e+01" cType="1" res="-4.6004639007151127e-03" rms="4.6502509713172913e-01" purity="5.5398488044738770e-01" nType="0">
          <Node pos="l" depth="2" NCoef="0" IVar="1" Cut="1.0462709665298462e+00" cType="1" res="-1.4576612971723080e-02" rms="4.7929799556732178e-01" purity="5.4285520315170288e-01" nType="0">
            <Node pos="l" depth="3" NCoef="0" IVar="-1" Cut="0.0000000000000000e+00" cType="1" res="-2.5678433477878571e-02" rms="4.8310899734497070e-01" purity="5.2119827270507812e-01" nType="-99"/>
            <Node pos="r" depth="3" NCoef="0" IVar="-1" Cut="0.0000000000000000e+00" cType="1" res="9.9421385675668716e-03" rms="4.7162526845932007e-01" purity="5.7945156097412109e-01" nType="-99"/>
          </Node>
          <Node pos="r" depth="2" NCoef="0" IVar="3" Cut="5.9834873676300049e-01" cType="1" res="4.6394532546401024e-03" rms="4.5120644569396973e-01" purity="5.6429308652877808e-01" nType="0">
            <Node pos="l" depth="3" NCoef="0" IVar="-1" Cut="0.0000000000000000e+00" cType="1" res="4.5513767749071121e-02" rms="4.3512058258056641e-01" purity="6.4573436975479126e-01" nType="-99"/>
            <Node pos="r" depth="3" NCoef="0" IVar="-1" Cut="0.0000000000000000e+00" cType="1" res="-6.7284922115504742e-03" rms="4.5496115088462830e-01" purity="5.4136472940444946e-01" nType="-99"/>
          </Node>
        </Node>
        <Node pos="r" depth="1" NCoef="0" IVar="3" Cut="4.4878348708152771e-01" cType="1" res="7.4020633473992348e-03" rms="4.3274664878845215e-01" purity="4.1331696510314941e-01" nType="0">
          <Node pos="l" depth="2" NCoef="0" IVar="-1" Cut="0.0000000000000000e+00" cType="1" res="-3.6319419741630554e-02" rms="4.1601124405860901e-01" purity="3.4800848364830017e-01" nType="-99"/>
          <Node pos="r" depth="2" NCoef="0" IVar="9" Cut="1.6857730150222778e+00" cType="1" res="1.4255842193961143e-02" rms="4.3510970473289490e-01" purity="4.2425194382667542e-01" nType="0">
            <Node pos="l" depth="3" NCoef="0" IVar="-1" Cut="0.0000000000000000e+00" cType="1" res="3.0755586922168732e-02" rms="4.6021941304206848e-01" purity="5.2844184637069702e-01" nType="-99"/>
            <Node pos="r" depth="3" NCoef="0" IVar="-1" Cut="0.0000000000000000e+00" cType="1" res="-9.8028953652828932e-04" rms="4.1254279017448425e-01" purity="3.3793607354164124e-01" nType="-99"/>
          </Node>
        </Node>
      </Node>
    </BinaryTree>
    <BinaryTree type="DecisionTree" boostWeight="1.0000000000000000e+00" itree="25">
      <Node pos="s" depth="0" NCoef="0" IVar="4" Cut="1.9213460683822632e+00" cType="1" res="-2.4027616746025160e-05" rms="4.5255210995674133e-01" purity="5.0000000000000000e-01" nType="0">
        <Node pos="l" depth="1" NCoef="0" IVar="8" Cut="2.6926341056823730e+00" cType="1" res="-2.4629526305943727e-03" rms="4.6352481842041016e-01" purity="5.4471409320831299e-01" nType="0">
          <Node pos="l" depth="2" NCoef="0" IVar="10" Cut="2.2439765930175781e+00" cType="1" res="6.3140803831629455e-05" rms="4.6325331926345825e-01" purity="5.4636490345001221e-01" nType="0">
            <Node pos="l" depth="3" NCoef="0" IVar="-1" Cut="0.0000000000000000e+00" cType="1" res="6.4530237577855587e-03" rms="4.6045044064521790e-01" purity="5.6500369310379028e-01" nType="-99"/>
            <Node pos="r" depth="3" NCoef="0" IVar="-1" Cut="0.0000000000000000e+00" cType="1" res="-1.3113006018102169e-02" rms="4.6882444620132446e-01" purity="5.0669932365417480e-01" nType="-99"/>
          </Node>
          <Node pos="r" depth="2" NCoef="0" IVar="-1" Cut="0.0000000000000000e+00" cType="1" res="-2.6972176507115364e-02" rms="4.6550059318542480e-01" purity="5.2790498733520508e-01" nType="-99"/>
        </Node>
        <Node pos="r" depth="1" NCoef="0" IVar="6" Cut="2.5432388782501221e+00" cType="1" res="1.1384121142327785e-02" rms="3.9702343940734863e-01" purity="2.9084831476211548e-01" nType="0">
          <Node pos="l" depth="2" NCoef="0" IVar="2" Cut="1.1926143169403076e+00" cType="1" res="-8.9941415935754776e-03" rms="3.7713414430618286e-01" purity="2.6017615199089050e-01" nType="0">
            <Node pos="l" depth="3" NCoef="0" IVar="-1" Cut="0.0000000000000000e+00" cType="1" res="2.1737881004810333e-02" rms="4.6209353208541870e-01" purity="4.3547371029853821e-01" nType="-99"/>
            <Node pos="r" depth="3" NCoef="0" IVar="-1" Cut="0.0000000000000000e+00" cType="1" res="-6.4959466457366943e-02" rms="2.8705379366874695e-01" purity="1.1703706532716751e-01" nType="-99"/>
          </Node>
          <Node pos="r" depth="2" NCoef="0" IVar="-1" Cut="0.0000000000000000e+00" cType="1" res="5.5351085960865021e-02" rms="4.2842471599578857e-01" purity="3.4673568606376648e-01" nType="-99"/>
        </Node>
      </Node>
    </BinaryTree>
    <BinaryTree type="DecisionTree" boostWeight="1.0000000000000000e+00" itree="26">
      <Node pos="s" depth="0" NCoef="0" IVar="6" Cut="1.3465842008590698e+00" cType="1" res="-5.5501186579931527e-05" rms="4.5224812626838684e-01" purity="5.0000000000000000e-01" nType="0">
        <Node pos="l" depth="1" NCoef="0" IVar="5" Cut="1.1086367797851562e+02" cType="1" res="-1.3855948112905025e-02" rms="4.4170039892196655e-01" purity="4.6513095498085022e-01" nType="0">
          <Node pos="l" depth="2" NCoef="0" IVar="-1" Cut="0.0000000000000000e+00" cType="1" res="9.5281368121504784e-03" rms="4.6760919690132141e-01" purity="6.0972833633422852e-01" nType="-99"/>
          <Node pos="r" depth="2" NCoef="0" IVar="-1" Cut="0.0000000000000000e+00" cType="1" res="-3.6540526896715164e-02" rms="4.1870075464248657e-01" purity="3.4910535812377930e-01" nType="-99"/>
        </Node>
        <Node pos="r" depth="1" NCoef="0" IVar="4" Cut="1.5157040357589722e+00" cType="1" res="2.2562851663678885e-03" rms="4.5395004749298096e-01" purity="5.0584113597869873e-01" nType="0">
          <Node pos="l" depth="2" NCoef="0" IVar="7" Cut="2.0819918811321259e-01" cType="1" res="-2.5782559532672167e-03" rms="4.6562400460243225e-01" purity="5.5767923593521118e-01" nType="0">
            <Node pos="l" depth="3" NCoef="0" IVar="-1" Cut="0.0000000000000000e+00" cType="1" res="2.0072245970368385e-02" rms="4.6404030919075012e-01" purity="6.2601423263549805e-01" nType="-99"/>
            <Node pos="r" depth="3" NCoef="0" IVar="-1" Cut="0.0000000000000000e+00" cType="1" res="-5.9117241762578487e-03" rms="4.6575176715850830e-01" purity="5.4702603816986084e-01" nType="-99"/>
          </Node>
          <Node pos="r" depth="2" NCoef="0" IVar="10" Cut="2.6931066513061523e+00" cType="1" res="1.6474349424242973e-02" rms="4.1740706562995911e-01" purity="3.5338854789733887e-01" nType="0">
            <Node pos="l" depth="3" NCoef="0" IVar="-1" Cut="0.0000000000000000e+00" cType="1" res="3.2934717833995819e-02" rms="4.1414940357208252e-01" purity="3.6126795411109924e-01" nType="-99"/>
            <Node pos="r" depth="3" NCoef="0" IVar="-1" Cut="0.0000000000000000e+00" cType="1" res="-1.5208009630441666e-02" rms="4.2371234297752380e-01" purity="3.3402746915817261e-01" nType="-99"/>
          </Node>
        </Node>
      </Node>
    </BinaryTree>
    <BinaryTree type="DecisionTree" boostWeight="1.0000000000000000e+00" itree="27">
      <Node pos="s" depth="0" NCoef="0" IVar="8" Cut="2.8423614501953125e+00" cType="1" res="-6.0484941059257835e-05" rms="4.5198404788970947e-01" purity="5.0000000000000000e-01" nType="0">
        <Node pos="l" depth="1" NCoef="0" IVar="5" Cut="1.1086367797851562e+02" cType="1" res="-1.4233399415388703e-03" rms="4.5247209072113037e-01" purity="4.9863901734352112e-01" nType="0">
          <Node pos="l" depth="2" NCoef="0" IVar="4" Cut="1.0209091901779175e+00" cType="1" res="-7.6399887911975384e-03" rms="4.7759374976158142e-01" purity="5.9605771303176880e-01" nType="0">
            <Node pos="l" depth="3" NCoef="0" IVar="-1" Cut="0.0000000000000000e+00" cType="1" res="-1.3529166579246521e-02" rms="4.7464591264724731e-01" purity="6.0437810420989990e-01" nType="-99"/>
            <Node pos="r" depth="3" NCoef="0" IVar="-1" Cut="0.0000000000000000e+00" cType="1" res="1.9990684464573860e-02" rms="4.8831015825271606e-01" purity="5.6182473897933960e-01" nType="-99"/>
          </Node>
          <Node pos="r" depth="2" NCoef="0" IVar="7" Cut="1.5697371959686279e+00" cType="1" res="2.1800231188535690e-03" rms="4.3721005320549011e-01" purity="4.4217208027839661e-01" nType="0">
            <Node pos="l" depth="3" NCoef="0" IVar="-1" Cut="0.0000000000000000e+00" cType="1" res="1.2491530738770962e-02" rms="4.6308600902557373e-01" purity="5.6840610504150391e-01" nType="-99"/>
            <Node pos="r" depth="3" NCoef="0" IVar="-1" Cut="0.0000000000000000e+00" cType="1" res="-9.7565464675426483e-03" rms="4.1057819128036499e-01" purity="3.2115557789802551e-01" nType="-99"/>
          </Node>
        </Node>
        <Node pos="r" depth="1" NCoef="0" IVar="-1" Cut="0.0000000000000000e+00" cType="1" res="2.1727185696363449e-02" rms="4.4350603222846985e-01" purity="5.2184158563613892e-01" nType="-99"/>
      </Node>
    </BinaryTree>
    <BinaryTree type="DecisionTree" boostWeight="1.0000000000000000e+00" itree="28">
      <Node pos="s" depth="0" NCoef="0" IVar="0" Cut="1.7019384765625000e+02" cType="1" res="-4.8528982006246224e-05" rms="4.5183649659156799e-01" purity="5.0000000000000000e-01" nType="0">
        <Node pos="l" depth="1" NCoef="0" IVar="0" Cut="8.8241104125976562e+01" cType="1" res="1.3566551497206092e-03" rms="4.6749702095985413e-01" purity="5.4168194532394409e-01" nType="0">
          <Node pos="l" depth="2" NCoef="0" IVar="6" Cut="2.0948216915130615e+00" cType="1" res="-6.7519666627049446e-03" rms="4.7902554273605347e-01" purity="5.4323494434356689e-01" nType="0">
            <Node pos="l" depth="3" NCoef="0" IVar="-1" Cut="0.0000000000000000e+00" cType="1" res="1.1958164162933826e-02" rms="4.7869062423706055e-01" purity="5.7196217775344849e-01" nType="-99"/>
            <Node pos="r" depth="3" NCoef="0" IVar="-1" Cut="0.0000000000000000e+00" cType="1" res="-1.8650555983185768e-02" rms="4.7871246933937073e-01" purity="5.2222174406051636e-01" nType="-99"/>
          </Node>
          <Node pos="r" depth="2" NCoef="0" IVar="6" Cut="2.2442553043365479e+00" cType="1" res="1.0967801325023174e-02" rms="4.5326498150825500e-01" purity="5.3984123468399048e-01" nType="0">
            <Node pos="l" depth="3" NCoef="0" IVar="-1" Cut="0.0000000000000000e+00" cType="1" res="-1.7409432679414749e-02" rms="4.4010582566261292e-01" purity="4.9949771165847778e-01" nType="-99"/>
            <Node pos="r" depth="3" NCoef="0" IVar="-1" Cut="0.0000000000000000e+00" cType="1" res="2.6503341272473335e-02" rms="4.6028545498847961e-01" purity="5.6458437442779541e-01" nType="-99"/>
          </Node>
        </Node>
        <Node pos="r" depth="1" NCoef="0" IVar="-1" Cut="0.0000000000000000e+00" cType="1" res="-4.3790128082036972e-02" rms="2.3099705576896667e-01" purity="6.4107961952686310e-02" nType="-99"/>
      </Node>
    </BinaryTree>
    <BinaryTree type="DecisionTree" boostWeight="1.0000000000000000e+00" itree="29">
      <Node pos="s" depth="0" NCoef="0" IVar="10" Cut="1.4960252046585083e+00" cType="1" res="-6.1716513300780207e-05" rms="4.5153665542602539e-01" purity="5.0000000000000000e-01" nType="0">
        <Node pos="l" depth="1" NCoef="0" IVar="11" Cut="6.7630279064178467e-01" cType="1" res="-5.6749191135168076e-03" rms="4.5048627257347107e-01" purity="5.1087129116058350e-01" nType="0">
          <Node pos="l" depth="2" NCoef="0" IVar="3" Cut="6.2842410802841187e-01" cType="1" res="2.0993197336792946e-02" rms="4.5527917146682739e-01" purity="6.5359759330749512e-01" nType="0">
            <Node pos="l" depth="3" NCoef="0" IVar="-1" Cut="0.0000000000000000e+00" cType="1" res="2.6434774044901133e-03" rms="4.5250856876373291e-01" purity="6.4302796125411987e-01" nType="-99"/>
            <Node pos="r" depth="3" NCoef="0" IVar="-1" Cut="0.0000000000000000e+00" cType="1" res="3.8738202303647995e-02" rms="4.5759817957878113e-01" purity="6.6603565216064453e-01" nType="-99"/>
          </Node>
          <Node pos="r" depth="2" NCoef="0" IVar="4" Cut="9.1202765703201294e-01" cType="1" res="-1.8228797242045403e-02" rms="4.4766268134117126e-01" purity="4.4368362426757812e-01" nType="0">
            <Node pos="l" depth="3" NCoef="0" IVar="-1" Cut="0.0000000000000000e+00" cType="1" res="-3.7926271557807922e-02" rms="4.7731024026870728e-01" purity="5.3495937585830688e-01" nType="-99"/>
            <Node pos="r" depth="3" NCoef="0" IVar="-1" Cut="0.0000000000000000e+00" cType="1" res="-5.0700139254331589e-03" rms="4.2975148558616638e-01" purity="3.9301657676696777e-01" nType="-99"/>
          </Node>
        </Node>
        <Node pos="r" depth="1" NCoef="0" IVar="11" Cut="6.2002652883529663e-01" cType="1" res="3.1394825782626867e-03" rms="4.5210337638854980e-01" purity="4.9380013346672058e-01" nType="0">
          <Node pos="l" depth="2" NCoef="0" IVar="8" Cut="1.4959089756011963e+00" cType="1" res="-1.1445542797446251e-02" rms="4.7095540165901184e-01" purity="5.8787590265274048e-01" nType="0">
            <Node pos="l" depth="3" NCoef="0" IVar="-1" Cut="0.0000000000000000e+00" cType="1" res="-2.5015121325850487e-02" rms="4.7988435626029968e-01" purity="5.5088710784912109e-01" nType="-99"/>
            <Node pos="r" depth="3" NCoef="0" IVar="-1" Cut="0.0000000000000000e+00" cType="1" res="4.7264802269637585e-03" rms="4.6132776141166687e-01" purity="6.2459331750869751e-01" nType="-99"/>
          </Node>
          <Node pos="r" depth="2" NCoef="0" IVar="1" Cut="5.9926056861877441e-01" cType="1" res="1.0358182713389397e-02" rms="4.4229781627655029e-01" purity="4.4723832607269287e-01" nType="0">
            <Node pos="l" depth="3" NCoef="0" IVar="-1" Cut="0.0000000000000000e+00" cType="1" res="-2.8019119054079056e-02" rms="4.5582625269889832e-01" purity="3.9168065786361694e-01" nType="-99"/>
            <Node pos="r" depth="3" NCoef="0" IVar="-1" Cut="0.0000000000000000e+00" cType="1" res="1.5747360885143280e-02" rms="4.4016411900520325e-01" purity="4.5475828647613525e-01" nType="-99"/>
          </Node>
        </Node>
      </Node>
    </BinaryTree>
    <BinaryTree type="DecisionTree" boostWeight="1.0000000000000000e+00" itree="30">
      <Node pos="s" depth="0" NCoef="0" IVar="1" Cut="7.4826401472091675e-01" cType="1" res="6.3139359554043040e-06" rms="4.5116844773292542e-01" purity="5.0000000000000000e-01" nType="0">
        <Node pos="l" depth="1" NCoef="0" IVar="0" Cut="5.4772956848144531e+01" cType="1" res="8.0779669806361198e-03" rms="4.5650321245193481e-01" purity="5.0077575445175171e-01" nType="0">
          <Node pos="l" depth="2" NCoef="0" IVar="-1" Cut="0.0000000000000000e+00" cType="1" res="-1.1755293235182762e-02" rms="4.8073211312294006e-01" purity="5.0708043575286865e-01" nType="-99"/>
          <Node pos="r" depth="2" NCoef="0" IVar="2" Cut="1.5909183025360107e+00" cType="1" res="1.9672568887472153e-02" rms="4.4282463192939758e-01" purity="4.9746891856193542e-01" nType="0">
            <Node pos="l" depth="3" NCoef="0" IVar="-1" Cut="0.0000000000000000e+00" cType="1" res="3.2589100301265717e-02" rms="4.6103608608245850e-01" purity="6.0542351007461548e-01" nType="-99"/>
            <Node pos="r" depth="3" NCoef="0" IVar="-1" Cut="0.0000000000000000e+00" cType="1" res="-1.7263101413846016e-02" rms="4.0050366520881653e-01" purity="2.7438455820083618e-01" nType="-99"/>
          </Node>
        </Node>
        <Node pos="r" depth="1" NCoef="0" IVar="10" Cut="8.9764297008514404e-01" cType="1" res="-3.3090102951973677e-03" rms="4.4891688227653503e-01" purity="4.9968135356903076e-01" nType="0">
          <Node pos="l" depth="2" NCoef="0" IVar="-1" Cut="0.0000000000000000e+00" cType="1" res="-2.7954304590821266e-02" rms="4.4760590791702271e-01" purity="4.5313188433647156e-01" nType="-99"/>
          <Node pos="r" depth="2" NCoef="0" IVar="1" Cut="2.3438365459442139e+00" cType="1" res="-4.1803278145380318e-04" rms="4.4897615909576416e-01" purity="5.0501132011413574e-01" nType="0">
            <Node pos="l" depth="3" NCoef="0" IVar="-1" Cut="0.0000000000000000e+00" cType="1" res="2.6819112244993448e-03" rms="4.4963511824607849e-01" purity="5.2396410703659058e-01" nType="-99"/>
            <Node pos="r" depth="3" NCoef="0" IVar="-1" Cut="0.0000000000000000e+00" cType="1" res="-1.9077673554420471e-02" rms="4.4469189643859863e-01" purity="3.9522626996040344e-01" nType="-99"/>
          </Node>
        </Node>
      </Node>
    </BinaryTree>
    <BinaryTree type="DecisionTree" boostWeight="1.0000000000000000e+00" itree="31">
      <Node pos="s" depth="0" NCoef="0" IVar="6" Cut="8.9783865213394165e-01" cType="1" res="-1.5420362615259364e-05" rms="4.5097047090530396e-01" purity="5.0000000000000000e-01" nType="0">
        <Node pos="l" depth="1" NCoef="0" IVar="-1" Cut="0.0000000000000000e+00" cType="1" res="2.1250111982226372e-02" rms="4.3271791934967041e-01" purity="4.7318693995475769e-01" nType="-99"/>
        <Node pos="r" depth="1" NCoef="0" IVar="6" Cut="1.3255479335784912e+00" cType="1" res="-1.7268036026507616e-03" rms="4.5239001512527466e-01" purity="5.0219607353210449e-01" nType="0">
          <Node pos="l" depth="2" NCoef="0" IVar="-1" Cut="0.0000000000000000e+00" cType="1" res="-2.8240609914064407e-02" rms="4.4500383734703064e-01" purity="4.5161685347557068e-01" nType="-99"/>
          <Node pos="r" depth="2" NCoef="0" IVar="4" Cut="2.1219735145568848e+00" cType="1" res="3.1342165311798453e-04" rms="4.5286434888839722e-01" purity="5.0593417882919312e-01" nType="0">
            <Node pos="l" depth="3" NCoef="0" IVar="-1" Cut="0.0000000000000000e+00" cType="1" res="-2.1930977236479521e-03" rms="4.6165990829467773e-01" purity="5.3849011659622192e-01" nType="-99"/>
            <Node pos="r" depth="3" NCoef="0" IVar="-1" Cut="0.0000000000000000e+00" cType="1" res="2.2360848262906075e-02" rms="3.8949412107467651e-01" purity="2.9133144021034241e-01" nType="-99"/>
          </Node>
        </Node>
      </Node>
    </BinaryTree>
    <BinaryTree type="DecisionTree" boostWeight="1.0000000000000000e+00" itree="32">
      <Node pos="s" depth="0" NCoef="0" IVar="11" Cut="6.7580449581146240e-01" cType="1" res="-2.7473453883430921e-05" rms="4.5083460211753845e-01" purity="5.0000000000000000e-01" nType="0">
        <Node pos="l" depth="1" NCoef="0" IVar="10" Cut="1.1967366933822632e+00" cType="1" res="6.2262909486889839e-03" rms="4.6374797821044922e-01" purity="6.1565476655960083e-01" nType="0">
          <Node pos="l" depth="2" NCoef="0" IVar="-1" Cut="0.0000000000000000e+00" cType="1" res="2.6874283328652382e-02" rms="4.5137256383895874e-01" purity="6.6263061761856079e-01" nType="-99"/>
          <Node pos="r" depth="2" NCoef="0" IVar="1" Cut="1.7945584058761597e+00" cType="1" res="-1.4632793609052896e-03" rms="4.6759811043739319e-01" purity="5.9980869293212891e-01" nType="0">
            <Node pos="l" depth="3" NCoef="0" IVar="-1" Cut="0.0000000000000000e+00" cType="1" res="-1.2382384389638901e-02" rms="4.6903714537620544e-01" purity="5.9971314668655396e-01" nType="-99"/>
            <Node pos="r" depth="3" NCoef="0" IVar="-1" Cut="0.0000000000000000e+00" cType="1" res="1.9906198605895042e-02" rms="4.6389856934547424e-01" purity="5.9999400377273560e-01" nType="-99"/>
          </Node>
        </Node>
        <Node pos="r" depth="1" NCoef="0" IVar="1" Cut="1.9450763463973999e+00" cType="1" res="-3.3127439673990011e-03" rms="4.4386506080627441e-01" purity="4.3924343585968018e-01" nType="0">
          <Node pos="l" depth="2" NCoef="0" IVar="4" Cut="2.1221508979797363e+00" cType="1" res="4.6649915020680055e-05" rms="4.4835004210472107e-01" purity="4.6150457859039307e-01" nType="0">
            <Node pos="l" depth="3" NCoef="0" IVar="-1" Cut="0.0000000000000000e+00" cType="1" res="-3.8006908725947142e-03" rms="4.6067720651626587e-01" purity="4.9651056528091431e-01" nType="-99"/>
            <Node pos="r" depth="3" NCoef="0" IVar="-1" Cut="0.0000000000000000e+00" cType="1" res="2.5470707565546036e-02" rms="3.8304954767227173e-01" purity="2.9338872432708740e-01" nType="-99"/>
          </Node>
          <Node pos="r" depth="2" NCoef="0" IVar="9" Cut="9.3699336051940918e-01" cType="1" res="-1.6902228817343712e-02" rms="4.2496907711029053e-01" purity="3.4919229149818420e-01" nType="0">
            <Node pos="l" depth="3" NCoef="0" IVar="-1" Cut="0.0000000000000000e+00" cType="1" res="-3.8062151521444321e-02" rms="4.3835282325744629e-01" purity="3.9045172929763794e-01" nType="-99"/>
            <Node pos="r" depth="3" NCoef="0" IVar="-1" Cut="0.0000000000000000e+00" cType="1" res="-8.5014448268339038e-04" rms="4.1454198956489563e-01" purity="3.2019427418708801e-01" nType="-99"/>
          </Node>
        </Node>
      </Node>
    </BinaryTree>
    <BinaryTree type="DecisionTree" boostWeight="1.0000000000000000e+00" itree="33">
      <Node pos="s" depth="0" NCoef="0" IVar="9" Cut="2.1455237865447998e+00" cType="1" res="-1.8502661987440661e-05" rms="4.5062661170959473e-01" purity="5.0000000000000000e-01" nType="0">
        <Node pos="l" depth="1" NCoef="0" IVar="9" Cut="1.2258981466293335e+00" cType="1" res="1.7524869181215763e-03" rms="4.5900040864944458e-01" purity="5.3112870454788208e-01" nType="0">
          <Node pos="l" depth="2" NCoef="0" IVar="9" Cut="5.8337682485580444e-01" cType="1" res="-2.5835998822003603e-03" rms="4.6191856265068054e-01" purity="5.4979157447814941e-01" nType="0">
            <Node pos="l" depth="3" NCoef="0" IVar="-1" Cut="0.0000000000000000e+00" cType="1" res="5.3661759011447430e-03" rms="4.6045562624931335e-01" purity="5.7373207807540894e-01" nType="-99"/>
            <Node pos="r" depth="3" NCoef="0" IVar="-1" Cut="0.0000000000000000e+00" cType="1" res="-1.2239546515047550e-02" rms="4.6355083584785461e-01" purity="5.1933753490447998e-01" nType="-99"/>
          </Node>
          <Node pos="r" depth="2" NCoef="0" IVar="9" Cut="1.6202228069305420e+00" cType="1" res="1.5764076262712479e-02" rms="4.4915503263473511e-01" purity="4.7082194685935974e-01" nType="0">
            <Node pos="l" depth="3" NCoef="0" IVar="-1" Cut="0.0000000000000000e+00" cType="1" res="3.6677088588476181e-02" rms="4.5855230093002319e-01" purity="5.3146040439605713e-01" nType="-99"/>
            <Node pos="r" depth="3" NCoef="0" IVar="-1" Cut="0.0000000000000000e+00" cType="1" res="-1.0974090546369553e-02" rms="4.3639150261878967e-01" purity="3.9976727962493896e-01" nType="-99"/>
          </Node>
        </Node>
        <Node pos="r" depth="1" NCoef="0" IVar="11" Cut="2.7094287872314453e+00" cType="1" res="-1.2678015045821667e-02" rms="3.8527020812034607e-01" purity="2.7748319506645203e-01" nType="0">
          <Node pos="l" depth="2" NCoef="0" IVar="-1" Cut="0.0000000000000000e+00" cType="1" res="-3.5411853343248367e-02" rms="4.3840193748474121e-01" purity="3.5907685756683350e-01" nType="-99"/>
          <Node pos="r" depth="2" NCoef="0" IVar="-1" Cut="0.0000000000000000e+00" cType="1" res="3.2514188438653946e-02" rms="2.9943925142288208e-01" purity="1.7070455849170685e-01" nType="-99"/>
        </Node>
      </Node>
    </BinaryTree>
    <BinaryTree type="DecisionTree" boostWeight="1.0000000000000000e+00" itree="34">
      <Node pos="s" depth="0" NCoef="0" IVar="10" Cut="1.4960252046585083e+00" cType="1" res="-1.6622730981907807e-05" rms="4.5036721229553223e-01" purity="5.0000000000000000e-01" nType="0">
        <Node pos="l" depth="1" NCoef="0" IVar="10" Cut="1.2110284566879272e+00" cType="1" res="-5.7305195368826389e-03" rms="4.4886508584022522e-01" purity="5.1087129116058350e-01" nType="0">
          <Node pos="l" depth="2" NCoef="0" IVar="2" Cut="1.3917599916458130e+00" cType="1" res="2.6195701211690903e-03" rms="4.4665169715881348e-01" purity="5.1503276824951172e-01" nType="0">
            <Node pos="l" depth="3" NCoef="0" IVar="-1" Cut="0.0000000000000000e+00" cType="1" res="1.0302573442459106e-02" rms="4.6435904502868652e-01" purity="5.9017550945281982e-01" nType="-99"/>
            <Node pos="r" depth="3" NCoef="0" IVar="-1" Cut="0.0000000000000000e+00" cType="1" res="-3.6396838724613190e-02" rms="3.7683984637260437e-01" purity="2.5295335054397583e-01" nType="-99"/>
          </Node>
          <Node pos="r" depth="2" NCoef="0" IVar="-1" Cut="0.0000000000000000e+00" cType="1" res="-3.1922426074743271e-02" rms="4.5503336191177368e-01" purity="4.9707004427909851e-01" nType="-99"/>
        </Node>
        <Node pos="r" depth="1" NCoef="0" IVar="10" Cut="1.7312546968460083e+00" cType="1" res="3.2420018687844276e-03" rms="4.5118921995162964e-01" purity="4.9380013346672058e-01" nType="0">
          <Node pos="l" depth="2" NCoef="0" IVar="-1" Cut="0.0000000000000000e+00" cType="1" res="2.7943484485149384e-02" rms="4.3648672103881836e-01" purity="5.5936384201049805e-01" nType="-99"/>
          <Node pos="r" depth="2" NCoef="0" IVar="5" Cut="1.2961581420898438e+02" cType="1" res="-1.9002660701517016e-04" rms="4.5308163762092590e-01" purity="4.8471713066101074e-01" nType="0">
            <Node pos="l" depth="3" NCoef="0" IVar="-1" Cut="0.0000000000000000e+00" cType="1" res="9.9467029795050621e-03" rms="4.7733771800994873e-01" purity="6.0840070247650146e-01" nType="-99"/>
            <Node pos="r" depth="3" NCoef="0" IVar="-1" Cut="0.0000000000000000e+00" cType="1" res="-9.8332073539495468e-03" rms="4.3196842074394226e-01" purity="3.8336792588233948e-01" nType="-99"/>
          </Node>
        </Node>
      </Node>
    </BinaryTree>
    <BinaryTree type="DecisionTree" boostWeight="1.0000000000000000e+00" itree="35">
      <Node pos="s" depth="0" NCoef="0" IVar="5" Cut="1.1086367797851562e+02" cType="1" res="-3.2970106985885650e-05" rms="4.5016458630561829e-01" purity="5.0000000000000000e-01" nType="0">
        <Node pos="l" depth="1" NCoef="0" IVar="3" Cut="1.7949059009552002e+00" cType="1" res="-5.1735495217144489e-03" rms="4.7492203116416931e-01" purity="5.9833800792694092e-01" nType="0">
          <Node pos="l" depth="2" NCoef="0" IVar="8" Cut="1.9446854591369629e+00" cType="1" res="-1.2977952137589455e-02" rms="4.7427824139595032e-01" purity="5.8993184566497803e-01" nType="0">
            <Node pos="l" depth="3" NCoef="0" IVar="-1" Cut="0.0000000000000000e+00" cType="1" res="-3.3862877171486616e-03" rms="4.7489535808563232e-01" purity="5.9196293354034424e-01" nType="-99"/>
            <Node pos="r" depth="3" NCoef="0" IVar="-1" Cut="0.0000000000000000e+00" cType="1" res="-4.4965349137783051e-02" rms="4.7011315822601318e-01" purity="5.8192896842956543e-01" nType="-99"/>
          </Node>
          <Node pos="r" depth="2" NCoef="0" IVar="-1" Cut="0.0000000000000000e+00" cType="1" res="3.1879633665084839e-02" rms="4.7619089484214783e-01" purity="6.4272093772888184e-01" nType="-99"/>
        </Node>
        <Node pos="r" depth="1" NCoef="0" IVar="3" Cut="1.7949346303939819e+00" cType="1" res="2.9853782616555691e-03" rms="4.3494355678558350e-01" purity="4.4225972890853882e-01" nType="0">
          <Node pos="l" depth="2" NCoef="0" IVar="0" Cut="1.2030893707275391e+02" cType="1" res="9.8030017688870430e-03" rms="4.2950627207756042e-01" purity="4.5798707008361816e-01" nType="0">
            <Node pos="l" depth="3" NCoef="0" IVar="-1" Cut="0.0000000000000000e+00" cType="1" res="-9.8850621725432575e-05" rms="4.6963477134704590e-01" purity="5.4610604047775269e-01" nType="-99"/>
            <Node pos="r" depth="3" NCoef="0" IVar="-1" Cut="0.0000000000000000e+00" cType="1" res="3.9145786315202713e-02" rms="3.5181581974029541e-01" purity="3.1081008911132812e-01" nType="-99"/>
          </Node>
          <Node pos="r" depth="2" NCoef="0" IVar="0" Cut="1.3023219299316406e+02" cType="1" res="-6.8445554934442043e-03" rms="4.4248086214065552e-01" purity="4.1958335041999817e-01" nType="0">
            <Node pos="l" depth="3" NCoef="0" IVar="-1" Cut="0.0000000000000000e+00" cType="1" res="4.0262462571263313e-03" rms="4.7032862901687622e-01" purity="4.9270358681678772e-01" nType="-99"/>
            <Node pos="r" depth="3" NCoef="0" IVar="-1" Cut="0.0000000000000000e+00" cType="1" res="-8.6771026253700256e-02" rms="3.0778023600578308e-01" purity="1.3599421083927155e-01" nType="-99"/>
          </Node>
        </Node>
      </Node>
    </BinaryTree>
    <BinaryTree type="DecisionTree" boostWeight="1.0000000000000000e+00" itree="36">
      <Node pos="s" depth="0" NCoef="0" IVar="7" Cut="4.4863873720169067e-01" cType="1" res="-7.1238217060454190e-05" rms="4.4969338178634644e-01" purity="5.0000000000000000e-01" nType="0">
        <Node pos="l" depth="1" NCoef="0" IVar="10" Cut="2.3953592777252197e+00" cType="1" res="7.4492366984486580e-03" rms="4.5960125327110291e-01" purity="6.1660116910934448e-01" nType="0">
          <Node pos="l" depth="2" NCoef="0" IVar="8" Cut="8.9745718240737915e-01" cType="1" res="2.0118733868002892e-02" rms="4.5213043689727783e-01" purity="6.4473599195480347e-01" nType="0">
            <Node pos="l" depth="3" NCoef="0" IVar="-1" Cut="0.0000000000000000e+00" cType="1" res="-3.7286232691258192e-03" rms="4.6782085299491882e-01" purity="6.0206478834152222e-01" nType="-99"/>
            <Node pos="r" depth="3" NCoef="0" IVar="-1" Cut="0.0000000000000000e+00" cType="1" res="4.5282829552888870e-02" rms="4.3228062987327576e-01" purity="6.9249784946441650e-01" nType="-99"/>
          </Node>
          <Node pos="r" depth="2" NCoef="0" IVar="-1" Cut="0.0000000000000000e+00" cType="1" res="-1.5824504196643829e-02" rms="4.7298222780227661e-01" purity="5.6117743253707886e-01" nType="-99"/>
        </Node>
        <Node pos="r" depth="1" NCoef="0" IVar="10" Cut="2.3935985565185547e+00" cType="1" res="-1.9875082653015852e-03" rms="4.4711348414421082e-01" purity="4.7028923034667969e-01" nType="0">
          <Node pos="l" depth="2" NCoef="0" IVar="8" Cut="2.2429475784301758e+00" cType="1" res="-6.6431332379579544e-03" rms="4.4769272208213806e-01" purity="4.8066556453704834e-01" nType="0">
            <Node pos="l" depth="3" NCoef="0" IVar="-1" Cut="0.0000000000000000e+00" cType="1" res="-4.4630313641391695e-04" rms="4.4536679983139038e-01" purity="4.8229324817657471e-01" nType="-99"/>
            <Node pos="r" depth="3" NCoef="0" IVar="-1" Cut="0.0000000000000000e+00" cType="1" res="-5.9363137930631638e-02" rms="4.6421176195144653e-01" purity="4.6623530983924866e-01" nType="-99"/>
          </Node>
          <Node pos="r" depth="2" NCoef="0" IVar="8" Cut="2.2439701557159424e+00" cType="1" res="8.7175210937857628e-03" rms="4.4559422135353088e-01" purity="4.4642999768257141e-01" nType="0">
            <Node pos="l" depth="3" NCoef="0" IVar="-1" Cut="0.0000000000000000e+00" cType="1" res="-1.1284375563263893e-02" rms="4.5463272929191589e-01" purity="4.1726490855216980e-01" nType="-99"/>
            <Node pos="r" depth="3" NCoef="0" IVar="-1" Cut="0.0000000000000000e+00" cType="1" res="4.3753907084465027e-02" rms="4.2784959077835083e-01" purity="4.9523574113845825e-01" nType="-99"/>
          </Node>
        </Node>
      </Node>
    </BinaryTree>
    <BinaryTree type="DecisionTree" boostWeight="1.0000000000000000e+00" itree="37">
      <Node pos="s" depth="0" NCoef="0" IVar="9" Cut="7.1518808603286743e-01" cType="1" res="-1.6657131709507667e-05" rms="4.4925323128700256e-01" purity="5.0000000000000000e-01" nType="0">
        <Node pos="l" depth="1" NCoef="0" IVar="9" Cut="5.4472422599792480e-01" cType="1" res="-3.7148473784327507e-03" rms="4.6094182133674622e-01" purity="5.6304401159286499e-01" nType="0">
          <Node pos="l" depth="2" NCoef="0" IVar="8" Cut="1.0471371412277222e+00" cType="1" res="4.0352903306484222e-03" rms="4.5788487792015076e-01" purity="5.7565557956695557e-01" nType="0">
            <Node pos="l" depth="3" NCoef="0" IVar="-1" Cut="0.0000000000000000e+00" cType="1" res="-5.3005991503596306e-03" rms="4.6120789647102356e-01" purity="5.3973048925399780e-01" nType="-99"/>
            <Node pos="r" depth="3" NCoef="0" IVar="-1" Cut="0.0000000000000000e+00" cType="1" res="1.6335340216755867e-02" rms="4.5312184095382690e-01" purity="6.2315481901168823e-01" nType="-99"/>
          </Node>
          <Node pos="r" depth="2" NCoef="0" IVar="-1" Cut="0.0000000000000000e+00" cType="1" res="-2.8779659420251846e-02" rms="4.7083482146263123e-01" purity="5.1709139347076416e-01" nType="-99"/>
        </Node>
        <Node pos="r" depth="1" NCoef="0" IVar="8" Cut="1.0474454164505005e+00" cType="1" res="3.0085227917879820e-03" rms="4.3943750858306885e-01" purity="4.4842895865440369e-01" nType="0">
          <Node pos="l" depth="2" NCoef="0" IVar="6" Cut="2.6928827762603760e+00" cType="1" res="1.3145431876182556e-02" rms="4.4384440779685974e-01" purity="4.4331341981887817e-01" nType="0">
            <Node pos="l" depth="3" NCoef="0" IVar="-1" Cut="0.0000000000000000e+00" cType="1" res="1.8491587252356112e-04" rms="4.3266108632087708e-01" purity="4.1900891065597534e-01" nType="-99"/>
            <Node pos="r" depth="3" NCoef="0" IVar="-1" Cut="0.0000000000000000e+00" cType="1" res="4.0832709521055222e-02" rms="4.6807581186294556e-01" purity="5.0148892402648926e-01" nType="-99"/>
          </Node>
          <Node pos="r" depth="2" NCoef="0" IVar="10" Cut="1.4978898763656616e+00" cType="1" res="-5.8079734444618225e-03" rms="4.3537652492523193e-01" purity="4.5287811756134033e-01" nType="0">
            <Node pos="l" depth="3" NCoef="0" IVar="-1" Cut="0.0000000000000000e+00" cType="1" res="-4.0257293730974197e-02" rms="4.3437236547470093e-01" purity="4.1731852293014526e-01" nType="-99"/>
            <Node pos="r" depth="3" NCoef="0" IVar="-1" Cut="0.0000000000000000e+00" cType="1" res="1.2224302627146244e-03" rms="4.3525657057762146e-01" purity="4.6023562550544739e-01" nType="-99"/>
          </Node>
        </Node>
      </Node>
    </BinaryTree>
    <BinaryTree type="DecisionTree" boostWeight="1.0000000000000000e+00" itree="38">
      <Node pos="s" depth="0" NCoef="0" IVar="10" Cut="2.2440030574798584e+00" cType="1" res="1.3110941381455632e-06" rms="4.4898045063018799e-01" purity="5.0000000000000000e-01" nType="0">
        <Node pos="l" depth="1" NCoef="0" IVar="2" Cut="9.9381810426712036e-01" cType="1" res="3.2637829426676035e-03" rms="4.4859179854393005e-01" purity="5.1942068338394165e-01" nType="0">
          <Node pos="l" depth="2" NCoef="0" IVar="8" Cut="1.9439601898193359e+00" cType="1" res="-3.0375381466001272e-03" rms="4.6351587772369385e-01" purity="5.9614706039428711e-01" nType="0">
            <Node pos="l" depth="3" NCoef="0" IVar="-1" Cut="0.0000000000000000e+00" cType="1" res="1.9080531783401966e-03" rms="4.6390137076377869e-01" purity="5.9612321853637695e-01" nType="-99"/>
            <Node pos="r" depth="3" NCoef="0" IVar="-1" Cut="0.0000000000000000e+00" cType="1" res="-3.1681239604949951e-02" rms="4.5988550782203674e-01" purity="5.9629327058792114e-01" nType="-99"/>
          </Node>
          <Node pos="r" depth="2" NCoef="0" IVar="2" Cut="1.5997245311737061e+00" cType="1" res="1.2625768780708313e-02" rms="4.2528092861175537e-01" purity="4.0542706847190857e-01" nType="0">
            <Node pos="l" depth="3" NCoef="0" IVar="-1" Cut="0.0000000000000000e+00" cType="1" res="2.5514042004942894e-02" rms="4.6509125828742981e-01" purity="5.3895646333694458e-01" nType="-99"/>
            <Node pos="r" depth="3" NCoef="0" IVar="-1" Cut="0.0000000000000000e+00" cType="1" res="-1.1617060750722885e-02" rms="3.6389040946960449e-01" purity="2.2571338713169098e-01" nType="-99"/>
          </Node>
        </Node>
        <Node pos="r" depth="1" NCoef="0" IVar="10" Cut="2.4577646255493164e+00" cType="1" res="-5.5431323125958443e-03" rms="4.4958585500717163e-01" purity="4.6699523925781250e-01" nType="0">
          <Node pos="l" depth="2" NCoef="0" IVar="-1" Cut="0.0000000000000000e+00" cType="1" res="-3.5273816436529160e-02" rms="4.4954183697700500e-01" purity="4.3462926149368286e-01" nType="-99"/>
          <Node pos="r" depth="2" NCoef="0" IVar="8" Cut="2.6927926540374756e+00" cType="1" res="3.7820774596184492e-03" rms="4.4918614625930786e-01" purity="4.7689276933670044e-01" nType="0">
            <Node pos="l" depth="3" NCoef="0" IVar="-1" Cut="0.0000000000000000e+00" cType="1" res="-5.3189201280474663e-03" rms="4.5427647233009338e-01" purity="4.6348536014556885e-01" nType="-99"/>
            <Node pos="r" depth="3" NCoef="0" IVar="-1" Cut="0.0000000000000000e+00" cType="1" res="4.3188203126192093e-02" rms="4.2574453353881836e-01" purity="5.3137910366058350e-01" nType="-99"/>
          </Node>
        </Node>
      </Node>
    </BinaryTree>
    <BinaryTree type="DecisionTree" boostWeight="1.0000000000000000e+00" itree="39">
      <Node pos="s" depth="0" NCoef="0" IVar="8" Cut="2.6927638053894043e+00" cType="1" res="-1.8381846530246548e-05" rms="4.4866812229156494e-01" purity="5.0000000000000000e-01" nType="0">
        <Node pos="l" depth="1" NCoef="0" IVar="8" Cut="2.4360580444335938e+00" cType="1" res="1.5493226237595081e-03" rms="4.4882294535636902e-01" purity="4.9987724423408508e-01" nType="0">
          <Node pos="l" depth="2" NCoef="0" IVar="3" Cut="5.9838908910751343e-01" cType="1" res="-8.2029262557625771e-05" rms="4.4936129450798035e-01" purity="4.9712657928466797e-01" nType="0">
