<?xml version="1.0"?>
<MethodSetup Method="BDT::BDT">
  <GeneralInfo>
    <Info name="TMVA Release" value="4.2.0 [262656]"/>
    <Info name="ROOT Release" value="6.02/05 [393733]"/>
    <Info name="Creator" value="psilva"/>
    <Info name="Date" value="Mon Nov  2 00:55:41 2015"/>
    <Info name="Host" value="Linux cmsbuild12.cern.ch 2.6.32-573.7.1.el6.x86_64 #1 SMP Wed Sep 23 10:12:03 CEST 2015 x86_64 x86_64 x86_64 GNU/Linux"/>
    <Info name="Dir" value="/afs/cern.ch/work/p/psilva/BTV/CMSSW_7_4_14/src/RecoBTag/PerformanceMeasurements/test/ttbar"/>
    <Info name="Training events" value="20000"/>
    <Info name="TrainingTime" value="8.00325451e+01"/>
    <Info name="AnalysisType" value="Classification"/>
  </GeneralInfo>
  <Options>
    <Option name="V" modified="No">False</Option>
    <Option name="VerbosityLevel" modified="No">Default</Option>
    <Option name="VarTransform" modified="No">None</Option>
    <Option name="H" modified="No">False</Option>
    <Option name="CreateMVAPdfs" modified="No">False</Option>
    <Option name="IgnoreNegWeightsInTraining" modified="No">False</Option>
    <Option name="NTrees" modified="Yes">1000</Option>
    <Option name="MaxDepth" modified="Yes">3</Option>
    <Option name="MinNodeSize" modified="Yes">5%</Option>
    <Option name="nCuts" modified="No">20</Option>
    <Option name="BoostType" modified="Yes">Grad</Option>
    <Option name="AdaBoostR2Loss" modified="No">quadratic</Option>
    <Option name="UseBaggedBoost" modified="No">False</Option>
    <Option name="Shrinkage" modified="Yes">1.000000e+00</Option>
    <Option name="AdaBoostBeta" modified="No">5.000000e-01</Option>
    <Option name="UseRandomisedTrees" modified="No">False</Option>
    <Option name="UseNvars" modified="No">4</Option>
    <Option name="UsePoissonNvars" modified="No">True</Option>
    <Option name="BaggedSampleFraction" modified="No">6.000000e-01</Option>
    <Option name="UseYesNoLeaf" modified="No">True</Option>
    <Option name="NegWeightTreatment" modified="Yes">pray</Option>
    <Option name="Css" modified="No">1.000000e+00</Option>
    <Option name="Cts_sb" modified="No">1.000000e+00</Option>
    <Option name="Ctb_ss" modified="No">1.000000e+00</Option>
    <Option name="Cbb" modified="No">1.000000e+00</Option>
    <Option name="NodePurityLimit" modified="No">5.000000e-01</Option>
    <Option name="SeparationType" modified="No">giniindex</Option>
    <Option name="DoBoostMonitor" modified="No">False</Option>
    <Option name="UseFisherCuts" modified="No">False</Option>
    <Option name="MinLinCorrForFisher" modified="No">8.000000e-01</Option>
    <Option name="UseExclusiveVars" modified="No">False</Option>
    <Option name="DoPreselection" modified="No">False</Option>
    <Option name="SigToBkgFraction" modified="No">1.000000e+00</Option>
    <Option name="PruneMethod" modified="No">nopruning</Option>
    <Option name="PruneStrength" modified="No">0.000000e+00</Option>
    <Option name="PruningValFraction" modified="No">5.000000e-01</Option>
    <Option name="nEventsMin" modified="No">0</Option>
    <Option name="UseBaggedGrad" modified="No">False</Option>
    <Option name="GradBaggingFraction" modified="No">6.000000e-01</Option>
    <Option name="UseNTrainEvents" modified="No">0</Option>
    <Option name="NNodesMax" modified="No">0</Option>
  </Options>
  <Variables NVar="12">
    <Variable VarIndex="0" Expression="close_mlj[0]" Label="close_mlj[0]" Title="M(close lepton,jet)GeV" Unit="F" Internal="close_mlj_0_" Type="F" Min="1.26068163e+01" Max="6.16225891e+02"/>
    <Variable VarIndex="1" Expression="close_dphi" Label="close_dphi" Title="#Delta#phi(close lepton,jet)rad" Unit="F" Internal="close_dphi" Type="F" Min="2.99215317e-05" Max="3.14104581e+00"/>
    <Variable VarIndex="2" Expression="close_deta" Label="close_deta" Title="#Delta#eta(close lepton,jet)" Unit="F" Internal="close_deta" Type="F" Min="2.34283507e-05" Max="4.56995678e+00"/>
    <Variable VarIndex="3" Expression="close_lj2ll_dphi" Label="close_lj2ll_dphi" Title="#Delta#phi(close lepton+jet,dilepton)rad" Unit="F" Internal="close_lj2ll_dphi" Type="F" Min="7.18431547e-05" Max="3.14058828e+00"/>
    <Variable VarIndex="4" Expression="close_lj2ll_deta" Label="close_lj2ll_deta" Title="#Delta#eta(close lepton+jet,dilepton)" Unit="F" Internal="close_lj2ll_deta" Type="F" Min="1.15150249e-06" Max="7.62302732e+00"/>
    <Variable VarIndex="5" Expression="far_mlj" Label="far_mlj" Title="M(far lepton,jet)GeV" Unit="F" Internal="far_mlj" Type="F" Min="1.94900951e+01" Max="1.24955017e+03"/>
    <Variable VarIndex="6" Expression="far_dphi" Label="far_dphi" Title="#Delta#phi(far lepton,jet)rad" Unit="F" Internal="far_dphi" Type="F" Min="1.18494034e-04" Max="3.14150882e+00"/>
    <Variable VarIndex="7" Expression="far_deta" Label="far_deta" Title="#Delta#eta(far lepton,jet)" Unit="F" Internal="far_deta" Type="F" Min="3.65972519e-05" Max="4.72910738e+00"/>
    <Variable VarIndex="8" Expression="far_lj2ll_dphi" Label="far_lj2ll_dphi" Title="#Delta#phi(far lepton+jet,dilepton)rad" Unit="F" Internal="far_lj2ll_dphi" Type="F" Min="6.47131164e-05" Max="3.14152908e+00"/>
    <Variable VarIndex="9" Expression="far_lj2ll_deta" Label="far_lj2ll_deta" Title="#Delta#eta(far lepton+jet,dilepton)" Unit="F" Internal="far_lj2ll_deta" Type="F" Min="1.34988804e-04" Max="7.04028988e+00"/>
    <Variable VarIndex="10" Expression="j2ll_dphi" Label="j2ll_dphi" Title="#Delta#phi(dilepton,jet)" Unit="rad" Internal="j2ll_dphi" Type="F" Min="3.94819544e-05" Max="3.14154005e+00"/>
    <Variable VarIndex="11" Expression="j2ll_deta" Label="j2ll_deta" Title="#Delta#eta(dilepton,jet)" Unit="" Internal="j2ll_deta" Type="F" Min="1.64703262e-04" Max="7.01491404e+00"/>
  </Variables>
  <Spectators NSpec="0"/>
  <Classes NClass="2">
    <Class Name="Signal" Index="0"/>
    <Class Name="Background" Index="1"/>
  </Classes>
  <Transformations NTransformations="0"/>
  <MVAPdfs/>
  <Weights NTrees="1000" AnalysisType="1">
    <BinaryTree type="DecisionTree" boostWeight="1.0000000000000000e+00" itree="0">
      <Node pos="s" depth="0" NCoef="0" IVar="2" Cut="1.7409504652023315e+00" cType="1" res="-1.1332934492512851e-15" rms="5.0000000000000000e-01" purity="5.0000000000000000e-01" nType="0">
        <Node pos="l" depth="1" NCoef="0" IVar="7" Cut="1.5534979104995728e+00" cType="1" res="4.2123448103666306e-02" rms="4.9822247028350830e-01" purity="5.4212349653244019e-01" nType="0">
          <Node pos="l" depth="2" NCoef="0" IVar="0" Cut="6.1356525421142578e+01" cType="1" res="9.4549342989921570e-02" rms="4.9097904562950134e-01" purity="5.9454935789108276e-01" nType="0">
            <Node pos="l" depth="3" NCoef="0" IVar="-1" Cut="0.0000000000000000e+00" cType="1" res="3.0527558177709579e-02" rms="4.9853056669235229e-01" purity="5.3830510377883911e-01" nType="-99"/>
            <Node pos="r" depth="3" NCoef="0" IVar="-1" Cut="0.0000000000000000e+00" cType="1" res="1.0259563475847244e-01" rms="4.8354524374008179e-01" purity="6.2721633911132812e-01" nType="-99"/>
          </Node>
          <Node pos="r" depth="2" NCoef="0" IVar="2" Cut="1.2429836988449097e+00" cType="1" res="-5.5159263312816620e-02" rms="4.9694815278053284e-01" purity="4.4484069943428040e-01" nType="0">
            <Node pos="l" depth="3" NCoef="0" IVar="-1" Cut="0.0000000000000000e+00" cType="1" res="-1.2804319150745869e-02" rms="4.9973767995834351e-01" purity="4.8380562663078308e-01" nType="-99"/>
            <Node pos="r" depth="3" NCoef="0" IVar="-1" Cut="0.0000000000000000e+00" cType="1" res="-1.4220841228961945e-01" rms="4.6866813302040100e-01" purity="3.2578700780868530e-01" nType="-99"/>
          </Node>
        </Node>
        <Node pos="r" depth="1" NCoef="0" IVar="5" Cut="1.6405606079101562e+02" cType="1" res="-2.4731919169425964e-01" rms="4.3454945087432861e-01" purity="2.5268080830574036e-01" nType="0">
          <Node pos="l" depth="2" NCoef="0" IVar="-1" Cut="0.0000000000000000e+00" cType="1" res="-9.7854040563106537e-02" rms="4.8449367284774780e-01" purity="3.7644478678703308e-01" nType="-99"/>
          <Node pos="r" depth="2" NCoef="0" IVar="-1" Cut="0.0000000000000000e+00" cType="1" res="-2.9977053403854370e-01" rms="3.2347223162651062e-01" purity="1.1873143166303635e-01" nType="-99"/>
        </Node>
      </Node>
    </BinaryTree>
    <BinaryTree type="DecisionTree" boostWeight="1.0000000000000000e+00" itree="1">
      <Node pos="s" depth="0" NCoef="0" IVar="0" Cut="1.5632563781738281e+02" cType="1" res="-5.5153761059045792e-04" rms="4.8750892281532288e-01" purity="5.0000000000000000e-01" nType="0">
        <Node pos="l" depth="1" NCoef="0" IVar="7" Cut="2.2519750595092773e+00" cType="1" res="2.1595653146505356e-02" rms="4.9059677124023438e-01" purity="5.2837204933166504e-01" nType="0">
          <Node pos="l" depth="2" NCoef="0" IVar="10" Cut="1.9449057579040527e+00" cType="1" res="4.6509504318237305e-02" rms="4.9143072962760925e-01" purity="5.6478911638259888e-01" nType="0">
            <Node pos="l" depth="3" NCoef="0" IVar="-1" Cut="0.0000000000000000e+00" cType="1" res="6.5917328000068665e-02" rms="4.8578107357025146e-01" purity="5.9802848100662231e-01" nType="-99"/>
            <Node pos="r" depth="3" NCoef="0" IVar="-1" Cut="0.0000000000000000e+00" cType="1" res="3.0729987192898989e-03" rms="4.9485024809837341e-01" purity="5.2444958686828613e-01" nType="-99"/>
          </Node>
          <Node pos="r" depth="2" NCoef="0" IVar="2" Cut="1.4668775796890259e+00" cType="1" res="-9.5580294728279114e-02" rms="4.6923762559890747e-01" purity="3.5709369182586670e-01" nType="0">
            <Node pos="l" depth="3" NCoef="0" IVar="-1" Cut="0.0000000000000000e+00" cType="1" res="-3.5882893949747086e-02" rms="4.9502992630004883e-01" purity="4.3806502223014832e-01" nType="-99"/>
            <Node pos="r" depth="3" NCoef="0" IVar="-1" Cut="0.0000000000000000e+00" cType="1" res="-1.5629152953624725e-01" rms="4.0340372920036316e-01" purity="2.1086318790912628e-01" nType="-99"/>
          </Node>
        </Node>
        <Node pos="r" depth="1" NCoef="0" IVar="-1" Cut="0.0000000000000000e+00" cType="1" res="-2.2257131338119507e-01" rms="3.5188058018684387e-01" purity="1.5752685070037842e-01" nType="-99"/>
      </Node>
    </BinaryTree>
    <BinaryTree type="DecisionTree" boostWeight="1.0000000000000000e+00" itree="2">
      <Node pos="s" depth="0" NCoef="0" IVar="11" Cut="1.3363074064254761e+00" cType="1" res="-9.5116131706163287e-04" rms="4.8081079125404358e-01" purity="5.0000000000000000e-01" nType="0">
        <Node pos="l" depth="1" NCoef="0" IVar="0" Cut="6.1356525421142578e+01" cType="1" res="4.3603703379631042e-02" rms="4.8824480175971985e-01" purity="5.8224713802337646e-01" nType="0">
          <Node pos="l" depth="2" NCoef="0" IVar="1" Cut="7.4425780773162842e-01" cType="1" res="-1.5040588565170765e-02" rms="4.9803850054740906e-01" purity="5.1883000135421753e-01" nType="0">
            <Node pos="l" depth="3" NCoef="0" IVar="-1" Cut="0.0000000000000000e+00" cType="1" res="2.8109353035688400e-02" rms="4.9142009019851685e-01" purity="5.7297867536544800e-01" nType="-99"/>
            <Node pos="r" depth="3" NCoef="0" IVar="-1" Cut="0.0000000000000000e+00" cType="1" res="-4.7818988561630249e-02" rms="4.9970474839210510e-01" purity="4.7000789642333984e-01" nType="-99"/>
          </Node>
          <Node pos="r" depth="2" NCoef="0" IVar="10" Cut="1.6466215848922729e+00" cType="1" res="7.4776969850063324e-02" rms="4.8005053400993347e-01" purity="6.1595743894577026e-01" nType="0">
            <Node pos="l" depth="3" NCoef="0" IVar="-1" Cut="0.0000000000000000e+00" cType="1" res="1.1755151301622391e-01" rms="4.5293381810188293e-01" purity="6.9844067096710205e-01" nType="-99"/>
            <Node pos="r" depth="3" NCoef="0" IVar="-1" Cut="0.0000000000000000e+00" cType="1" res="3.2857798039913177e-02" rms="4.9020811915397644e-01" purity="5.7268822193145752e-01" nType="-99"/>
          </Node>
        </Node>
        <Node pos="r" depth="1" NCoef="0" IVar="0" Cut="1.3066041564941406e+02" cType="1" res="-6.4384661614894867e-02" rms="4.6267971396446228e-01" purity="3.8290336728096008e-01" nType="0">
          <Node pos="l" depth="2" NCoef="0" IVar="7" Cut="1.3517103195190430e+00" cType="1" res="-3.3984802663326263e-02" rms="4.8506030440330505e-01" purity="4.4491431117057800e-01" nType="0">
            <Node pos="l" depth="3" NCoef="0" IVar="-1" Cut="0.0000000000000000e+00" cType="1" res="1.6748430207371712e-02" rms="4.9450281262397766e-01" purity="5.6431072950363159e-01" nType="-99"/>
            <Node pos="r" depth="3" NCoef="0" IVar="-1" Cut="0.0000000000000000e+00" cType="1" res="-4.2954400181770325e-02" rms="4.8036387562751770e-01" purity="4.0417739748954773e-01" nType="-99"/>
          </Node>
          <Node pos="r" depth="2" NCoef="0" IVar="-1" Cut="0.0000000000000000e+00" cType="1" res="-1.4909212291240692e-01" rms="3.6354365944862366e-01" purity="1.8090982735157013e-01" nType="-99"/>
        </Node>
      </Node>
    </BinaryTree>
    <BinaryTree type="DecisionTree" boostWeight="1.0000000000000000e+00" itree="3">
      <Node pos="s" depth="0" NCoef="0" IVar="5" Cut="1.3663867187500000e+02" cType="1" res="-1.0438233148306608e-03" rms="4.7642505168914795e-01" purity="5.0000000000000000e-01" nType="0">
        <Node pos="l" depth="1" NCoef="0" IVar="5" Cut="9.2008743286132812e+01" cType="1" res="2.9701326042413712e-02" rms="4.8585835099220276e-01" purity="5.6891375780105591e-01" nType="0">
          <Node pos="l" depth="2" NCoef="0" IVar="0" Cut="8.1158119201660156e+01" cType="1" res="-1.7208384349942207e-02" rms="4.9192947149276733e-01" purity="5.3623652458190918e-01" nType="0">
            <Node pos="l" depth="3" NCoef="0" IVar="-1" Cut="0.0000000000000000e+00" cType="1" res="-3.1628102064132690e-02" rms="4.9607023596763611e-01" purity="5.1302158832550049e-01" nType="-99"/>
            <Node pos="r" depth="3" NCoef="0" IVar="-1" Cut="0.0000000000000000e+00" cType="1" res="2.2504637017846107e-02" rms="4.8047178983688354e-01" purity="5.8303636312484741e-01" nType="-99"/>
          </Node>
          <Node pos="r" depth="2" NCoef="0" IVar="11" Cut="1.0303963422775269e+00" cType="1" res="6.7594148218631744e-02" rms="4.7754552960395813e-01" purity="5.9530979394912720e-01" nType="0">
            <Node pos="l" depth="3" NCoef="0" IVar="-1" Cut="0.0000000000000000e+00" cType="1" res="9.5356412231922150e-02" rms="4.6139523386955261e-01" purity="6.7411839962005615e-01" nType="-99"/>
            <Node pos="r" depth="3" NCoef="0" IVar="-1" Cut="0.0000000000000000e+00" cType="1" res="1.1505817063152790e-02" rms="4.8954606056213379e-01" purity="5.0672984123229980e-01" nType="-99"/>
          </Node>
        </Node>
        <Node pos="r" depth="1" NCoef="0" IVar="0" Cut="1.5907185363769531e+02" cType="1" res="-5.3549777716398239e-02" rms="4.5509043335914612e-01" purity="3.8231045007705688e-01" nType="0">
          <Node pos="l" depth="2" NCoef="0" IVar="3" Cut="1.7947201728820801e+00" cType="1" res="-3.2143171876668930e-02" rms="4.7630351781845093e-01" purity="4.3486189842224121e-01" nType="0">
            <Node pos="l" depth="3" NCoef="0" IVar="-1" Cut="0.0000000000000000e+00" cType="1" res="1.3929205015301704e-03" rms="4.7432175278663635e-01" purity="4.6353065967559814e-01" nType="-99"/>
            <Node pos="r" depth="3" NCoef="0" IVar="-1" Cut="0.0000000000000000e+00" cType="1" res="-6.9032490253448486e-02" rms="4.7478032112121582e-01" purity="3.9200690388679504e-01" nType="-99"/>
          </Node>
          <Node pos="r" depth="2" NCoef="0" IVar="-1" Cut="0.0000000000000000e+00" cType="1" res="-1.8742340803146362e-01" rms="2.7704885601997375e-01" purity="8.2288347184658051e-02" nType="-99"/>
        </Node>
      </Node>
    </BinaryTree>
    <BinaryTree type="DecisionTree" boostWeight="1.0000000000000000e+00" itree="4">
      <Node pos="s" depth="0" NCoef="0" IVar="2" Cut="1.0881028175354004e+00" cType="1" res="-9.7745074890553951e-04" rms="4.7285714745521545e-01" purity="5.0000000000000000e-01" nType="0">
        <Node pos="l" depth="1" NCoef="0" IVar="0" Cut="6.7588020324707031e+01" cType="1" res="2.1003410220146179e-02" rms="4.8377740383148193e-01" purity="5.6661260128021240e-01" nType="0">
          <Node pos="l" depth="2" NCoef="0" IVar="6" Cut="1.3466010093688965e+00" cType="1" res="-1.1656627990305424e-02" rms="4.9241888523101807e-01" purity="5.1668381690979004e-01" nType="0">
            <Node pos="l" depth="3" NCoef="0" IVar="-1" Cut="0.0000000000000000e+00" cType="1" res="4.3892990797758102e-02" rms="4.8365178704261780e-01" purity="5.8333778381347656e-01" nType="-99"/>
            <Node pos="r" depth="3" NCoef="0" IVar="-1" Cut="0.0000000000000000e+00" cType="1" res="-2.6834705844521523e-02" rms="4.9329867959022522e-01" purity="4.9510800838470459e-01" nType="-99"/>
          </Node>
          <Node pos="r" depth="2" NCoef="0" IVar="10" Cut="1.6466215848922729e+00" cType="1" res="5.1749777048826218e-02" rms="4.7344437241554260e-01" purity="6.1361593008041382e-01" nType="0">
            <Node pos="l" depth="3" NCoef="0" IVar="-1" Cut="0.0000000000000000e+00" cType="1" res="9.9403373897075653e-02" rms="4.4036793708801270e-01" purity="7.1364104747772217e-01" nType="-99"/>
            <Node pos="r" depth="3" NCoef="0" IVar="-1" Cut="0.0000000000000000e+00" cType="1" res="1.7091659829020500e-02" rms="4.8605081439018250e-01" purity="5.6408584117889404e-01" nType="-99"/>
          </Node>
        </Node>
        <Node pos="r" depth="1" NCoef="0" IVar="5" Cut="1.5153369140625000e+02" cType="1" res="-3.6442171782255173e-02" rms="4.5243954658508301e-01" purity="3.9252474904060364e-01" nType="0">
          <Node pos="l" depth="2" NCoef="0" IVar="0" Cut="9.1693527221679688e+01" cType="1" res="-6.6994875669479370e-03" rms="4.8491266369819641e-01" purity="5.0027227401733398e-01" nType="0">
            <Node pos="l" depth="3" NCoef="0" IVar="-1" Cut="0.0000000000000000e+00" cType="1" res="-2.7865467593073845e-02" rms="4.8968100547790527e-01" purity="4.9592897295951843e-01" nType="-99"/>
            <Node pos="r" depth="3" NCoef="0" IVar="-1" Cut="0.0000000000000000e+00" cType="1" res="1.7229340970516205e-02" rms="4.7875770926475525e-01" purity="5.0446462631225586e-01" nType="-99"/>
          </Node>
          <Node pos="r" depth="2" NCoef="0" IVar="0" Cut="1.1838899230957031e+02" cType="1" res="-8.3591856062412262e-02" rms="3.9092579483985901e-01" purity="2.2171774506568909e-01" nType="0">
            <Node pos="l" depth="3" NCoef="0" IVar="-1" Cut="0.0000000000000000e+00" cType="1" res="-5.4762586951255798e-02" rms="4.5514962077140808e-01" purity="3.2245066761970520e-01" nType="-99"/>
            <Node pos="r" depth="3" NCoef="0" IVar="-1" Cut="0.0000000000000000e+00" cType="1" res="-1.1728436499834061e-01" rms="3.2964369654655457e-01" purity="1.4110067486763000e-01" nType="-99"/>
          </Node>
        </Node>
      </Node>
    </BinaryTree>
    <BinaryTree type="DecisionTree" boostWeight="1.0000000000000000e+00" itree="5">
      <Node pos="s" depth="0" NCoef="0" IVar="7" Cut="1.1260058879852295e+00" cType="1" res="-7.9283036757260561e-04" rms="4.7074002027511597e-01" purity="5.0000000000000000e-01" nType="0">
        <Node pos="l" depth="1" NCoef="0" IVar="5" Cut="7.6252746582031250e+01" cType="1" res="2.6678837835788727e-02" rms="4.7872152924537659e-01" purity="5.9195220470428467e-01" nType="0">
          <Node pos="l" depth="2" NCoef="0" IVar="10" Cut="1.1963797807693481e+00" cType="1" res="-2.5473939254879951e-02" rms="4.9063056707382202e-01" purity="5.3373402357101440e-01" nType="0">
            <Node pos="l" depth="3" NCoef="0" IVar="-1" Cut="0.0000000000000000e+00" cType="1" res="1.1146312579512596e-02" rms="4.8547071218490601e-01" purity="5.7951474189758301e-01" nType="-99"/>
            <Node pos="r" depth="3" NCoef="0" IVar="-1" Cut="0.0000000000000000e+00" cType="1" res="-5.4690271615982056e-02" rms="4.9267926812171936e-01" purity="4.8535794019699097e-01" nType="-99"/>
          </Node>
          <Node pos="r" depth="2" NCoef="0" IVar="6" Cut="1.9461257457733154e+00" cType="1" res="4.3824110180139542e-02" rms="4.7348815202713013e-01" purity="6.1109149456024170e-01" nType="0">
            <Node pos="l" depth="3" NCoef="0" IVar="-1" Cut="0.0000000000000000e+00" cType="1" res="1.1544732749462128e-01" rms="4.1927969455718994e-01" purity="7.4462419748306274e-01" nType="-99"/>
            <Node pos="r" depth="3" NCoef="0" IVar="-1" Cut="0.0000000000000000e+00" cType="1" res="1.8328534439206123e-02" rms="4.8327827453613281e-01" purity="5.7853227853775024e-01" nType="-99"/>
          </Node>
        </Node>
        <Node pos="r" depth="1" NCoef="0" IVar="2" Cut="1.9587761163711548e+00" cType="1" res="-2.3780833929777145e-02" rms="4.6270391345024109e-01" purity="4.2305532097816467e-01" nType="0">
          <Node pos="l" depth="2" NCoef="0" IVar="0" Cut="7.4025321960449219e+01" cType="1" res="-1.3382356613874435e-02" rms="4.7928881645202637e-01" purity="4.7076395153999329e-01" nType="0">
            <Node pos="l" depth="3" NCoef="0" IVar="-1" Cut="0.0000000000000000e+00" cType="1" res="-3.1204070895910263e-02" rms="4.8832300305366516e-01" purity="4.5870602130889893e-01" nType="-99"/>
            <Node pos="r" depth="3" NCoef="0" IVar="-1" Cut="0.0000000000000000e+00" cType="1" res="3.9781187660992146e-03" rms="4.7190758585929871e-01" purity="4.7937950491905212e-01" nType="-99"/>
          </Node>
          <Node pos="r" depth="2" NCoef="0" IVar="-1" Cut="0.0000000000000000e+00" cType="1" res="-1.0187515616416931e-01" rms="3.4645003080368042e-01" purity="1.4862075448036194e-01" nType="-99"/>
        </Node>
      </Node>
    </BinaryTree>
    <BinaryTree type="DecisionTree" boostWeight="1.0000000000000000e+00" itree="6">
      <Node pos="s" depth="0" NCoef="0" IVar="0" Cut="1.5632563781738281e+02" cType="1" res="-5.2114814752712846e-04" rms="4.6908998489379883e-01" purity="5.0000000000000000e-01" nType="0">
        <Node pos="l" depth="1" NCoef="0" IVar="2" Cut="8.1473660469055176e-01" cType="1" res="4.3425690382719040e-03" rms="4.7793960571289062e-01" purity="5.2837204933166504e-01" nType="0">
          <Node pos="l" depth="2" NCoef="0" IVar="0" Cut="1.0155278778076172e+02" cType="1" res="2.1439343690872192e-02" rms="4.7902747988700867e-01" purity="5.8104324340820312e-01" nType="0">
            <Node pos="l" depth="3" NCoef="0" IVar="-1" Cut="0.0000000000000000e+00" cType="1" res="6.2921484932303429e-03" rms="4.8400977253913879e-01" purity="5.5891948938369751e-01" nType="-99"/>
            <Node pos="r" depth="3" NCoef="0" IVar="-1" Cut="0.0000000000000000e+00" cType="1" res="7.5110025703907013e-02" rms="4.4911858439445496e-01" purity="6.8533736467361450e-01" nType="-99"/>
          </Node>
          <Node pos="r" depth="2" NCoef="0" IVar="0" Cut="9.4048782348632812e+01" cType="1" res="-1.2692277319729328e-02" rms="4.7624316811561584e-01" purity="4.7589159011840820e-01" nType="0">
            <Node pos="l" depth="3" NCoef="0" IVar="-1" Cut="0.0000000000000000e+00" cType="1" res="-2.4834899231791496e-02" rms="4.8364984989166260e-01" purity="4.8122206330299377e-01" nType="-99"/>
            <Node pos="r" depth="3" NCoef="0" IVar="-1" Cut="0.0000000000000000e+00" cType="1" res="8.5847582668066025e-03" rms="4.6549376845359802e-01" purity="4.6895882487297058e-01" nType="-99"/>
          </Node>
        </Node>
        <Node pos="r" depth="1" NCoef="0" IVar="-1" Cut="0.0000000000000000e+00" cType="1" res="-7.7724926173686981e-02" rms="3.3933684229850769e-01" purity="1.5752685070037842e-01" nType="-99"/>
      </Node>
    </BinaryTree>
    <BinaryTree type="DecisionTree" boostWeight="1.0000000000000000e+00" itree="7">
      <Node pos="s" depth="0" NCoef="0" IVar="5" Cut="1.3663867187500000e+02" cType="1" res="-3.8897639024071395e-04" rms="4.6832641959190369e-01" purity="5.0000000000000000e-01" nType="0">
        <Node pos="l" depth="1" NCoef="0" IVar="5" Cut="6.9695312500000000e+01" cType="1" res="1.2008424848318100e-02" rms="4.7980362176895142e-01" purity="5.6891375780105591e-01" nType="0">
          <Node pos="l" depth="2" NCoef="0" IVar="-1" Cut="0.0000000000000000e+00" cType="1" res="-4.2187232524156570e-02" rms="4.9151656031608582e-01" purity="4.9819299578666687e-01" nType="-99"/>
          <Node pos="r" depth="2" NCoef="0" IVar="4" Cut="5.2322417497634888e-01" cType="1" res="2.3425469174981117e-02" rms="4.7676280140876770e-01" purity="5.8170461654663086e-01" nType="0">
            <Node pos="l" depth="3" NCoef="0" IVar="-1" Cut="0.0000000000000000e+00" cType="1" res="5.0867162644863129e-02" rms="4.6270799636840820e-01" purity="6.5514862537384033e-01" nType="-99"/>
            <Node pos="r" depth="3" NCoef="0" IVar="-1" Cut="0.0000000000000000e+00" cType="1" res="1.3342825695872307e-03" rms="4.8401561379432678e-01" purity="5.3603154420852661e-01" nType="-99"/>
          </Node>
        </Node>
        <Node pos="r" depth="1" NCoef="0" IVar="0" Cut="1.3049972534179688e+02" cType="1" res="-2.1561011672019958e-02" rms="4.4725275039672852e-01" purity="3.8231045007705688e-01" nType="0">
          <Node pos="l" depth="2" NCoef="0" IVar="0" Cut="5.9749393463134766e+01" cType="1" res="-1.1440290138125420e-02" rms="4.7717422246932983e-01" purity="4.5117670297622681e-01" nType="0">
            <Node pos="l" depth="3" NCoef="0" IVar="-1" Cut="0.0000000000000000e+00" cType="1" res="-5.9636749327182770e-02" rms="4.7676458954811096e-01" purity="3.7768414616584778e-01" nType="-99"/>
            <Node pos="r" depth="3" NCoef="0" IVar="-1" Cut="0.0000000000000000e+00" cType="1" res="5.2364720031619072e-03" rms="4.7577396035194397e-01" purity="4.7103375196456909e-01" nType="-99"/>
          </Node>
          <Node pos="r" depth="2" NCoef="0" IVar="-1" Cut="0.0000000000000000e+00" cType="1" res="-6.8696551024913788e-02" rms="3.4255683422088623e-01" purity="1.7940101027488708e-01" nType="-99"/>
        </Node>
      </Node>
    </BinaryTree>
    <BinaryTree type="DecisionTree" boostWeight="1.0000000000000000e+00" itree="8">
      <Node pos="s" depth="0" NCoef="0" IVar="7" Cut="1.8015873432159424e+00" cType="1" res="-3.4993552253581583e-04" rms="4.6728762984275818e-01" purity="5.0000000000000000e-01" nType="0">
        <Node pos="l" depth="1" NCoef="0" IVar="6" Cut="1.3466489315032959e+00" cType="1" res="8.2416879013180733e-03" rms="4.7698369622230530e-01" purity="5.6923413276672363e-01" nType="0">
          <Node pos="l" depth="2" NCoef="0" IVar="-1" Cut="0.0000000000000000e+00" cType="1" res="5.1887117326259613e-02" rms="4.5950993895530701e-01" purity="6.5382516384124756e-01" nType="-99"/>
          <Node pos="r" depth="2" NCoef="0" IVar="8" Cut="2.9925370216369629e-01" cType="1" res="8.9342746650800109e-04" rms="4.7893598675727844e-01" purity="5.5732518434524536e-01" nType="0">
            <Node pos="l" depth="3" NCoef="0" IVar="-1" Cut="0.0000000000000000e+00" cType="1" res="-2.4753537029027939e-02" rms="4.7349521517753601e-01" purity="5.1774185895919800e-01" nType="-99"/>
            <Node pos="r" depth="3" NCoef="0" IVar="-1" Cut="0.0000000000000000e+00" cType="1" res="7.7863638289272785e-03" rms="4.8009300231933594e-01" purity="5.6820136308670044e-01" nType="-99"/>
          </Node>
        </Node>
        <Node pos="r" depth="1" NCoef="0" IVar="3" Cut="2.9931116104125977e-01" cType="1" res="-1.8741877749562263e-02" rms="4.4526618719100952e-01" purity="3.5179162025451660e-01" nType="0">
          <Node pos="l" depth="2" NCoef="0" IVar="-1" Cut="0.0000000000000000e+00" cType="1" res="2.0066227763891220e-02" rms="4.5839163661003113e-01" purity="4.3827503919601440e-01" nType="-99"/>
          <Node pos="r" depth="2" NCoef="0" IVar="8" Cut="1.0472195148468018e+00" cType="1" res="-2.7829429134726524e-02" rms="4.4174394011497498e-01" purity="3.3228251338005066e-01" nType="0">
            <Node pos="l" depth="3" NCoef="0" IVar="-1" Cut="0.0000000000000000e+00" cType="1" res="-4.2180500924587250e-02" rms="4.3583971261978149e-01" purity="3.0751994252204895e-01" nType="-99"/>
            <Node pos="r" depth="3" NCoef="0" IVar="-1" Cut="0.0000000000000000e+00" cType="1" res="-5.0895046442747116e-03" rms="4.4867226481437683e-01" purity="3.6597606539726257e-01" nType="-99"/>
          </Node>
        </Node>
      </Node>
    </BinaryTree>
    <BinaryTree type="DecisionTree" boostWeight="1.0000000000000000e+00" itree="9">
      <Node pos="s" depth="0" NCoef="0" IVar="7" Cut="6.7561811208724976e-01" cType="1" res="-2.5424960767850280e-04" rms="4.6677216887474060e-01" purity="5.0000000000000000e-01" nType="0">
        <Node pos="l" depth="1" NCoef="0" IVar="0" Cut="8.6689765930175781e+01" cType="1" res="1.7297727987170219e-02" rms="4.7324323654174805e-01" purity="5.9759342670440674e-01" nType="0">
          <Node pos="l" depth="2" NCoef="0" IVar="7" Cut="1.9304022192955017e-01" cType="1" res="-2.2600777447223663e-03" rms="4.8228046298027039e-01" purity="5.6639236211776733e-01" nType="0">
            <Node pos="l" depth="3" NCoef="0" IVar="-1" Cut="0.0000000000000000e+00" cType="1" res="-4.2117040604352951e-02" rms="4.8135697841644287e-01" purity="5.0989156961441040e-01" nType="-99"/>
            <Node pos="r" depth="3" NCoef="0" IVar="-1" Cut="0.0000000000000000e+00" cType="1" res="1.5312943607568741e-02" rms="4.8114788532257080e-01" purity="5.8998554944992065e-01" nType="-99"/>
          </Node>
          <Node pos="r" depth="2" NCoef="0" IVar="-1" Cut="0.0000000000000000e+00" cType="1" res="4.6929683536291122e-02" rms="4.5475006103515625e-01" purity="6.5282434225082397e-01" nType="-99"/>
        </Node>
        <Node pos="r" depth="1" NCoef="0" IVar="8" Cut="1.4965824782848358e-01" cType="1" res="-7.0360698737204075e-03" rms="4.6406993269920349e-01" purity="4.6229138970375061e-01" nType="0">
          <Node pos="l" depth="2" NCoef="0" IVar="-1" Cut="0.0000000000000000e+00" cType="1" res="-3.9581153541803360e-02" rms="4.5829948782920837e-01" purity="4.1098898649215698e-01" nType="-99"/>
          <Node pos="r" depth="2" NCoef="0" IVar="1" Cut="1.1967606544494629e+00" cType="1" res="-2.2144166287034750e-03" rms="4.6459916234016418e-01" purity="4.6897339820861816e-01" nType="0">
            <Node pos="l" depth="3" NCoef="0" IVar="-1" Cut="0.0000000000000000e+00" cType="1" res="1.7936762422323227e-02" rms="4.6068614721298218e-01" purity="4.9326351284980774e-01" nType="-99"/>
            <Node pos="r" depth="3" NCoef="0" IVar="-1" Cut="0.0000000000000000e+00" cType="1" res="-1.8126916140317917e-02" rms="4.6705162525177002e-01" purity="4.4879046082496643e-01" nType="-99"/>
          </Node>
        </Node>
      </Node>
    </BinaryTree>
    <BinaryTree type="DecisionTree" boostWeight="1.0000000000000000e+00" itree="10">
      <Node pos="s" depth="0" NCoef="0" IVar="2" Cut="4.3525516986846924e-01" cType="1" res="-2.2927123063709587e-04" rms="4.6616384387016296e-01" purity="5.0000000000000000e-01" nType="0">
        <Node pos="l" depth="1" NCoef="0" IVar="1" Cut="1.9463763236999512e+00" cType="1" res="1.7649929970502853e-02" rms="4.7300100326538086e-01" purity="5.8289706707000732e-01" nType="0">
          <Node pos="l" depth="2" NCoef="0" IVar="0" Cut="6.1202053070068359e+01" cType="1" res="3.5771191120147705e-02" rms="4.6562165021896362e-01" purity="6.0634589195251465e-01" nType="0">
            <Node pos="l" depth="3" NCoef="0" IVar="-1" Cut="0.0000000000000000e+00" cType="1" res="1.2555486755445600e-03" rms="4.8420205712318420e-01" purity="5.2180463075637817e-01" nType="-99"/>
            <Node pos="r" depth="3" NCoef="0" IVar="-1" Cut="0.0000000000000000e+00" cType="1" res="7.0435509085655212e-02" rms="4.3850147724151611e-01" purity="7.0879065990447998e-01" nType="-99"/>
          </Node>
          <Node pos="r" depth="2" NCoef="0" IVar="-1" Cut="0.0000000000000000e+00" cType="1" res="-2.9860613867640495e-02" rms="4.9044656753540039e-01" purity="5.1270645856857300e-01" nType="-99"/>
        </Node>
        <Node pos="r" depth="1" NCoef="0" IVar="2" Cut="2.2072746753692627e+00" cType="1" res="-6.0917218215763569e-03" rms="4.6375000476837158e-01" purity="4.7281873226165771e-01" nType="0">
          <Node pos="l" depth="2" NCoef="0" IVar="6" Cut="1.7951983213424683e+00" cType="1" res="-3.2878499478101730e-03" rms="4.7346594929695129e-01" purity="5.0170940160751343e-01" nType="0">
            <Node pos="l" depth="3" NCoef="0" IVar="-1" Cut="0.0000000000000000e+00" cType="1" res="1.3267541304230690e-02" rms="4.6748176217079163e-01" purity="5.2274936437606812e-01" nType="-99"/>
            <Node pos="r" depth="3" NCoef="0" IVar="-1" Cut="0.0000000000000000e+00" cType="1" res="-9.4120288267731667e-03" rms="4.7571641206741333e-01" purity="4.9300390481948853e-01" nType="-99"/>
          </Node>
          <Node pos="r" depth="2" NCoef="0" IVar="-1" Cut="0.0000000000000000e+00" cType="1" res="-5.7965774089097977e-02" rms="3.3272236585617065e-01" purity="1.4520320296287537e-01" nType="-99"/>
        </Node>
      </Node>
    </BinaryTree>
    <BinaryTree type="DecisionTree" boostWeight="1.0000000000000000e+00" itree="11">
      <Node pos="s" depth="0" NCoef="0" IVar="5" Cut="7.8064384460449219e+01" cType="1" res="-1.7588035552762449e-04" rms="4.6563994884490967e-01" purity="5.0000000000000000e-01" nType="0">
        <Node pos="l" depth="1" NCoef="0" IVar="3" Cut="5.8385998010635376e-01" cType="1" res="-2.2768318653106689e-02" rms="4.8888602852821350e-01" purity="5.2378821372985840e-01" nType="0">
          <Node pos="l" depth="2" NCoef="0" IVar="-1" Cut="0.0000000000000000e+00" cType="1" res="-4.8044595867395401e-02" rms="4.8795700073242188e-01" purity="5.2206146717071533e-01" nType="-99"/>
          <Node pos="r" depth="2" NCoef="0" IVar="-1" Cut="0.0000000000000000e+00" cType="1" res="6.7121121101081371e-03" rms="4.8771017789840698e-01" purity="5.2540463209152222e-01" nType="-99"/>
        </Node>
        <Node pos="r" depth="1" NCoef="0" IVar="2" Cut="1.5233345031738281e+00" cType="1" res="4.1284025646746159e-03" rms="4.6095269918441772e-01" purity="4.9546796083450317e-01" nType="0">
          <Node pos="l" depth="2" NCoef="0" IVar="6" Cut="1.9447886943817139e+00" cType="1" res="1.0531303472816944e-02" rms="4.7381010651588440e-01" purity="5.5751526355743408e-01" nType="0">
            <Node pos="l" depth="3" NCoef="0" IVar="-1" Cut="0.0000000000000000e+00" cType="1" res="3.1561352312564850e-02" rms="4.6128222346305847e-01" purity="6.0094976425170898e-01" nType="-99"/>
            <Node pos="r" depth="3" NCoef="0" IVar="-1" Cut="0.0000000000000000e+00" cType="1" res="-1.8503725295886397e-03" rms="4.7943422198295593e-01" purity="5.3583878278732300e-01" nType="-99"/>
          </Node>
          <Node pos="r" depth="2" NCoef="0" IVar="3" Cut="8.9727389812469482e-01" cType="1" res="-1.7323520034551620e-02" rms="4.1426238417625427e-01" purity="2.8758788108825684e-01" nType="0">
            <Node pos="l" depth="3" NCoef="0" IVar="-1" Cut="0.0000000000000000e+00" cType="1" res="-6.1615046113729477e-02" rms="3.7670928239822388e-01" purity="2.0967189967632294e-01" nType="-99"/>
            <Node pos="r" depth="3" NCoef="0" IVar="-1" Cut="0.0000000000000000e+00" cType="1" res="1.0711129289120436e-03" rms="4.3196016550064087e-01" purity="3.2939350605010986e-01" nType="-99"/>
          </Node>
        </Node>
      </Node>
    </BinaryTree>
    <BinaryTree type="DecisionTree" boostWeight="1.0000000000000000e+00" itree="12">
      <Node pos="s" depth="0" NCoef="0" IVar="9" Cut="2.6820988655090332e+00" cType="1" res="-1.0046318493550643e-04" rms="4.6515271067619324e-01" purity="5.0000000000000000e-01" nType="0">
        <Node pos="l" depth="1" NCoef="0" IVar="0" Cut="1.5183494567871094e+02" cType="1" res="-2.0078907255083323e-03" rms="4.6743190288543701e-01" purity="5.0894069671630859e-01" nType="0">
          <Node pos="l" depth="2" NCoef="0" IVar="0" Cut="1.0541948699951172e+02" cType="1" res="1.0747320484369993e-03" rms="4.7537970542907715e-01" purity="5.3377306461334229e-01" nType="0">
            <Node pos="l" depth="3" NCoef="0" IVar="-1" Cut="0.0000000000000000e+00" cType="1" res="-4.9468199722468853e-03" rms="4.8063233494758606e-01" purity="5.2919548749923706e-01" nType="-99"/>
            <Node pos="r" depth="3" NCoef="0" IVar="-1" Cut="0.0000000000000000e+00" cType="1" res="2.4756912142038345e-02" rms="4.5458063483238220e-01" purity="5.5064934492111206e-01" nType="-99"/>
          </Node>
          <Node pos="r" depth="2" NCoef="0" IVar="-1" Cut="0.0000000000000000e+00" cType="1" res="-6.1441209167242050e-02" rms="3.3878114819526672e-01" purity="1.7146253585815430e-01" nType="-99"/>
        </Node>
        <Node pos="r" depth="1" NCoef="0" IVar="-1" Cut="0.0000000000000000e+00" cType="1" res="3.6591656506061554e-02" rms="4.2314738035202026e-01" purity="3.4774771332740784e-01" nType="-99"/>
      </Node>
    </BinaryTree>
    <BinaryTree type="DecisionTree" boostWeight="1.0000000000000000e+00" itree="13">
      <Node pos="s" depth="0" NCoef="0" IVar="7" Cut="9.0081197023391724e-01" cType="1" res="-1.3062744983471930e-04" rms="4.6489849686622620e-01" purity="5.0000000000000000e-01" nType="0">
        <Node pos="l" depth="1" NCoef="0" IVar="6" Cut="1.6484184265136719e+00" cType="1" res="1.0227226652204990e-02" rms="4.7172021865844727e-01" purity="5.9451609849929810e-01" nType="0">
          <Node pos="l" depth="2" NCoef="0" IVar="-1" Cut="0.0000000000000000e+00" cType="1" res="4.1914388537406921e-02" rms="4.4118437170982361e-01" purity="6.7893284559249878e-01" nType="-99"/>
          <Node pos="r" depth="2" NCoef="0" IVar="8" Cut="1.1966775655746460e+00" cType="1" res="4.2164814658463001e-03" rms="4.7631615400314331e-01" purity="5.8055084943771362e-01" nType="0">
            <Node pos="l" depth="3" NCoef="0" IVar="-1" Cut="0.0000000000000000e+00" cType="1" res="-7.1620754897594452e-03" rms="4.7604271769523621e-01" purity="5.5927658081054688e-01" nType="-99"/>
            <Node pos="r" depth="3" NCoef="0" IVar="-1" Cut="0.0000000000000000e+00" cType="1" res="2.1245798096060753e-02" rms="4.7606158256530762e-01" purity="6.1428284645080566e-01" nType="-99"/>
          </Node>
        </Node>
        <Node pos="r" depth="1" NCoef="0" IVar="9" Cut="3.3538046479225159e-01" cType="1" res="-6.1317710205912590e-03" rms="4.6079340577125549e-01" purity="4.4523915648460388e-01" nType="0">
          <Node pos="l" depth="2" NCoef="0" IVar="6" Cut="2.0938978195190430e+00" cType="1" res="-2.7665408328175545e-02" rms="4.6925824880599976e-01" purity="4.7835180163383484e-01" nType="0">
            <Node pos="l" depth="3" NCoef="0" IVar="-1" Cut="0.0000000000000000e+00" cType="1" res="9.7565545001998544e-04" rms="4.6563118696212769e-01" purity="5.4615378379821777e-01" nType="-99"/>
            <Node pos="r" depth="3" NCoef="0" IVar="-1" Cut="0.0000000000000000e+00" cType="1" res="-5.8841072022914886e-02" rms="4.7134041786193848e-01" purity="3.8381406664848328e-01" nType="-99"/>
          </Node>
          <Node pos="r" depth="2" NCoef="0" IVar="3" Cut="8.9736223220825195e-01" cType="1" res="1.3599231351690833e-05" rms="4.5816341042518616e-01" purity="4.3578931689262390e-01" nType="0">
            <Node pos="l" depth="3" NCoef="0" IVar="-1" Cut="0.0000000000000000e+00" cType="1" res="-1.5002337284386158e-02" rms="4.5127305388450623e-01" purity="4.4074729084968567e-01" nType="-99"/>
            <Node pos="r" depth="3" NCoef="0" IVar="-1" Cut="0.0000000000000000e+00" cType="1" res="1.1207051575183868e-02" rms="4.6306544542312622e-01" purity="4.3194749951362610e-01" nType="-99"/>
          </Node>
        </Node>
      </Node>
    </BinaryTree>
    <BinaryTree type="DecisionTree" boostWeight="1.0000000000000000e+00" itree="14">
      <Node pos="s" depth="0" NCoef="0" IVar="6" Cut="8.9765858650207520e-01" cType="1" res="-8.1712176324799657e-05" rms="4.6449908614158630e-01" purity="5.0000000000000000e-01" nType="0">
        <Node pos="l" depth="1" NCoef="0" IVar="-1" Cut="0.0000000000000000e+00" cType="1" res="2.1309912204742432e-02" rms="4.5180520415306091e-01" purity="5.1507753133773804e-01" nType="-99"/>
        <Node pos="r" depth="1" NCoef="0" IVar="10" Cut="4.4911289215087891e-01" cType="1" res="-2.5012500118464231e-03" rms="4.6570789813995361e-01" purity="4.9846056103706360e-01" nType="0">
          <Node pos="l" depth="2" NCoef="0" IVar="-1" Cut="0.0000000000000000e+00" cType="1" res="-3.4102447330951691e-02" rms="4.7249355912208557e-01" purity="4.8551645874977112e-01" nType="-99"/>
          <Node pos="r" depth="2" NCoef="0" IVar="8" Cut="2.9925179481506348e-01" cType="1" res="3.3211865229532123e-04" rms="4.6504071354866028e-01" purity="4.9950435757637024e-01" nType="0">
            <Node pos="l" depth="3" NCoef="0" IVar="-1" Cut="0.0000000000000000e+00" cType="1" res="-1.7110297456383705e-02" rms="4.6043556928634644e-01" purity="4.5770630240440369e-01" nType="-99"/>
            <Node pos="r" depth="3" NCoef="0" IVar="-1" Cut="0.0000000000000000e+00" cType="1" res="5.1841740496456623e-03" rms="4.6617677807807922e-01" purity="5.1120424270629883e-01" nType="-99"/>
          </Node>
        </Node>
      </Node>
    </BinaryTree>
    <BinaryTree type="DecisionTree" boostWeight="1.0000000000000000e+00" itree="15">
      <Node pos="s" depth="0" NCoef="0" IVar="1" Cut="1.3461796045303345e+00" cType="1" res="-4.5411921746563166e-05" rms="4.6432280540466309e-01" purity="5.0000000000000000e-01" nType="0">
        <Node pos="l" depth="1" NCoef="0" IVar="7" Cut="2.4411900043487549e+00" cType="1" res="7.5043262913823128e-03" rms="4.6054822206497192e-01" purity="5.1217585802078247e-01" nType="0">
          <Node pos="l" depth="2" NCoef="0" IVar="5" Cut="9.8623764038085938e+01" cType="1" res="1.3451308012008667e-02" rms="4.6920403838157654e-01" purity="5.5243426561355591e-01" nType="0">
            <Node pos="l" depth="3" NCoef="0" IVar="-1" Cut="0.0000000000000000e+00" cType="1" res="-7.2258571162819862e-03" rms="4.7941786050796509e-01" purity="5.5031716823577881e-01" nType="-99"/>
            <Node pos="r" depth="3" NCoef="0" IVar="-1" Cut="0.0000000000000000e+00" cType="1" res="2.7057403698563576e-02" rms="4.6071663498878479e-01" purity="5.5402052402496338e-01" nType="-99"/>
          </Node>
          <Node pos="r" depth="2" NCoef="0" IVar="-1" Cut="0.0000000000000000e+00" cType="1" res="-3.7124413996934891e-02" rms="3.9455467462539673e-01" purity="2.3921403288841248e-01" nType="-99"/>
        </Node>
        <Node pos="r" depth="1" NCoef="0" IVar="8" Cut="1.6455936431884766e+00" cType="1" res="-1.0474079288542271e-02" rms="4.6928712725639343e-01" purity="4.8318117856979370e-01" nType="0">
          <Node pos="l" depth="2" NCoef="0" IVar="6" Cut="2.6926414966583252e+00" cType="1" res="-2.2452665492892265e-02" rms="4.7193145751953125e-01" purity="4.6680426597595215e-01" nType="0">
            <Node pos="l" depth="3" NCoef="0" IVar="-1" Cut="0.0000000000000000e+00" cType="1" res="-3.0529428273439407e-02" rms="4.6818116307258606e-01" purity="4.5199003815650940e-01" nType="-99"/>
            <Node pos="r" depth="3" NCoef="0" IVar="-1" Cut="0.0000000000000000e+00" cType="1" res="3.7192907184362411e-03" rms="4.7891828417778015e-01" purity="4.9908214807510376e-01" nType="-99"/>
          </Node>
          <Node pos="r" depth="2" NCoef="0" IVar="3" Cut="1.4941288232803345e+00" cType="1" res="9.2783533036708832e-03" rms="4.6421924233436584e-01" purity="5.1018637418746948e-01" nType="0">
            <Node pos="l" depth="3" NCoef="0" IVar="-1" Cut="0.0000000000000000e+00" cType="1" res="-1.3010371476411819e-02" rms="4.6721705794334412e-01" purity="4.9283349514007568e-01" nType="-99"/>
            <Node pos="r" depth="3" NCoef="0" IVar="-1" Cut="0.0000000000000000e+00" cType="1" res="3.5062048584222794e-02" rms="4.5856243371963501e-01" purity="5.3263837099075317e-01" nType="-99"/>
          </Node>
        </Node>
      </Node>
    </BinaryTree>
    <BinaryTree type="DecisionTree" boostWeight="1.0000000000000000e+00" itree="16">
      <Node pos="s" depth="0" NCoef="0" IVar="3" Cut="1.1964590549468994e+00" cType="1" res="-1.0321045556338504e-04" rms="4.6381896734237671e-01" purity="5.0000000000000000e-01" nType="0">
        <Node pos="l" depth="1" NCoef="0" IVar="5" Cut="9.2794456481933594e+01" cType="1" res="7.0966524071991444e-03" rms="4.5741018652915955e-01" purity="5.2497601509094238e-01" nType="0">
          <Node pos="l" depth="2" NCoef="0" IVar="7" Cut="1.1115161180496216e+00" cType="1" res="-2.1678065881133080e-02" rms="4.8019504547119141e-01" purity="5.4062712192535400e-01" nType="0">
            <Node pos="l" depth="3" NCoef="0" IVar="-1" Cut="0.0000000000000000e+00" cType="1" res="-2.8157345950603485e-03" rms="4.7715809941291809e-01" purity="5.7703816890716553e-01" nType="-99"/>
            <Node pos="r" depth="3" NCoef="0" IVar="-1" Cut="0.0000000000000000e+00" cType="1" res="-4.9535185098648071e-02" rms="4.8413932323455811e-01" purity="4.6731489896774292e-01" nType="-99"/>
          </Node>
          <Node pos="r" depth="2" NCoef="0" IVar="11" Cut="1.2190363407135010e+00" cType="1" res="2.5741120800375938e-02" rms="4.4101902842521667e-01" purity="5.1483488082885742e-01" nType="0">
            <Node pos="l" depth="3" NCoef="0" IVar="-1" Cut="0.0000000000000000e+00" cType="1" res="5.1541674882173538e-02" rms="4.3306970596313477e-01" purity="6.9683152437210083e-01" nType="-99"/>
            <Node pos="r" depth="3" NCoef="0" IVar="-1" Cut="0.0000000000000000e+00" cType="1" res="4.5517105609178543e-03" rms="4.4566056132316589e-01" purity="3.7970054149627686e-01" nType="-99"/>
          </Node>
        </Node>
        <Node pos="r" depth="1" NCoef="0" IVar="8" Cut="1.0470751523971558e+00" cType="1" res="-8.5498197004199028e-03" rms="4.7108614444732666e-01" purity="4.7069907188415527e-01" nType="0">
          <Node pos="l" depth="2" NCoef="0" IVar="6" Cut="2.6928284168243408e+00" cType="1" res="-2.4185797199606895e-02" rms="4.7174623608589172e-01" purity="4.4238272309303284e-01" nType="0">
            <Node pos="l" depth="3" NCoef="0" IVar="-1" Cut="0.0000000000000000e+00" cType="1" res="-3.5148873925209045e-02" rms="4.6798035502433777e-01" purity="4.3294015526771545e-01" nType="-99"/>
            <Node pos="r" depth="3" NCoef="0" IVar="-1" Cut="0.0000000000000000e+00" cType="1" res="1.8933645915240049e-03" rms="4.7687914967536926e-01" purity="4.5832163095474243e-01" nType="-99"/>
          </Node>
          <Node pos="r" depth="2" NCoef="0" IVar="0" Cut="7.4247451782226562e+01" cType="1" res="1.3238097541034222e-02" rms="4.6929684281349182e-01" purity="5.1015645265579224e-01" nType="0">
            <Node pos="l" depth="3" NCoef="0" IVar="-1" Cut="0.0000000000000000e+00" cType="1" res="4.4254552572965622e-02" rms="4.8349797725677490e-01" purity="5.5876618623733521e-01" nType="-99"/>
            <Node pos="r" depth="3" NCoef="0" IVar="-1" Cut="0.0000000000000000e+00" cType="1" res="-4.7074952162802219e-03" rms="4.6168097853660583e-01" purity="4.8861992359161377e-01" nType="-99"/>
          </Node>
        </Node>
      </Node>
    </BinaryTree>
    <BinaryTree type="DecisionTree" boostWeight="1.0000000000000000e+00" itree="17">
      <Node pos="s" depth="0" NCoef="0" IVar="10" Cut="2.5431590080261230e+00" cType="1" res="-5.1097147661494091e-05" rms="4.6306550502777100e-01" purity="5.0000000000000000e-01" nType="0">
        <Node pos="l" depth="1" NCoef="0" IVar="0" Cut="9.8838111877441406e+01" cType="1" res="4.4241067953407764e-03" rms="4.6173682808876038e-01" purity="5.1084947586059570e-01" nType="0">
          <Node pos="l" depth="2" NCoef="0" IVar="8" Cut="1.4959043264389038e+00" cType="1" res="-2.9616774991154671e-03" rms="4.7784015536308289e-01" purity="5.3108543157577515e-01" nType="0">
            <Node pos="l" depth="3" NCoef="0" IVar="-1" Cut="0.0000000000000000e+00" cType="1" res="3.4808961208909750e-03" rms="4.7558555006980896e-01" purity="5.3316146135330200e-01" nType="-99"/>
            <Node pos="r" depth="3" NCoef="0" IVar="-1" Cut="0.0000000000000000e+00" cType="1" res="-3.6966554820537567e-02" rms="4.8866835236549377e-01" purity="5.1909494400024414e-01" nType="-99"/>
          </Node>
          <Node pos="r" depth="2" NCoef="0" IVar="11" Cut="6.6866785287857056e-01" cType="1" res="1.9869448617100716e-02" rms="4.2568460106849670e-01" purity="4.6853137016296387e-01" nType="0">
            <Node pos="l" depth="3" NCoef="0" IVar="-1" Cut="0.0000000000000000e+00" cType="1" res="5.8014266192913055e-02" rms="4.1750377416610718e-01" purity="7.2214382886886597e-01" nType="-99"/>
            <Node pos="r" depth="3" NCoef="0" IVar="-1" Cut="0.0000000000000000e+00" cType="1" res="1.0503386147320271e-02" rms="4.2732170224189758e-01" purity="3.9943918585777283e-01" nType="-99"/>
          </Node>
        </Node>
        <Node pos="r" depth="1" NCoef="0" IVar="10" Cut="2.9421482086181641e+00" cType="1" res="-1.4961423352360725e-02" rms="4.6715575456619263e-01" purity="4.6385222673416138e-01" nType="0">
          <Node pos="l" depth="2" NCoef="0" IVar="2" Cut="1.0181932449340820e+00" cType="1" res="-3.6092136055231094e-02" rms="4.6797281503677368e-01" purity="4.4189986586570740e-01" nType="0">
            <Node pos="l" depth="3" NCoef="0" IVar="-1" Cut="0.0000000000000000e+00" cType="1" res="-1.3516359962522984e-02" rms="4.8643389344215393e-01" purity="5.1995235681533813e-01" nType="-99"/>
            <Node pos="r" depth="3" NCoef="0" IVar="-1" Cut="0.0000000000000000e+00" cType="1" res="-6.2881030142307281e-02" rms="4.3857139348983765e-01" purity="3.3000710606575012e-01" nType="-99"/>
          </Node>
          <Node pos="r" depth="2" NCoef="0" IVar="-1" Cut="0.0000000000000000e+00" cType="1" res="2.3716630414128304e-02" rms="4.6276369690895081e-01" purity="5.0685125589370728e-01" nType="-99"/>
        </Node>
      </Node>
    </BinaryTree>
    <BinaryTree type="DecisionTree" boostWeight="1.0000000000000000e+00" itree="18">
      <Node pos="s" depth="0" NCoef="0" IVar="9" Cut="1.0058714151382446e+00" cType="1" res="-6.9129579060245305e-05" rms="4.6259570121765137e-01" purity="5.0000000000000000e-01" nType="0">
        <Node pos="l" depth="1" NCoef="0" IVar="9" Cut="1.4380158483982086e-01" cType="1" res="5.5863042362034321e-03" rms="4.6628689765930176e-01" purity="5.4098975658416748e-01" nType="0">
          <Node pos="l" depth="2" NCoef="0" IVar="7" Cut="1.0625058412551880e+00" cType="1" res="-1.9633630290627480e-02" rms="4.6463096141815186e-01" purity="5.1922088861465454e-01" nType="0">
            <Node pos="l" depth="3" NCoef="0" IVar="-1" Cut="0.0000000000000000e+00" cType="1" res="1.2758104130625725e-02" rms="4.6260520815849304e-01" purity="6.1343407630920410e-01" nType="-99"/>
            <Node pos="r" depth="3" NCoef="0" IVar="-1" Cut="0.0000000000000000e+00" cType="1" res="-4.6684999018907547e-02" rms="4.6409672498703003e-01" purity="4.2407435178756714e-01" nType="-99"/>
          </Node>
          <Node pos="r" depth="2" NCoef="0" IVar="3" Cut="1.9442011117935181e+00" cType="1" res="1.0727155953645706e-02" rms="4.6645644307136536e-01" purity="5.4542720317840576e-01" nType="0">
            <Node pos="l" depth="3" NCoef="0" IVar="-1" Cut="0.0000000000000000e+00" cType="1" res="3.6006185691803694e-03" rms="4.6428665518760681e-01" purity="5.5254924297332764e-01" nType="-99"/>
            <Node pos="r" depth="3" NCoef="0" IVar="-1" Cut="0.0000000000000000e+00" cType="1" res="3.1696040183305740e-02" rms="4.7378954291343689e-01" purity="5.1822447776794434e-01" nType="-99"/>
          </Node>
        </Node>
        <Node pos="r" depth="1" NCoef="0" IVar="11" Cut="1.0023726224899292e+00" cType="1" res="-9.2539042234420776e-03" rms="4.5638805627822876e-01" purity="4.3343001604080200e-01" nType="0">
          <Node pos="l" depth="2" NCoef="0" IVar="0" Cut="8.9155868530273438e+01" cType="1" res="-3.6710742861032486e-02" rms="4.8055672645568848e-01" purity="5.4710769653320312e-01" nType="0">
            <Node pos="l" depth="3" NCoef="0" IVar="-1" Cut="0.0000000000000000e+00" cType="1" res="-5.0243515521287918e-02" rms="4.9400970339775085e-01" purity="4.9614840745925903e-01" nType="-99"/>
            <Node pos="r" depth="3" NCoef="0" IVar="-1" Cut="0.0000000000000000e+00" cType="1" res="-9.3301581218838692e-03" rms="4.6367394924163818e-01" purity="6.0392850637435913e-01" nType="-99"/>
          </Node>
          <Node pos="r" depth="2" NCoef="0" IVar="8" Cut="1.7937527894973755e+00" cType="1" res="2.4588014930486679e-03" rms="4.4516441226005554e-01" purity="3.8493674993515015e-01" nType="0">
            <Node pos="l" depth="3" NCoef="0" IVar="-1" Cut="0.0000000000000000e+00" cType="1" res="-6.0163210146129131e-03" rms="4.4377145171165466e-01" purity="3.6975014209747314e-01" nType="-99"/>
            <Node pos="r" depth="3" NCoef="0" IVar="-1" Cut="0.0000000000000000e+00" cType="1" res="2.8422024101018906e-02" rms="4.4828239083290100e-01" purity="4.2952868342399597e-01" nType="-99"/>
          </Node>
        </Node>
      </Node>
    </BinaryTree>
    <BinaryTree type="DecisionTree" boostWeight="1.0000000000000000e+00" itree="19">
      <Node pos="s" depth="0" NCoef="0" IVar="8" Cut="2.2439677715301514e+00" cType="1" res="-1.2320447422098368e-04" rms="4.6218341588973999e-01" purity="5.0000000000000000e-01" nType="0">
        <Node pos="l" depth="1" NCoef="0" IVar="8" Cut="1.8157370090484619e+00" cType="1" res="2.4759052321314812e-03" rms="4.6177223324775696e-01" purity="5.0004935264587402e-01" nType="0">
          <Node pos="l" depth="2" NCoef="0" IVar="8" Cut="1.5560762882232666e+00" cType="1" res="-5.4215779528021812e-04" rms="4.6169549226760864e-01" purity="4.9535706639289856e-01" nType="0">
            <Node pos="l" depth="3" NCoef="0" IVar="-1" Cut="0.0000000000000000e+00" cType="1" res="1.9795992411673069e-03" rms="4.6162483096122742e-01" purity="4.9802017211914062e-01" nType="-99"/>
            <Node pos="r" depth="3" NCoef="0" IVar="-1" Cut="0.0000000000000000e+00" cType="1" res="-3.4790541976690292e-02" rms="4.6103587746620178e-01" purity="4.5897015929222107e-01" nType="-99"/>
          </Node>
          <Node pos="r" depth="2" NCoef="0" IVar="-1" Cut="0.0000000000000000e+00" cType="1" res="3.4473408013582230e-02" rms="4.6125060319900513e-01" purity="5.5359071493148804e-01" nType="-99"/>
        </Node>
        <Node pos="r" depth="1" NCoef="0" IVar="7" Cut="1.1182185411453247e+00" cType="1" res="-1.7500061541795731e-02" rms="4.6454977989196777e-01" purity="4.9967008829116821e-01" nType="0">
          <Node pos="l" depth="2" NCoef="0" IVar="-1" Cut="0.0000000000000000e+00" cType="1" res="-4.2300514876842499e-02" rms="4.8403361439704895e-01" purity="5.5760246515274048e-01" nType="-99"/>
          <Node pos="r" depth="2" NCoef="0" IVar="-1" Cut="0.0000000000000000e+00" cType="1" res="9.4391098245978355e-03" rms="4.4469830393791199e-01" purity="4.4808608293533325e-01" nType="-99"/>
        </Node>
      </Node>
    </BinaryTree>
    <BinaryTree type="DecisionTree" boostWeight="1.0000000000000000e+00" itree="20">
      <Node pos="s" depth="0" NCoef="0" IVar="5" Cut="1.3663867187500000e+02" cType="1" res="-1.2562259507831186e-04" rms="4.6195563673973083e-01" purity="5.0000000000000000e-01" nType="0">
        <Node pos="l" depth="1" NCoef="0" IVar="3" Cut="1.7943598031997681e+00" cType="1" res="5.1653641276061535e-03" rms="4.7306370735168457e-01" purity="5.6891375780105591e-01" nType="0">
          <Node pos="l" depth="2" NCoef="0" IVar="1" Cut="2.9876920580863953e-01" cType="1" res="-2.4546964559704065e-03" rms="4.7168403863906860e-01" purity="5.6391507387161255e-01" nType="0">
            <Node pos="l" depth="3" NCoef="0" IVar="-1" Cut="0.0000000000000000e+00" cType="1" res="3.1133700162172318e-02" rms="4.6975722908973694e-01" purity="5.8104234933853149e-01" nType="-99"/>
            <Node pos="r" depth="3" NCoef="0" IVar="-1" Cut="0.0000000000000000e+00" cType="1" res="-6.3297119922935963e-03" rms="4.7170081734657288e-01" purity="5.6180244684219360e-01" nType="-99"/>
          </Node>
          <Node pos="r" depth="2" NCoef="0" IVar="2" Cut="7.9827684164047241e-01" cType="1" res="4.0102526545524597e-02" rms="4.7778496146202087e-01" purity="5.9183239936828613e-01" nType="0">
            <Node pos="l" depth="3" NCoef="0" IVar="-1" Cut="0.0000000000000000e+00" cType="1" res="5.6101914495229721e-02" rms="4.6590799093246460e-01" purity="6.4217519760131836e-01" nType="-99"/>
            <Node pos="r" depth="3" NCoef="0" IVar="-1" Cut="0.0000000000000000e+00" cType="1" res="1.2184299528598785e-02" rms="4.8756924271583557e-01" purity="5.4339861869812012e-01" nType="-99"/>
          </Node>
        </Node>
        <Node pos="r" depth="1" NCoef="0" IVar="8" Cut="1.9447807073593140e+00" cType="1" res="-9.1614648699760437e-03" rms="4.4219464063644409e-01" purity="3.8231045007705688e-01" nType="0">
          <Node pos="l" depth="2" NCoef="0" IVar="8" Cut="1.0181792974472046e+00" cType="1" res="-2.1545402705669403e-03" rms="4.4462150335311890e-01" purity="3.8745537400245667e-01" nType="0">
            <Node pos="l" depth="3" NCoef="0" IVar="-1" Cut="0.0000000000000000e+00" cType="1" res="-1.0890777222812176e-02" rms="4.4231507182121277e-01" purity="3.7956118583679199e-01" nType="-99"/>
            <Node pos="r" depth="3" NCoef="0" IVar="-1" Cut="0.0000000000000000e+00" cType="1" res="2.4612557142972946e-02" rms="4.5028504729270935e-01" purity="4.1072645783424377e-01" nType="-99"/>
          </Node>
          <Node pos="r" depth="2" NCoef="0" IVar="-1" Cut="0.0000000000000000e+00" cType="1" res="-4.6865601092576981e-02" rms="4.2719116806983948e-01" purity="3.5504654049873352e-01" nType="-99"/>
        </Node>
      </Node>
    </BinaryTree>
    <BinaryTree type="DecisionTree" boostWeight="1.0000000000000000e+00" itree="21">
      <Node pos="s" depth="0" NCoef="0" IVar="10" Cut="2.5431590080261230e+00" cType="1" res="-8.1256446719635278e-05" rms="4.6156162023544312e-01" purity="5.0000000000000000e-01" nType="0">
        <Node pos="l" depth="1" NCoef="0" IVar="9" Cut="2.3469314575195312e+00" cType="1" res="3.8774684071540833e-03" rms="4.6053743362426758e-01" purity="5.1084947586059570e-01" nType="0">
          <Node pos="l" depth="2" NCoef="0" IVar="5" Cut="6.4066192626953125e+01" cType="1" res="1.1187650961801410e-03" rms="4.6321967244148254e-01" purity="5.2364522218704224e-01" nType="0">
            <Node pos="l" depth="3" NCoef="0" IVar="-1" Cut="0.0000000000000000e+00" cType="1" res="-2.8923092409968376e-02" rms="4.8491010069847107e-01" purity="4.9102029204368591e-01" nType="-99"/>
            <Node pos="r" depth="3" NCoef="0" IVar="-1" Cut="0.0000000000000000e+00" cType="1" res="4.1286586783826351e-03" rms="4.6096009016036987e-01" purity="5.2673989534378052e-01" nType="-99"/>
          </Node>
          <Node pos="r" depth="2" NCoef="0" IVar="-1" Cut="0.0000000000000000e+00" cType="1" res="3.9523124694824219e-02" rms="4.2763042449951172e-01" purity="3.6543461680412292e-01" nType="-99"/>
        </Node>
        <Node pos="r" depth="1" NCoef="0" IVar="6" Cut="2.7051286697387695e+00" cType="1" res="-1.3270795345306396e-02" rms="4.6471437811851501e-01" purity="4.6385222673416138e-01" nType="0">
          <Node pos="l" depth="2" NCoef="0" IVar="8" Cut="1.6498243808746338e+00" cType="1" res="-3.8119573146104813e-02" rms="4.5717579126358032e-01" purity="4.3330568075180054e-01" nType="0">
            <Node pos="l" depth="3" NCoef="0" IVar="-1" Cut="0.0000000000000000e+00" cType="1" res="-5.7048562914133072e-02" rms="4.5993638038635254e-01" purity="3.9669215679168701e-01" nType="-99"/>
            <Node pos="r" depth="3" NCoef="0" IVar="-1" Cut="0.0000000000000000e+00" cType="1" res="-1.0446237400174141e-02" rms="4.5269888639450073e-01" purity="4.7183752059936523e-01" nType="-99"/>
          </Node>
          <Node pos="r" depth="2" NCoef="0" IVar="10" Cut="2.7997252941131592e+00" cType="1" res="7.8568579629063606e-03" rms="4.6999689936637878e-01" purity="4.8982441425323486e-01" nType="0">
            <Node pos="l" depth="3" NCoef="0" IVar="-1" Cut="0.0000000000000000e+00" cType="1" res="-8.5698300972580910e-03" rms="4.6702015399932861e-01" purity="4.6375638246536255e-01" nType="-99"/>
            <Node pos="r" depth="3" NCoef="0" IVar="-1" Cut="0.0000000000000000e+00" cType="1" res="1.9598029553890228e-02" rms="4.7186562418937683e-01" purity="5.1038831472396851e-01" nType="-99"/>
          </Node>
        </Node>
      </Node>
    </BinaryTree>
    <BinaryTree type="DecisionTree" boostWeight="1.0000000000000000e+00" itree="22">
      <Node pos="s" depth="0" NCoef="0" IVar="6" Cut="8.9765858650207520e-01" cType="1" res="-6.3942738051991910e-05" rms="4.6124690771102905e-01" purity="5.0000000000000000e-01" nType="0">
        <Node pos="l" depth="1" NCoef="0" IVar="-1" Cut="0.0000000000000000e+00" cType="1" res="1.7342666164040565e-02" rms="4.4833728671073914e-01" purity="5.1507753133773804e-01" nType="-99"/>
        <Node pos="r" depth="1" NCoef="0" IVar="3" Cut="2.9931116104125977e-01" cType="1" res="-2.0157182589173317e-03" rms="4.6250030398368835e-01" purity="4.9846056103706360e-01" nType="0">
          <Node pos="l" depth="2" NCoef="0" IVar="-1" Cut="0.0000000000000000e+00" cType="1" res="-2.7559904381632805e-02" rms="4.7003570199012756e-01" purity="5.0143498182296753e-01" nType="-99"/>
          <Node pos="r" depth="2" NCoef="0" IVar="5" Cut="1.4434410095214844e+02" cType="1" res="3.5481993108987808e-04" rms="4.6175482869148254e-01" purity="4.9819824099540710e-01" nType="0">
            <Node pos="l" depth="3" NCoef="0" IVar="-1" Cut="0.0000000000000000e+00" cType="1" res="6.1452575027942657e-03" rms="4.7416454553604126e-01" purity="5.6567943096160889e-01" nType="-99"/>
            <Node pos="r" depth="3" NCoef="0" IVar="-1" Cut="0.0000000000000000e+00" cType="1" res="-1.3473113067448139e-02" rms="4.3486419320106506e-01" purity="3.5977444052696228e-01" nType="-99"/>
          </Node>
        </Node>
      </Node>
    </BinaryTree>
    <BinaryTree type="DecisionTree" boostWeight="1.0000000000000000e+00" itree="23">
      <Node pos="s" depth="0" NCoef="0" IVar="11" Cut="1.6703431606292725e+00" cType="1" res="-3.0774612241657451e-05" rms="4.6112209558486938e-01" purity="5.0000000000000000e-01" nType="0">
        <Node pos="l" depth="1" NCoef="0" IVar="5" Cut="1.3819059753417969e+02" cType="1" res="-4.2492737993597984e-03" rms="4.7029632329940796e-01" purity="5.6524252891540527e-01" nType="0">
          <Node pos="l" depth="2" NCoef="0" IVar="5" Cut="9.2963729858398438e+01" cType="1" res="1.1030127061530948e-03" rms="4.7071936726570129e-01" purity="5.8939158916473389e-01" nType="0">
            <Node pos="l" depth="3" NCoef="0" IVar="-1" Cut="0.0000000000000000e+00" cType="1" res="-1.0405990295112133e-02" rms="4.8052993416786194e-01" purity="5.4034250974655151e-01" nType="-99"/>
            <Node pos="r" depth="3" NCoef="0" IVar="-1" Cut="0.0000000000000000e+00" cType="1" res="1.2317759916186333e-02" rms="4.6096605062484741e-01" purity="6.3542109727859497e-01" nType="-99"/>
          </Node>
          <Node pos="r" depth="2" NCoef="0" IVar="3" Cut="1.1966030597686768e+00" cType="1" res="-2.1824574097990990e-02" rms="4.6847459673881531e-01" purity="4.8594415187835693e-01" nType="0">
            <Node pos="l" depth="3" NCoef="0" IVar="-1" Cut="0.0000000000000000e+00" cType="1" res="7.3307775892317295e-03" rms="4.5625445246696472e-01" purity="5.6951260566711426e-01" nType="-99"/>
            <Node pos="r" depth="3" NCoef="0" IVar="-1" Cut="0.0000000000000000e+00" cType="1" res="-3.3354066312313080e-02" rms="4.7443658113479614e-01" purity="4.3847593665122986e-01" nType="-99"/>
          </Node>
        </Node>
        <Node pos="r" depth="1" NCoef="0" IVar="11" Cut="1.9248534440994263e+00" cType="1" res="9.6657574176788330e-03" rms="4.3915516138076782e-01" purity="3.5003527998924255e-01" nType="0">
          <Node pos="l" depth="2" NCoef="0" IVar="-1" Cut="0.0000000000000000e+00" cType="1" res="5.0455451011657715e-02" rms="4.7498500347137451e-01" purity="4.9342259764671326e-01" nType="-99"/>
          <Node pos="r" depth="2" NCoef="0" IVar="9" Cut="8.9316385984420776e-01" cType="1" res="-3.0130485538393259e-03" rms="4.2817005515098572e-01" purity="3.1165862083435059e-01" nType="0">
            <Node pos="l" depth="3" NCoef="0" IVar="-1" Cut="0.0000000000000000e+00" cType="1" res="1.8213436007499695e-02" rms="4.4655269384384155e-01" purity="3.5387820005416870e-01" nType="-99"/>
            <Node pos="r" depth="3" NCoef="0" IVar="-1" Cut="0.0000000000000000e+00" cType="1" res="-1.6805695369839668e-02" rms="4.1764837503433228e-01" purity="2.8936925530433655e-01" nType="-99"/>
          </Node>
        </Node>
      </Node>
    </BinaryTree>
    <BinaryTree type="DecisionTree" boostWeight="1.0000000000000000e+00" itree="24">
      <Node pos="s" depth="0" NCoef="0" IVar="10" Cut="2.9923000931739807e-01" cType="1" res="9.6276444310205989e-06" rms="4.6074187755584717e-01" purity="5.0000000000000000e-01" nType="0">
        <Node pos="l" depth="1" NCoef="0" IVar="-1" Cut="0.0000000000000000e+00" cType="1" res="1.8537042662501335e-02" rms="4.6722441911697388e-01" purity="5.3651458024978638e-01" nType="-99"/>
        <Node pos="r" depth="1" NCoef="0" IVar="7" Cut="9.0081197023391724e-01" cType="1" res="-1.5947881620377302e-03" rms="4.6019816398620605e-01" purity="4.9717837572097778e-01" nType="0">
          <Node pos="l" depth="2" NCoef="0" IVar="4" Cut="6.9014948606491089e-01" cType="1" res="8.6457971483469009e-03" rms="4.6620970964431763e-01" purity="5.9659016132354736e-01" nType="0">
            <Node pos="l" depth="3" NCoef="0" IVar="-1" Cut="0.0000000000000000e+00" cType="1" res="1.6667572781443596e-02" rms="4.6180656552314758e-01" purity="6.1344838142395020e-01" nType="-99"/>
            <Node pos="r" depth="3" NCoef="0" IVar="-1" Cut="0.0000000000000000e+00" cType="1" res="-1.4262770302593708e-02" rms="4.7615486383438110e-01" purity="5.5421972274780273e-01" nType="-99"/>
          </Node>
          <Node pos="r" depth="2" NCoef="0" IVar="4" Cut="1.8154219388961792e+00" cType="1" res="-7.7008078806102276e-03" rms="4.5646676421165466e-01" purity="4.3790334463119507e-01" nType="0">
            <Node pos="l" depth="3" NCoef="0" IVar="-1" Cut="0.0000000000000000e+00" cType="1" res="-1.4551166445016861e-02" rms="4.6392819285392761e-01" purity="4.7780871391296387e-01" nType="-99"/>
            <Node pos="r" depth="3" NCoef="0" IVar="-1" Cut="0.0000000000000000e+00" cType="1" res="1.4018871821463108e-02" rms="4.3628624081611633e-01" purity="3.3692574501037598e-01" nType="-99"/>
          </Node>
        </Node>
      </Node>
    </BinaryTree>
    <BinaryTree type="DecisionTree" boostWeight="1.0000000000000000e+00" itree="25">
      <Node pos="s" depth="0" NCoef="0" IVar="6" Cut="2.9919188022613525e+00" cType="1" res="4.2468662286410108e-05" rms="4.6053853631019592e-01" purity="5.0000000000000000e-01" nType="0">
        <Node pos="l" depth="1" NCoef="0" IVar="6" Cut="2.8494045734405518e+00" cType="1" res="-1.8021620344370604e-03" rms="4.5920488238334656e-01" purity="5.0035101175308228e-01" nType="0">
          <Node pos="l" depth="2" NCoef="0" IVar="3" Cut="1.4955558776855469e+00" cType="1" res="1.5397649258375168e-03" rms="4.5882549881935120e-01" purity="5.0364726781845093e-01" nType="0">
            <Node pos="l" depth="3" NCoef="0" IVar="-1" Cut="0.0000000000000000e+00" cType="1" res="-3.8501867093145847e-03" rms="4.5577311515808105e-01" purity="5.1495289802551270e-01" nType="-99"/>
            <Node pos="r" depth="3" NCoef="0" IVar="-1" Cut="0.0000000000000000e+00" cType="1" res="1.2975581921637058e-02" rms="4.6537515521049500e-01" purity="4.7815921902656555e-01" nType="-99"/>
          </Node>
          <Node pos="r" depth="2" NCoef="0" IVar="-1" Cut="0.0000000000000000e+00" cType="1" res="-2.7772881090641022e-02" rms="4.6146965026855469e-01" purity="4.7173073887825012e-01" nType="-99"/>
        </Node>
        <Node pos="r" depth="1" NCoef="0" IVar="-1" Cut="0.0000000000000000e+00" cType="1" res="1.5246514230966568e-02" rms="4.7224423289299011e-01" purity="4.9678468704223633e-01" nType="-99"/>
      </Node>
    </BinaryTree>
    <BinaryTree type="DecisionTree" boostWeight="1.0000000000000000e+00" itree="26">
      <Node pos="s" depth="0" NCoef="0" IVar="3" Cut="1.1964590549468994e+00" cType="1" res="3.0130086088320240e-05" rms="4.6039804816246033e-01" purity="5.0000000000000000e-01" nType="0">
        <Node pos="l" depth="1" NCoef="0" IVar="8" Cut="1.1969065666198730e+00" cType="1" res="4.9218158237636089e-03" rms="4.5428991317749023e-01" purity="5.2497601509094238e-01" nType="0">
          <Node pos="l" depth="2" NCoef="0" IVar="7" Cut="1.5724319219589233e+00" cType="1" res="1.4758318662643433e-02" rms="4.5167690515518188e-01" purity="5.3585982322692871e-01" nType="0">
            <Node pos="l" depth="3" NCoef="0" IVar="-1" Cut="0.0000000000000000e+00" cType="1" res="2.7194777503609657e-02" rms="4.5086407661437988e-01" purity="6.3446557521820068e-01" nType="-99"/>
            <Node pos="r" depth="3" NCoef="0" IVar="-1" Cut="0.0000000000000000e+00" cType="1" res="-5.0535905174911022e-03" rms="4.5195126533508301e-01" purity="4.0603893995285034e-01" nType="-99"/>
          </Node>
          <Node pos="r" depth="2" NCoef="0" IVar="10" Cut="1.4977101087570190e+00" cType="1" res="-1.6601074486970901e-02" rms="4.5922127366065979e-01" purity="5.0116151571273804e-01" nType="0">
            <Node pos="l" depth="3" NCoef="0" IVar="-1" Cut="0.0000000000000000e+00" cType="1" res="-4.4110853224992752e-02" rms="4.5647358894348145e-01" purity="4.9807399511337280e-01" nType="-99"/>
            <Node pos="r" depth="3" NCoef="0" IVar="-1" Cut="0.0000000000000000e+00" cType="1" res="5.0664115697145462e-03" rms="4.6012392640113831e-01" purity="5.0354593992233276e-01" nType="-99"/>
          </Node>
        </Node>
        <Node pos="r" depth="1" NCoef="0" IVar="8" Cut="2.9921054840087891e-01" cType="1" res="-5.7086125016212463e-03" rms="4.6739688515663147e-01" purity="4.7069907188415527e-01" nType="0">
          <Node pos="l" depth="2" NCoef="0" IVar="2" Cut="1.0302478075027466e+00" cType="1" res="-3.2675631344318390e-02" rms="4.6029430627822876e-01" purity="4.0360611677169800e-01" nType="0">
            <Node pos="l" depth="3" NCoef="0" IVar="-1" Cut="0.0000000000000000e+00" cType="1" res="-3.9487112313508987e-02" rms="4.7927317023277283e-01" purity="4.5462656021118164e-01" nType="-99"/>
            <Node pos="r" depth="3" NCoef="0" IVar="-1" Cut="0.0000000000000000e+00" cType="1" res="-1.9417647272348404e-02" rms="4.4214132428169250e-01" purity="3.5763111710548401e-01" nType="-99"/>
          </Node>
          <Node pos="r" depth="2" NCoef="0" IVar="2" Cut="1.0179656744003296e+00" cType="1" res="2.3576412349939346e-03" rms="4.6919944882392883e-01" purity="4.9076762795448303e-01" nType="0">
            <Node pos="l" depth="3" NCoef="0" IVar="-1" Cut="0.0000000000000000e+00" cType="1" res="1.4988346956670284e-02" rms="4.8077860474586487e-01" purity="5.6219470500946045e-01" nType="-99"/>
            <Node pos="r" depth="3" NCoef="0" IVar="-1" Cut="0.0000000000000000e+00" cType="1" res="-1.7667822539806366e-02" rms="4.5243552327156067e-01" purity="3.9529794454574585e-01" nType="-99"/>
          </Node>
        </Node>
      </Node>
    </BinaryTree>
    <BinaryTree type="DecisionTree" boostWeight="1.0000000000000000e+00" itree="27">
      <Node pos="s" depth="0" NCoef="0" IVar="1" Cut="1.7948961257934570e+00" cType="1" res="5.8708672440843657e-05" rms="4.6000495553016663e-01" purity="5.0000000000000000e-01" nType="0">
        <Node pos="l" depth="1" NCoef="0" IVar="0" Cut="9.8838111877441406e+01" cType="1" res="3.4823501482605934e-03" rms="4.5860162377357483e-01" purity="5.1095771789550781e-01" nType="0">
          <Node pos="l" depth="2" NCoef="0" IVar="4" Cut="2.3350146412849426e-01" cType="1" res="-2.1882643923163414e-03" rms="4.7510516643524170e-01" purity="5.3093159198760986e-01" nType="0">
            <Node pos="l" depth="3" NCoef="0" IVar="-1" Cut="0.0000000000000000e+00" cType="1" res="-2.8363887220621109e-02" rms="4.7316002845764160e-01" purity="5.5916786193847656e-01" nType="-99"/>
            <Node pos="r" depth="3" NCoef="0" IVar="-1" Cut="0.0000000000000000e+00" cType="1" res="3.7593967281281948e-03" rms="4.7527098655700684e-01" purity="5.2479451894760132e-01" nType="-99"/>
          </Node>
          <Node pos="r" depth="2" NCoef="0" IVar="4" Cut="1.0889377593994141e+00" cType="1" res="1.7598677426576614e-02" rms="4.1433814167976379e-01" purity="4.6123516559600830e-01" nType="0">
            <Node pos="l" depth="3" NCoef="0" IVar="-1" Cut="0.0000000000000000e+00" cType="1" res="3.5488199442625046e-02" rms="4.2742499709129333e-01" purity="5.9806168079376221e-01" nType="-99"/>
            <Node pos="r" depth="3" NCoef="0" IVar="-1" Cut="0.0000000000000000e+00" cType="1" res="-7.9070525243878365e-03" rms="3.9460879564285278e-01" purity="2.7518087625503540e-01" nType="-99"/>
          </Node>
        </Node>
        <Node pos="r" depth="1" NCoef="0" IVar="9" Cut="5.4106658697128296e-01" cType="1" res="-1.0515394620597363e-02" rms="4.6415299177169800e-01" purity="4.6615642309188843e-01" nType="0">
          <Node pos="l" depth="2" NCoef="0" IVar="-1" Cut="0.0000000000000000e+00" cType="1" res="-3.3815264701843262e-02" rms="4.6703705191612244e-01" purity="4.6265292167663574e-01" nType="-99"/>
          <Node pos="r" depth="2" NCoef="0" IVar="3" Cut="1.6441992521286011e+00" cType="1" res="3.5622231662273407e-03" rms="4.6207737922668457e-01" purity="4.6788057684898376e-01" nType="0">
            <Node pos="l" depth="3" NCoef="0" IVar="-1" Cut="0.0000000000000000e+00" cType="1" res="-1.0976751334965229e-02" rms="4.6442312002182007e-01" purity="4.5522996783256531e-01" nType="-99"/>
            <Node pos="r" depth="3" NCoef="0" IVar="-1" Cut="0.0000000000000000e+00" cType="1" res="2.8436630964279175e-02" rms="4.5661520957946777e-01" purity="4.9025502800941467e-01" nType="-99"/>
          </Node>
        </Node>
      </Node>
    </BinaryTree>
    <BinaryTree type="DecisionTree" boostWeight="1.0000000000000000e+00" itree="28">
      <Node pos="s" depth="0" NCoef="0" IVar="11" Cut="1.6703431606292725e+00" cType="1" res="1.2173278264526743e-05" rms="4.5967310667037964e-01" purity="5.0000000000000000e-01" nType="0">
        <Node pos="l" depth="1" NCoef="0" IVar="0" Cut="6.3122306823730469e+01" cType="1" res="-3.2175190281122923e-03" rms="4.6881467103958130e-01" purity="5.6524252891540527e-01" nType="0">
          <Node pos="l" depth="2" NCoef="0" IVar="6" Cut="1.7953234910964966e+00" cType="1" res="-1.5948167070746422e-02" rms="4.7863233089447021e-01" purity="5.0932949781417847e-01" nType="0">
            <Node pos="l" depth="3" NCoef="0" IVar="-1" Cut="0.0000000000000000e+00" cType="1" res="8.2413638010621071e-03" rms="4.7300028800964355e-01" purity="5.7019460201263428e-01" nType="-99"/>
            <Node pos="r" depth="3" NCoef="0" IVar="-1" Cut="0.0000000000000000e+00" cType="1" res="-2.7154969051480293e-02" rms="4.8154148459434509e-01" purity="4.6946179866790771e-01" nType="-99"/>
          </Node>
          <Node pos="r" depth="2" NCoef="0" IVar="8" Cut="4.4903606176376343e-01" cType="1" res="3.9051545318216085e-03" rms="4.6307834982872009e-01" purity="5.9652525186538696e-01" nType="0">
            <Node pos="l" depth="3" NCoef="0" IVar="-1" Cut="0.0000000000000000e+00" cType="1" res="3.2683689147233963e-02" rms="4.5151776075363159e-01" purity="6.2433725595474243e-01" nType="-99"/>
            <Node pos="r" depth="3" NCoef="0" IVar="-1" Cut="0.0000000000000000e+00" cType="1" res="-5.2321902476251125e-03" rms="4.6615096926689148e-01" purity="5.8795523643493652e-01" nType="-99"/>
          </Node>
        </Node>
        <Node pos="r" depth="1" NCoef="0" IVar="11" Cut="1.9248534440994263e+00" cType="1" res="7.4358596466481686e-03" rms="4.3784743547439575e-01" purity="3.5003527998924255e-01" nType="0">
          <Node pos="l" depth="2" NCoef="0" IVar="-1" Cut="0.0000000000000000e+00" cType="1" res="3.2166156917810440e-02" rms="4.7425624728202820e-01" purity="4.9342259764671326e-01" nType="-99"/>
          <Node pos="r" depth="2" NCoef="0" IVar="10" Cut="2.5430517196655273e+00" cType="1" res="-3.6982831079512835e-04" rms="4.2723965644836426e-01" purity="3.1165862083435059e-01" nType="0">
            <Node pos="l" depth="3" NCoef="0" IVar="-1" Cut="0.0000000000000000e+00" cType="1" res="8.5807070136070251e-03" rms="4.3197330832481384e-01" purity="3.2652631402015686e-01" nType="-99"/>
            <Node pos="r" depth="3" NCoef="0" IVar="-1" Cut="0.0000000000000000e+00" cType="1" res="-3.4194424748420715e-02" rms="4.0828141570091248e-01" purity="2.5819644331932068e-01" nType="-99"/>
          </Node>
        </Node>
      </Node>
    </BinaryTree>
    <BinaryTree type="DecisionTree" boostWeight="1.0000000000000000e+00" itree="29">
      <Node pos="s" depth="0" NCoef="0" IVar="9" Cut="1.0058714151382446e+00" cType="1" res="-1.5607020031893626e-05" rms="4.5935216546058655e-01" purity="5.0000000000000000e-01" nType="0">
        <Node pos="l" depth="1" NCoef="0" IVar="11" Cut="7.4020588397979736e-01" cType="1" res="4.0110959671437740e-03" rms="4.6312189102172852e-01" purity="5.4098975658416748e-01" nType="0">
          <Node pos="l" depth="2" NCoef="0" IVar="1" Cut="7.4674350023269653e-01" cType="1" res="1.5490790829062462e-02" rms="4.5646736025810242e-01" purity="6.2030953168869019e-01" nType="0">
            <Node pos="l" depth="3" NCoef="0" IVar="-1" Cut="0.0000000000000000e+00" cType="1" res="5.6917201727628708e-02" rms="4.3850460648536682e-01" purity="6.7739051580429077e-01" nType="-99"/>
            <Node pos="r" depth="3" NCoef="0" IVar="-1" Cut="0.0000000000000000e+00" cType="1" res="-3.5738814622163773e-03" rms="4.6251502633094788e-01" purity="5.9606403112411499e-01" nType="-99"/>
          </Node>
          <Node pos="r" depth="2" NCoef="0" IVar="4" Cut="6.5431016683578491e-01" cType="1" res="-4.3830974027514458e-03" rms="4.6774965524673462e-01" purity="4.8298954963684082e-01" nType="0">
            <Node pos="l" depth="3" NCoef="0" IVar="-1" Cut="0.0000000000000000e+00" cType="1" res="-5.0825096666812897e-02" rms="4.7205239534378052e-01" purity="5.0380897521972656e-01" nType="-99"/>
            <Node pos="r" depth="3" NCoef="0" IVar="-1" Cut="0.0000000000000000e+00" cType="1" res="9.4514759257435799e-03" rms="4.6538400650024414e-01" purity="4.7691267728805542e-01" nType="-99"/>
          </Node>
        </Node>
        <Node pos="r" depth="1" NCoef="0" IVar="4" Cut="3.6300238966941833e-01" cType="1" res="-6.5552224405109882e-03" rms="4.5308682322502136e-01" purity="4.3343001604080200e-01" nType="0">
          <Node pos="l" depth="2" NCoef="0" IVar="-1" Cut="0.0000000000000000e+00" cType="1" res="1.8829910084605217e-02" rms="4.6954500675201416e-01" purity="5.8887690305709839e-01" nType="-99"/>
          <Node pos="r" depth="2" NCoef="0" IVar="2" Cut="6.5329086780548096e-01" cType="1" res="-1.2157478369772434e-02" rms="4.4951632618904114e-01" purity="4.0236783027648926e-01" nType="0">
            <Node pos="l" depth="3" NCoef="0" IVar="-1" Cut="0.0000000000000000e+00" cType="1" res="-4.4235344976186752e-02" rms="4.8529514670372009e-01" purity="4.9329191446304321e-01" nType="-99"/>
            <Node pos="r" depth="3" NCoef="0" IVar="-1" Cut="0.0000000000000000e+00" cType="1" res="-3.9600380696356297e-03" rms="4.4126006960868835e-01" purity="3.8343942165374756e-01" nType="-99"/>
          </Node>
        </Node>
      </Node>
    </BinaryTree>
    <BinaryTree type="DecisionTree" boostWeight="1.0000000000000000e+00" itree="30">
      <Node pos="s" depth="0" NCoef="0" IVar="8" Cut="1.6455936431884766e+00" cType="1" res="4.2165906052105129e-05" rms="4.5882636308670044e-01" purity="5.0000000000000000e-01" nType="0">
        <Node pos="l" depth="1" NCoef="0" IVar="0" Cut="7.0094345092773438e+01" cType="1" res="-3.5244608297944069e-03" rms="4.5829305052757263e-01" purity="4.9482154846191406e-01" nType="0">
          <Node pos="l" depth="2" NCoef="0" IVar="2" Cut="6.6198766231536865e-01" cType="1" res="-1.1977086775004864e-02" rms="4.7735494375228882e-01" purity="5.0413143634796143e-01" nType="0">
            <Node pos="l" depth="3" NCoef="0" IVar="-1" Cut="0.0000000000000000e+00" cType="1" res="-2.3684149608016014e-02" rms="4.7325512766838074e-01" purity="5.0643414258956909e-01" nType="-99"/>
            <Node pos="r" depth="3" NCoef="0" IVar="-1" Cut="0.0000000000000000e+00" cType="1" res="5.6418497115373611e-03" rms="4.8135715723037720e-01" purity="5.0147998332977295e-01" nType="-99"/>
          </Node>
          <Node pos="r" depth="2" NCoef="0" IVar="9" Cut="1.1913939714431763e+00" cType="1" res="3.1928096432238817e-03" rms="4.4244438409805298e-01" purity="4.8742300271987915e-01" nType="0">
            <Node pos="l" depth="3" NCoef="0" IVar="-1" Cut="0.0000000000000000e+00" cType="1" res="1.6090322285890579e-02" rms="4.4504794478416443e-01" purity="5.5409926176071167e-01" nType="-99"/>
            <Node pos="r" depth="3" NCoef="0" IVar="-1" Cut="0.0000000000000000e+00" cType="1" res="-1.8012309446930885e-02" rms="4.3755888938903809e-01" purity="3.8434660434722900e-01" nType="-99"/>
          </Node>
        </Node>
        <Node pos="r" depth="1" NCoef="0" IVar="3" Cut="1.4955971240997314e+00" cType="1" res="1.1662319302558899e-02" rms="4.6036791801452637e-01" purity="5.1687151193618774e-01" nType="0">
          <Node pos="l" depth="2" NCoef="0" IVar="9" Cut="6.7163914442062378e-01" cType="1" res="-5.7123224250972271e-03" rms="4.6325933933258057e-01" purity="4.9955165386199951e-01" nType="0">
            <Node pos="l" depth="3" NCoef="0" IVar="-1" Cut="0.0000000000000000e+00" cType="1" res="-3.0744101852178574e-02" rms="4.6183425188064575e-01" purity="5.2548325061798096e-01" nType="-99"/>
            <Node pos="r" depth="3" NCoef="0" IVar="-1" Cut="0.0000000000000000e+00" cType="1" res="8.5961902514100075e-03" rms="4.6330961585044861e-01" purity="4.8611921072006226e-01" nType="-99"/>
          </Node>
          <Node pos="r" depth="2" NCoef="0" IVar="-1" Cut="0.0000000000000000e+00" cType="1" res="3.6977671086788177e-02" rms="4.5397281646728516e-01" purity="5.4597562551498413e-01" nType="-99"/>
        </Node>
      </Node>
    </BinaryTree>
    <BinaryTree type="DecisionTree" boostWeight="1.0000000000000000e+00" itree="31">
      <Node pos="s" depth="0" NCoef="0" IVar="2" Cut="4.3525516986846924e-01" cType="1" res="-1.7111984561779536e-05" rms="4.5845934748649597e-01" purity="5.0000000000000000e-01" nType="0">
        <Node pos="l" depth="1" NCoef="0" IVar="1" Cut="1.2024374008178711e+00" cType="1" res="1.1243541724979877e-02" rms="4.6284916996955872e-01" purity="5.8289706707000732e-01" nType="0">
          <Node pos="l" depth="2" NCoef="0" IVar="-1" Cut="0.0000000000000000e+00" cType="1" res="3.1638309359550476e-02" rms="4.4766926765441895e-01" purity="6.1307746171951294e-01" nType="-99"/>
          <Node pos="r" depth="2" NCoef="0" IVar="8" Cut="1.6436709165573120e+00" cType="1" res="-6.0626133345067501e-03" rms="4.7258448600769043e-01" purity="5.6143796443939209e-01" nType="0">
            <Node pos="l" depth="3" NCoef="0" IVar="-1" Cut="0.0000000000000000e+00" cType="1" res="-1.9111309200525284e-02" rms="4.7744157910346985e-01" purity="5.3168290853500366e-01" nType="-99"/>
            <Node pos="r" depth="3" NCoef="0" IVar="-1" Cut="0.0000000000000000e+00" cType="1" res="1.8748369067907333e-02" rms="4.6283975243568420e-01" purity="6.1227202415466309e-01" nType="-99"/>
          </Node>
        </Node>
        <Node pos="r" depth="1" NCoef="0" IVar="10" Cut="5.9840148687362671e-01" cType="1" res="-3.7093926221132278e-03" rms="4.5695036649703979e-01" purity="4.7281873226165771e-01" nType="0">
          <Node pos="l" depth="2" NCoef="0" IVar="8" Cut="4.3818733096122742e-01" cType="1" res="-2.4249145761132240e-02" rms="4.6221852302551270e-01" purity="4.7842252254486084e-01" nType="0">
            <Node pos="l" depth="3" NCoef="0" IVar="-1" Cut="0.0000000000000000e+00" cType="1" res="-2.1478882990777493e-03" rms="4.5525449514389038e-01" purity="5.0686883926391602e-01" nType="-99"/>
            <Node pos="r" depth="3" NCoef="0" IVar="-1" Cut="0.0000000000000000e+00" cType="1" res="-4.5559793710708618e-02" rms="4.6845394372940063e-01" purity="4.4783270359039307e-01" nType="-99"/>
          </Node>
          <Node pos="r" depth="2" NCoef="0" IVar="3" Cut="1.1965565681457520e+00" cType="1" res="-6.2408056692220271e-05" rms="4.5591187477111816e-01" purity="4.7182372212409973e-01" nType="0">
            <Node pos="l" depth="3" NCoef="0" IVar="-1" Cut="0.0000000000000000e+00" cType="1" res="9.9690044298768044e-03" rms="4.4774338603019714e-01" purity="5.0570404529571533e-01" nType="-99"/>
            <Node pos="r" depth="3" NCoef="0" IVar="-1" Cut="0.0000000000000000e+00" cType="1" res="-8.0795902758836746e-03" rms="4.6245363354682922e-01" purity="4.4347396492958069e-01" nType="-99"/>
          </Node>
        </Node>
      </Node>
    </BinaryTree>
    <BinaryTree type="DecisionTree" boostWeight="1.0000000000000000e+00" itree="32">
      <Node pos="s" depth="0" NCoef="0" IVar="3" Cut="2.5423946380615234e+00" cType="1" res="7.5165121415921021e-06" rms="4.5819634199142456e-01" purity="5.0000000000000000e-01" nType="0">
        <Node pos="l" depth="1" NCoef="0" IVar="2" Cut="2.1761822700500488e+00" cType="1" res="-1.5278233913704753e-03" rms="4.5768150687217712e-01" purity="5.0445288419723511e-01" nType="0">
          <Node pos="l" depth="2" NCoef="0" IVar="0" Cut="8.8867286682128906e+01" cType="1" res="2.0727748051285744e-04" rms="4.6548107266426086e-01" purity="5.2911466360092163e-01" nType="0">
            <Node pos="l" depth="3" NCoef="0" IVar="-1" Cut="0.0000000000000000e+00" cType="1" res="-5.6967558339238167e-03" rms="4.7576048970222473e-01" purity="5.2392041683197021e-01" nType="-99"/>
            <Node pos="r" depth="3" NCoef="0" IVar="-1" Cut="0.0000000000000000e+00" cType="1" res="1.0148909874260426e-02" rms="4.4937744736671448e-01" purity="5.3692728281021118e-01" nType="-99"/>
          </Node>
          <Node pos="r" depth="2" NCoef="0" IVar="-1" Cut="0.0000000000000000e+00" cType="1" res="-4.5663315802812576e-02" rms="3.2089716196060181e-01" purity="1.4206448197364807e-01" nType="-99"/>
        </Node>
        <Node pos="r" depth="1" NCoef="0" IVar="-1" Cut="0.0000000000000000e+00" cType="1" res="1.3889885507524014e-02" rms="4.6298179030418396e-01" purity="4.5597293972969055e-01" nType="-99"/>
      </Node>
    </BinaryTree>
    <BinaryTree type="DecisionTree" boostWeight="1.0000000000000000e+00" itree="33">
      <Node pos="s" depth="0" NCoef="0" IVar="9" Cut="1.3411169052124023e+00" cType="1" res="-2.4778735678410158e-05" rms="4.5810878276824951e-01" purity="5.0000000000000000e-01" nType="0">
        <Node pos="l" depth="1" NCoef="0" IVar="9" Cut="1.1492607593536377e+00" cType="1" res="-2.9436345212161541e-03" rms="4.6297666430473328e-01" purity="5.2992123365402222e-01" nType="0">
          <Node pos="l" depth="2" NCoef="0" IVar="0" Cut="6.0373004913330078e+01" cType="1" res="1.4070160686969757e-03" rms="4.6115854382514954e-01" purity="5.3837776184082031e-01" nType="0">
            <Node pos="l" depth="3" NCoef="0" IVar="-1" Cut="0.0000000000000000e+00" cType="1" res="-8.4026912227272987e-03" rms="4.7394523024559021e-01" purity="5.0060170888900757e-01" nType="-99"/>
            <Node pos="r" depth="3" NCoef="0" IVar="-1" Cut="0.0000000000000000e+00" cType="1" res="7.1332734078168869e-03" rms="4.5389813184738159e-01" purity="5.5901539325714111e-01" nType="-99"/>
          </Node>
          <Node pos="r" depth="2" NCoef="0" IVar="-1" Cut="0.0000000000000000e+00" cType="1" res="-4.3680708855390549e-02" rms="4.7936514019966125e-01" purity="4.4054341316223145e-01" nType="-99"/>
        </Node>
        <Node pos="r" depth="1" NCoef="0" IVar="1" Cut="1.0450021028518677e+00" cType="1" res="8.0885533243417740e-03" rms="4.4419711828231812e-01" purity="4.1683030128479004e-01" nType="0">
          <Node pos="l" depth="2" NCoef="0" IVar="7" Cut="1.5337109565734863e+00" cType="1" res="-1.1195679195225239e-02" rms="4.4010645151138306e-01" purity="3.8440576195716858e-01" nType="0">
            <Node pos="l" depth="3" NCoef="0" IVar="-1" Cut="0.0000000000000000e+00" cType="1" res="-1.8059356138110161e-02" rms="4.7461003065109253e-01" purity="4.9639391899108887e-01" nType="-99"/>
            <Node pos="r" depth="3" NCoef="0" IVar="-1" Cut="0.0000000000000000e+00" cType="1" res="-7.1903917705640197e-04" rms="3.9898723363876343e-01" purity="2.6274317502975464e-01" nType="-99"/>
          </Node>
          <Node pos="r" depth="2" NCoef="0" IVar="9" Cut="1.7533247470855713e+00" cType="1" res="2.2375708445906639e-02" rms="4.4666704535484314e-01" purity="4.4085267186164856e-01" nType="0">
            <Node pos="l" depth="3" NCoef="0" IVar="-1" Cut="0.0000000000000000e+00" cType="1" res="4.2505927383899689e-02" rms="4.5988345146179199e-01" purity="5.1537102460861206e-01" nType="-99"/>
            <Node pos="r" depth="3" NCoef="0" IVar="-1" Cut="0.0000000000000000e+00" cType="1" res="6.8890429101884365e-03" rms="4.3681672215461731e-01" purity="3.9064565300941467e-01" nType="-99"/>
          </Node>
        </Node>
      </Node>
    </BinaryTree>
    <BinaryTree type="DecisionTree" boostWeight="1.0000000000000000e+00" itree="34">
      <Node pos="s" depth="0" NCoef="0" IVar="1" Cut="1.3461796045303345e+00" cType="1" res="-6.3474646594841033e-05" rms="4.5782506465911865e-01" purity="5.0000000000000000e-01" nType="0">
        <Node pos="l" depth="1" NCoef="0" IVar="1" Cut="1.0255881547927856e+00" cType="1" res="4.9909930676221848e-03" rms="4.5371103286743164e-01" purity="5.1217585802078247e-01" nType="0">
          <Node pos="l" depth="2" NCoef="0" IVar="6" Cut="1.0472486019134521e+00" cType="1" res="-1.2275427579879761e-03" rms="4.5171675086021423e-01" purity="5.0329160690307617e-01" nType="0">
            <Node pos="l" depth="3" NCoef="0" IVar="-1" Cut="0.0000000000000000e+00" cType="1" res="3.3624824136495590e-02" rms="4.3435835838317871e-01" purity="5.9170806407928467e-01" nType="-99"/>
            <Node pos="r" depth="3" NCoef="0" IVar="-1" Cut="0.0000000000000000e+00" cType="1" res="-7.0281131193041801e-03" rms="4.5424279570579529e-01" purity="4.8852756619453430e-01" nType="-99"/>
          </Node>
          <Node pos="r" depth="2" NCoef="0" IVar="3" Cut="1.4961692094802856e+00" cType="1" res="2.3232854902744293e-02" rms="4.5902544260025024e-01" purity="5.3823745250701904e-01" nType="0">
            <Node pos="l" depth="3" NCoef="0" IVar="-1" Cut="0.0000000000000000e+00" cType="1" res="-5.5968710221350193e-03" rms="4.5272856950759888e-01" purity="5.3013718128204346e-01" nType="-99"/>
            <Node pos="r" depth="3" NCoef="0" IVar="-1" Cut="0.0000000000000000e+00" cType="1" res="6.9447621703147888e-02" rms="4.6580967307090759e-01" purity="5.5375665426254272e-01" nType="-99"/>
          </Node>
        </Node>
        <Node pos="r" depth="1" NCoef="0" IVar="6" Cut="1.6456992626190186e+00" cType="1" res="-7.0453542284667492e-03" rms="4.6335718035697937e-01" purity="4.8318117856979370e-01" nType="0">
          <Node pos="l" depth="2" NCoef="0" IVar="-1" Cut="0.0000000000000000e+00" cType="1" res="-3.4071311354637146e-02" rms="4.6164244413375854e-01" purity="4.3363854289054871e-01" nType="-99"/>
          <Node pos="r" depth="2" NCoef="0" IVar="6" Cut="2.8564674854278564e+00" cType="1" res="-6.6031765891239047e-04" rms="4.6347072720527649e-01" purity="4.9372515082359314e-01" nType="0">
            <Node pos="l" depth="3" NCoef="0" IVar="-1" Cut="0.0000000000000000e+00" cType="1" res="8.7317666038870811e-03" rms="4.5765945315361023e-01" purity="4.9802327156066895e-01" nType="-99"/>
            <Node pos="r" depth="3" NCoef="0" IVar="-1" Cut="0.0000000000000000e+00" cType="1" res="-2.4996824562549591e-02" rms="4.7736665606498718e-01" purity="4.8241287469863892e-01" nType="-99"/>
          </Node>
        </Node>
      </Node>
    </BinaryTree>
    <BinaryTree type="DecisionTree" boostWeight="1.0000000000000000e+00" itree="35">
      <Node pos="s" depth="0" NCoef="0" IVar="6" Cut="2.9919188022613525e+00" cType="1" res="3.9261872188944835e-06" rms="4.5738247036933899e-01" purity="5.0000000000000000e-01" nType="0">
        <Node pos="l" depth="1" NCoef="0" IVar="8" Cut="2.2439677715301514e+00" cType="1" res="-1.9519220804795623e-03" rms="4.5604613423347473e-01" purity="5.0035101175308228e-01" nType="0">
          <Node pos="l" depth="2" NCoef="0" IVar="8" Cut="1.8155618906021118e+00" cType="1" res="5.7447160361334682e-04" rms="4.5647236704826355e-01" purity="5.0181150436401367e-01" nType="0">
            <Node pos="l" depth="3" NCoef="0" IVar="-1" Cut="0.0000000000000000e+00" cType="1" res="-1.7129271291196346e-03" rms="4.5650824904441833e-01" purity="4.9663311243057251e-01" nType="-99"/>
            <Node pos="r" depth="3" NCoef="0" IVar="-1" Cut="0.0000000000000000e+00" cType="1" res="2.8400257229804993e-02" rms="4.5499327778816223e-01" purity="5.6466817855834961e-01" nType="-99"/>
          </Node>
          <Node pos="r" depth="2" NCoef="0" IVar="2" Cut="7.9171419143676758e-01" cType="1" res="-2.0762234926223755e-02" rms="4.5241662859916687e-01" purity="4.8947668075561523e-01" nType="0">
            <Node pos="l" depth="3" NCoef="0" IVar="-1" Cut="0.0000000000000000e+00" cType="1" res="-7.5468290597200394e-03" rms="4.6460032463073730e-01" purity="5.7385742664337158e-01" nType="-99"/>
            <Node pos="r" depth="3" NCoef="0" IVar="-1" Cut="0.0000000000000000e+00" cType="1" res="-3.4923270344734192e-02" rms="4.3805772066116333e-01" purity="3.9547261595726013e-01" nType="-99"/>
          </Node>
        </Node>
        <Node pos="r" depth="1" NCoef="0" IVar="-1" Cut="0.0000000000000000e+00" cType="1" res="1.6283784061670303e-02" rms="4.6906697750091553e-01" purity="4.9678468704223633e-01" nType="-99"/>
      </Node>
    </BinaryTree>
    <BinaryTree type="DecisionTree" boostWeight="1.0000000000000000e+00" itree="36">
      <Node pos="s" depth="0" NCoef="0" IVar="9" Cut="2.6820988655090332e+00" cType="1" res="6.5419862949056551e-06" rms="4.5726868510246277e-01" purity="5.0000000000000000e-01" nType="0">
        <Node pos="l" depth="1" NCoef="0" IVar="0" Cut="1.5183494567871094e+02" cType="1" res="-1.1539729312062263e-03" rms="4.5929244160652161e-01" purity="5.0894069671630859e-01" nType="0">
          <Node pos="l" depth="2" NCoef="0" IVar="2" Cut="1.4665070772171021e+00" cType="1" res="9.6427026437595487e-04" rms="4.6710681915283203e-01" purity="5.3377306461334229e-01" nType="0">
            <Node pos="l" depth="3" NCoef="0" IVar="-1" Cut="0.0000000000000000e+00" cType="1" res="3.4705307334661484e-03" rms="4.6962273120880127e-01" purity="5.6167232990264893e-01" nType="-99"/>
            <Node pos="r" depth="3" NCoef="0" IVar="-1" Cut="0.0000000000000000e+00" cType="1" res="-1.3309923000633717e-02" rms="4.5385167002677917e-01" purity="3.9254453778266907e-01" nType="-99"/>
          </Node>
          <Node pos="r" depth="2" NCoef="0" IVar="-1" Cut="0.0000000000000000e+00" cType="1" res="-4.5642331242561340e-02" rms="3.3418050408363342e-01" purity="1.7146253585815430e-01" nType="-99"/>
        </Node>
        <Node pos="r" depth="1" NCoef="0" IVar="-1" Cut="0.0000000000000000e+00" cType="1" res="2.2599855437874794e-02" rms="4.2082545161247253e-01" purity="3.4774771332740784e-01" nType="-99"/>
      </Node>
    </BinaryTree>
    <BinaryTree type="DecisionTree" boostWeight="1.0000000000000000e+00" itree="37">
      <Node pos="s" depth="0" NCoef="0" IVar="11" Cut="1.6703431606292725e+00" cType="1" res="-2.8660895623033866e-05" rms="4.5717924833297729e-01" purity="5.0000000000000000e-01" nType="0">
        <Node pos="l" depth="1" NCoef="0" IVar="5" Cut="1.3819059753417969e+02" cType="1" res="-3.3791540190577507e-03" rms="4.6613055467605591e-01" purity="5.6524252891540527e-01" nType="0">
          <Node pos="l" depth="2" NCoef="0" IVar="4" Cut="4.6010002493858337e-01" cType="1" res="1.0327065829187632e-03" rms="4.6678805351257324e-01" purity="5.8939158916473389e-01" nType="0">
            <Node pos="l" depth="3" NCoef="0" IVar="-1" Cut="0.0000000000000000e+00" cType="1" res="1.0807051323354244e-02" rms="4.5691472291946411e-01" purity="6.3191676139831543e-01" nType="-99"/>
            <Node pos="r" depth="3" NCoef="0" IVar="-1" Cut="0.0000000000000000e+00" cType="1" res="-6.2901866622269154e-03" rms="4.7418105602264404e-01" purity="5.5620598793029785e-01" nType="-99"/>
          </Node>
          <Node pos="r" depth="2" NCoef="0" IVar="2" Cut="8.0321902036666870e-01" cType="1" res="-1.7866378650069237e-02" rms="4.6366977691650391e-01" purity="4.8594415187835693e-01" nType="0">
            <Node pos="l" depth="3" NCoef="0" IVar="-1" Cut="0.0000000000000000e+00" cType="1" res="-5.6572520406916738e-04" rms="4.6731713414192200e-01" purity="5.3286147117614746e-01" nType="-99"/>
            <Node pos="r" depth="3" NCoef="0" IVar="-1" Cut="0.0000000000000000e+00" cType="1" res="-4.0913857519626617e-02" rms="4.5641893148422241e-01" purity="4.1083773970603943e-01" nType="-99"/>
          </Node>
        </Node>
        <Node pos="r" depth="1" NCoef="0" IVar="6" Cut="2.6925272941589355e+00" cType="1" res="7.6726949773728848e-03" rms="4.3581014871597290e-01" purity="3.5003527998924255e-01" nType="0">
          <Node pos="l" depth="2" NCoef="0" IVar="8" Cut="1.0469784736633301e+00" cType="1" res="1.0994296753779054e-03" rms="4.3820649385452271e-01" purity="3.4799414873123169e-01" nType="0">
            <Node pos="l" depth="3" NCoef="0" IVar="-1" Cut="0.0000000000000000e+00" cType="1" res="-9.9771833047270775e-03" rms="4.3023365736007690e-01" purity="3.2709658145904541e-01" nType="-99"/>
            <Node pos="r" depth="3" NCoef="0" IVar="-1" Cut="0.0000000000000000e+00" cType="1" res="2.0550476387143135e-02" rms="4.5064312219619751e-01" purity="3.8302397727966309e-01" nType="-99"/>
          </Node>
          <Node pos="r" depth="2" NCoef="0" IVar="-1" Cut="0.0000000000000000e+00" cType="1" res="2.7877328917384148e-02" rms="4.2827636003494263e-01" purity="3.5590952634811401e-01" nType="-99"/>
        </Node>
      </Node>
    </BinaryTree>
    <BinaryTree type="DecisionTree" boostWeight="1.0000000000000000e+00" itree="38">
      <Node pos="s" depth="0" NCoef="0" IVar="10" Cut="2.5431590080261230e+00" cType="1" res="-3.1342515285359696e-05" rms="4.5697522163391113e-01" purity="5.0000000000000000e-01" nType="0">
        <Node pos="l" depth="1" NCoef="0" IVar="11" Cut="2.3384144306182861e+00" cType="1" res="2.5504182558506727e-03" rms="4.5617410540580750e-01" purity="5.1084947586059570e-01" nType="0">
          <Node pos="l" depth="2" NCoef="0" IVar="0" Cut="1.1010623168945312e+02" cType="1" res="-9.3456555623561144e-04" rms="4.6380090713500977e-01" purity="5.5182176828384399e-01" nType="0">
            <Node pos="l" depth="3" NCoef="0" IVar="-1" Cut="0.0000000000000000e+00" cType="1" res="-5.3181410767138004e-03" rms="4.7135546803474426e-01" purity="5.4966670274734497e-01" nType="-99"/>
            <Node pos="r" depth="3" NCoef="0" IVar="-1" Cut="0.0000000000000000e+00" cType="1" res="2.0770059898495674e-02" rms="4.3023273348808289e-01" purity="5.6079792976379395e-01" nType="-99"/>
          </Node>
          <Node pos="r" depth="2" NCoef="0" IVar="8" Cut="7.4715763330459595e-01" cType="1" res="2.0863436162471771e-02" rms="4.1331008076667786e-01" purity="2.9554644227027893e-01" nType="0">
            <Node pos="l" depth="3" NCoef="0" IVar="-1" Cut="0.0000000000000000e+00" cType="1" res="-4.9138171598315239e-03" rms="3.8766747713088989e-01" purity="2.4706621468067169e-01" nType="-99"/>
            <Node pos="r" depth="3" NCoef="0" IVar="-1" Cut="0.0000000000000000e+00" cType="1" res="5.4635111242532730e-02" rms="4.3676611781120300e-01" purity="3.4570631384849548e-01" nType="-99"/>
          </Node>
        </Node>
